\data\
ngram 1=90
ngram 2=1082
ngram 3=5444
ngram 4=16592

\1-grams:
-2.746192	<unk>	0
0	<s>	-3.0639584
-2.6312304	</s>	0
-1.4239444	<SIL>	-0.68373
-1.8954645	tʰ	-0.6792259
-1.5907363	i	-0.9110589
-1.836545	˩˥	-0.52713954
-2.0022304	g	-0.54406804
-1.6582972	ɯ	-0.8816918
-1.6232042	˩	-0.84720796
-2.044574	ʝ	-0.64345264
-1.6769677	˥	-0.68653756
-1.928221	dʑ	-0.6585413
-1.4807743	o	-0.8547853
-1.8098347	ʈʂʰ	-0.54818463
-1.5322843	˧	-0.8799138
-1.9636511	z	-0.6320232
-1.8650063	n	-0.57080233
-1.8650063	m	-0.5862658
-1.4687977	v̩	-1.1741568
-1.8954645	k	-0.5288281
-1.836545	h	-0.5554838
-2.2734601	ĩ	-0.41497335
-2.5925992	jæ	-0.30103
-1.8650063	s	-0.61066014
-1.7846725	əəə…	-0.43709216
-2.044574	kʰ	-0.55375534
-1.7846725	ə	-0.5658479
-2.044574	ʐ	-0.5710258
-1.836545	wæ	-0.6585413
-2.2734601	ɻ	-0.3332147
-1.434731	æ	-1.0086001
-2.1441097	ɳ	-0.47712123
-1.696477	l	-0.62921226
-1.7608886	e	-0.58275485
-1.6066669	ɤ	-0.8764378
-1.5605276	ɑ	-0.87242115
-1.8098347	p	-0.6222634
-2.0914965	ʑ	-0.64345264
-1.9636511	qʰ	-0.60206
-1.7383398	wɤ	-0.8187691
-2.1441097	q	-0.5149098
-2.044574	dz	-0.5757311
-2.044574	ts	-0.49008623
-1.9636511	ʂ	-0.51987326
-2.044574	ɬ	-0.5118834
-1.8954645	d	-0.5898255
-2.0914965	ɲ	-0.7781512
-2.0022304	b	-0.50514996
-1.8650063	ɖ	-0.6154239
-2.0022304	ʁ	-0.5563025
-2.0914965	t	-0.44445214
-2.1441097	tɕʰ	-0.50514996
-1.8650063	w	-0.53839093
-2.0022304	tsʰ	-0.5785789
-2.0914965	tɕ	-0.4846744
-2.0914965	pʰ	-0.5772364
-1.7383398	˧˥	-0.6075001
-1.7169043	õ	-0.4457128
-2.203987	jo	-0.47712123
-1.836545	jɤ	-0.5727706
-2.0914965	ʈʂ	-0.41642344
-2.0914965	æ̃	-0.45229766
-2.203987	ʈ	-0.42596874
-2.3562033	ɣ	-0.5228787
-2.2734601	ɻ̍	-0.38021123
-2.044574	ŋ	-0.54406804
-2.0022304	ʈʰ	-0.552842
-2.6312304	ṽ	-0.30103
-2.3562033	f	-0.41017446
-2.4585116	ɭ	-0.39794
-2.1441097	ɕ	-0.5149098
-2.1441097	mmm…	-0.3580685
-2.4585116	ɑ̃	-0.30103
-2.6312304	ṽ̩	-0.30103
-1.928221	v	-0.3467875
-2.1441097	j	-0.30103
-2.6312304	ẽ	-0.30103
-2.0914965	ɖʐ	-0.50514996
-2.6312304	w̃æ	-0.30103
-2.5925992	ɻ̩	-0.30103
-2.5925992	ə̃	-0.30103
-2.5925992	wɑ	-0.30103
-2.5674665	ɛ	-0.30103
-2.5674665	ɻ̃	-0.30103
-2.5674665	ɔ	-0.30103
-2.6312304	ĩ	-0.30103
-2.5674665	u	-0.30103
-2.6312304	õ	-0.30103
-2.6312304	ɻ̩̃	-0.30103

\2-grams:
-1.4272563	<SIL> </s>	0
-0.00036084495	<s> <SIL>	-1.3928087
-1.7096667	tʰ <SIL>	-0.2523196
-1.8628142	i <SIL>	-0.2523196
-1.2268767	˩˥ <SIL>	-0.43551308
-1.6784341	g <SIL>	-0.2523196
-1.6968306	ɯ <SIL>	-0.2523196
-1.4334623	˩ <SIL>	-0.6889745
-1.3288709	˥ <SIL>	-0.5582715
-1.4859784	dʑ <SIL>	-0.2523196
-1.5086559	o <SIL>	-0.25529608
-1.696874	ʈʂʰ <SIL>	-0.2523196
-1.5101333	˧ <SIL>	-0.7206719
-1.601243	n <SIL>	-0.2523196
-1.7206318	m <SIL>	-0.2523196
-1.6705438	k <SIL>	-0.2523196
-1.8180975	h <SIL>	-0.2523196
-1.2761176	ĩ <SIL>	-0.2523196
-1.1837914	əəə… <SIL>	-0.32521263
-1.3680844	ə <SIL>	-0.2523196
-1.7127415	ʐ <SIL>	-0.2523196
-1.6889821	wæ <SIL>	-0.2523196
-2.0657234	æ <SIL>	-0.2523196
-1.3943052	ɳ <SIL>	-0.2523196
-1.6734477	e <SIL>	-0.2523196
-1.945518	ɤ <SIL>	-0.2523196
-1.7632332	ɑ <SIL>	-0.2523196
-1.5951533	q <SIL>	-0.2523196
-1.49195	ʂ <SIL>	-0.2523196
-1.6202663	d <SIL>	-0.2523196
-1.6148676	b <SIL>	-0.2523196
-1.6146637	ɖ <SIL>	-0.2523196
-1.6134257	ʁ <SIL>	-0.2523196
-1.528954	tɕ <SIL>	-0.2523196
-1.1849661	˧˥ <SIL>	-0.47212154
-1.1436722	õ <SIL>	-0.2589619
-0.940334	jɤ <SIL>	-0.66796577
-1.461252	ŋ <SIL>	-0.2523196
-0.9951006	mmm… <SIL>	-0.2682567
-1.1918421	ɑ̃ <SIL>	-0.2523196
-0.7168032	v <SIL>	-0.2523196
-1.128467	j <SIL>	-0.2523196
-1.5585382	<SIL> tʰ	-0.65984446
-1.5719994	˩˥ tʰ	-0.54617715
-2.1725664	ɯ tʰ	-0.2523196
-1.5980239	˩ tʰ	-0.83408296
-1.4661794	˥ tʰ	-0.7154119
-2.0395198	o tʰ	-0.2523196
-1.5590395	˧ tʰ	-0.83747137
-1.9633559	n tʰ	-0.2523196
-1.3055924	əəə… tʰ	-0.4092967
-1.5986677	ə tʰ	-0.25979933
-1.3709998	˧˥ tʰ	-0.6282617
-1.5293175	õ tʰ	-0.36693576
-1.5428029	mmm… tʰ	-0.25979933
-0.8815345	ə̃ tʰ	-0.2523196
-0.5641355	tʰ i	-0.64249474
-1.0036272	g i	-0.4212477
-0.16263251	ʝ i	-0.47859862
-0.93783605	dʑ i	-0.5215252
-0.9250588	n i	-0.52325153
-0.96455204	m i	-0.48693255
-0.9214044	k i	-0.4969561
-1.396204	h i	-0.49187452
-0.7620644	s i	-0.54908043
-0.7722815	kʰ i	-0.5081142
-0.9220413	l i	-0.5032229
-0.4740888	p i	-0.7519536
-0.16263251	ʑ i	-0.5771092
-1.6629488	q i	-0.2523196
-1.0708823	dz i	-0.3983128
-1.6381252	ts i	-0.2523196
-0.6586961	ɬ i	-0.54908043
-0.5134301	d i	-0.6464169
-0.07695811	ɲ i	-0.5783618
-0.9189449	b i	-0.44886523
-0.92592734	t i	-0.41269323
-0.5546259	tɕʰ i	-0.5783618
-0.79710513	tsʰ i	-0.49522284
-0.786274	tɕ i	-0.4758767
-0.85653114	pʰ i	-0.4736265
-1.4606396	ʈ i	-0.2523196
-1.1727282	ʈʰ i	-0.25729176
-0.58864856	ɕ i	-0.52498484
-1.0121431	i ˩˥	-0.3661084
-0.8921939	ɯ ˩˥	-0.42007935
-0.9639577	o ˩˥	-0.4199354
-0.98441297	v̩ ˩˥	-0.37525788
-1.355903	ĩ ˩˥	-0.2523196
-1.4002957	wæ ˩˥	-0.25397062
-1.125183	æ ˩˥	-0.3465249
-1.5761759	e ˩˥	-0.2523196
-1.4738926	ɤ ˩˥	-0.27001065
-1.0295699	ɑ ˩˥	-0.34673983
-0.7648395	wɤ ˩˥	-0.3969117
-1.8679262	õ ˩˥	-0.2523196
-1.8089826	jɤ ˩˥	-0.2523196
-1.4615009	æ̃ ˩˥	-0.2523196
-1.2778642	ɑ̃ ˩˥	-0.2523196
-0.58958566	ɻ̩̃ ˩˥	-0.2523196
-1.8194138	<SIL> g	-0.47925103
-1.7544912	˩˥ g	-0.33496076
-2.196754	ɯ g	-0.2523196
-1.6048616	˩ g	-0.68952537
-1.628707	˥ g	-0.49114606
-1.702671	˧ g	-0.71335584
-1.977448	əəə… g	-0.25729176
-1.3213394	ʑ g	-0.2523196
-1.8917843	˧˥ g	-0.2523196
-1.9245147	õ g	-0.2523196
-0.29673067	õ g	-0.2523196
-0.8572091	g ɯ	-0.4143819
-0.67338085	dʑ ɯ	-0.63294995
-0.5531508	ʈʂʰ ɯ	-0.7154119
-0.5932473	z ɯ	-0.44538856
-1.2401824	k ɯ	-0.4322338
-1.3136736	h ɯ	-0.48497877
-0.94605243	s ɯ	-0.49522284
-0.96226263	kʰ ɯ	-0.43373263
-0.96758485	ʐ ɯ	-0.70272785
-0.43364233	ɳ ɯ	-0.54842734
-1.8950397	l ɯ	-0.2523196
-0.7502904	dz ɯ	-0.48497877
-0.95842165	ts ɯ	-0.41988218
-0.73584795	ʂ ɯ	-0.6649329
-0.5328312	ɖ ɯ	-0.6082879
-1.1588683	tɕʰ ɯ	-0.30866277
-0.7997688	tsʰ ɯ	-0.4322338
-0.7058643	tɕ ɯ	-0.48809028
-1.3793154	ʈʂ ɯ	-0.25604337
-1.234806	ʈ ɯ	-0.2523196
-0.1508331	ɣ ɯ	-0.34707442
-0.7301374	ʈʰ ɯ	-0.43319482
-0.29346535	ɭ ɯ	-0.31913158
-1.0706393	ɖʐ ɯ	-0.37560955
-0.66442424	i ˩	-0.8070826
-0.6569884	ɯ ˩	-0.7208096
-0.6718539	o ˩	-0.706479
-0.5767748	v̩ ˩	-0.6626963
-1.3222107	ĩ ˩	-0.2523196
-0.5818546	jæ ˩	-0.2523196
-0.83039904	ə ˩	-0.43928373
-0.7254869	wæ ˩	-0.34738475
-0.9273883	ɻ ˩	-0.25479853
-0.5980234	æ ˩	-0.5094868
-0.65338755	e ˩	-0.42582935
-0.6020595	ɤ ˩	-0.49969465
-0.4862964	ɑ ˩	-0.4774242
-0.552222	wɤ ˩	-0.49509948
-1.4745324	õ ˩	-0.2645414
-0.5234524	jo ˩	-0.29803237
-0.6902788	jɤ ˩	-0.28822827
-0.4789487	æ̃ ˩	-0.3116435
-0.5205855	ɻ̍ ˩	-0.27194595
-0.9511466	ṽ ˩	-0.2523196
-1.2413868	ɑ̃ ˩	-0.2523196
-0.9511466	ṽ̩ ˩	-0.2523196
-0.5818546	ɻ̩ ˩	-0.2523196
-0.5818546	ɛ ˩	-0.2523196
-0.5818546	ɻ̃ ˩	-0.2523196
-0.5818546	ɻ̩̃ ˩	-0.2523196
-1.7608116	<SIL> ʝ	-0.7929045
-2.0478332	˩˥ ʝ	-0.36693576
-1.8234805	˩ ʝ	-0.8898145
-1.8028238	˥ ʝ	-0.7349126
-2.3065145	o ʝ	-0.2523196
-1.7392862	˧ ʝ	-0.8793918
-2.1708953	əəə… ʝ	-0.2523196
-1.8625722	e ʝ	-0.2523196
-2.3662546	˧˥ ʝ	-0.2523196
-1.9367743	õ ʝ	-0.2523196
-0.7032544	i ˥	-0.59843916
-0.7710112	ɯ ˥	-0.5181529
-0.7930998	o ˥	-0.52146214
-0.7341341	v̩ ˥	-0.52301216
-1.3320467	ĩ ˥	-0.2523196
-1.7802379	ə ˥	-0.2523196
-0.94167084	wæ ˥	-0.25562802
-1.3421552	ɻ ˥	-0.2523196
-0.8715502	æ ˥	-0.3275359
-1.0703545	e ˥	-0.2986035
-0.72969234	ɤ ˥	-0.3175547
-0.8831562	ɑ ˥	-0.37150145
-0.86289275	wɤ ˥	-0.3085465
-1.6160811	õ ˥	-0.2523196
-1.3126514	jo ˥	-0.2523196
-1.7630924	jɤ ˥	-0.2523196
-1.4337108	æ̃ ˥	-0.2523196
-1.0357416	ɻ̍ ˥	-0.25417748
-0.9565604	ṽ ˥	-0.2523196
-1.2520119	ɑ̃ ˥	-0.2523196
-0.9565604	ṽ̩ ˥	-0.2523196
-0.86799765	ɻ̩ ˥	-0.2523196
-0.2919875	ĩ ˥	-0.2523196
-1.6924858	<SIL> dʑ	-0.63382673
-1.4081626	˩˥ dʑ	-0.5581336
-1.5732036	˩ dʑ	-0.7822466
-1.5384548	˥ dʑ	-0.66796577
-1.830186	dʑ dʑ	-0.2523196
-1.6664423	˧ dʑ	-0.8675381
-1.9094671	m dʑ	-0.2523196
-1.4516528	əəə… dʑ	-0.29387698
-1.8515415	ə dʑ	-0.2523196
-1.8402225	e dʑ	-0.2523196
-1.8483582	p dʑ	-0.2523196
-1.3733345	˧˥ dʑ	-0.6649329
-1.3601733	mmm… dʑ	-0.25604337
-2.034898	<SIL> o	-0.2523196
-0.87022865	tʰ o	-0.503493
-1.0921986	g o	-0.4736265
-2.1996512	˩ o	-0.2523196
-2.0933723	˥ o	-0.2523196
-0.66842526	dʑ o	-0.5405469
-1.8055614	o o	-0.25729176
-1.2477614	ʈʂʰ o	-0.37560955
-2.292516	˧ o	-0.2523196
-0.44646573	z o	-0.65143335
-0.82196957	n o	-0.6378526
-1.0366707	m o	-0.53444314
-1.216084	k o	-0.4322338
-1.151689	h o	-0.4701568
-0.75753766	s o	-0.5912094
-1.0352268	ʐ o	-0.5887845
-0.97368103	l o	-0.5771092
-0.95797354	p o	-0.4812166
-1.1095344	qʰ o	-0.34859103
-0.86934507	q o	-0.49187452
-0.82563484	dz o	-0.5783618
-0.6949272	ts o	-0.5588213
-1.0814362	ʂ o	-0.2959219
-0.83927375	ɬ o	-0.51141506
-1.0972999	d o	-0.40376937
-0.8302392	b o	-0.48693255
-1.4166181	ɖ o	-0.2523196
-0.6625107	ʁ o	-0.49522284
-0.9163045	t o	-0.4092967
-0.8064226	tɕʰ o	-0.36052427
-0.29279763	w o	-0.5264946
-0.97492015	tsʰ o	-0.4322338
-1.0130717	tɕ o	-0.25729176
-0.95198256	pʰ o	-0.37701902
-1.0177103	ʈʂ o	-0.40004608
-1.0532805	ɖʐ o	-0.37560955
-1.5879003	<SIL> ʈʂʰ	-0.5562873
-1.4438955	˩˥ ʈʂʰ	-0.5171634
-1.6195703	˩ ʈʂʰ	-0.63056946
-1.4917504	˥ ʈʂʰ	-0.55777985
-2.0214748	o ʈʂʰ	-0.2523196
-1.859521	ʈʂʰ ʈʂʰ	-0.2523196
-1.6567309	˧ ʈʂʰ	-0.59269106
-2.04436	h ʈʂʰ	-0.2523196
-1.9010139	əəə… ʈʂʰ	-0.25729176
-2.0763183	ɤ ʈʂʰ	-0.2523196
-1.7401006	ʁ ʈʂʰ	-0.2523196
-1.6513638	tɕ ʈʂʰ	-0.2523196
-1.5115021	˧˥ ʈʂʰ	-0.7929045
-1.8574425	õ ʈʂʰ	-0.2523196
-0.9675947	ṽ ʈʂʰ	-0.2523196
-1.5247579	mmm… ʈʂʰ	-0.36693576
-0.8769752	ə̃ ʈʂʰ	-0.2523196
-0.6281546	i ˧	-0.84891075
-0.6758705	ɯ ˧	-0.73601836
-0.67027634	o ˧	-0.78784746
-1.6286236	z ˧	-0.2523196
-0.5344024	v̩ ˧	-0.74671346
-0.44679064	ĩ ˧	-0.2861849
-0.5772811	jæ ˧	-0.2523196
-0.46226394	ə ˧	-0.65922564
-0.50678974	wæ ˧	-0.38380653
-1.3067617	ɻ ˧	-0.2523196
-0.45479512	æ ˧	-0.636089
-0.53496855	e ˧	-0.43638533
-0.5590063	ɤ ˧	-0.55292815
-0.66283476	ɑ ˧	-0.5311001
-0.64269364	wɤ ˧	-0.40182328
-1.4582467	w ˧	-0.2523196
-0.6942482	õ ˧	-0.4201368
-0.5207812	jo ˧	-0.28089613
-0.59853506	jɤ ˧	-0.3482114
-0.8029395	æ̃ ˧	-0.25562805
-0.86254394	ɻ̍ ˧	-0.25515383
-0.9405174	ṽ ˧	-0.2523196
-1.2208858	ɑ̃ ˧	-0.2523196
-0.9405174	ṽ̩ ˧	-0.2523196
-1.1534514	j ˧	-0.2523196
-0.28846383	ẽ ˧	-0.2523196
-0.28846383	w̃æ ˧	-0.2523196
-0.85486996	ɻ̩ ˧	-0.2523196
-0.66821116	wɑ ˧	-0.25729176
-0.5772811	ɛ ˧	-0.2523196
-0.5772811	ɻ̃ ˧	-0.2523196
-0.5772811	u ˧	-0.2523196
-1.6966008	<SIL> z	-0.6050242
-1.7477685	˩˥ z	-0.4336015
-1.6627481	˩ z	-0.8750912
-1.6741326	˥ z	-0.66796577
-2.0519805	o z	-0.25979933
-1.6126709	˧ z	-0.8359261
-1.3115637	əəə… z	-0.6875063
-1.8593606	ə z	-0.2523196
-1.7393655	ts z	-0.2523196
-1.6704676	˧˥ z	-0.46699288
-1.5552635	mmm… z	-0.25979933
-1.2604842	v z	-0.2523196
-1.5943866	<SIL> n	-0.5536516
-1.5675715	˩˥ n	-0.44731337
-1.8506936	g n	-0.2523196
-1.6243492	˩ n	-0.70109975
-1.5718931	˥ n	-0.58156264
-2.2531443	o n	-0.2523196
-1.6615595	˧ n	-0.6287092
-1.3874341	n n	-0.2523196
-1.6530783	əəə… n	-0.2835442
-1.825937	e n	-0.2523196
-1.7525339	ʁ n	-0.2523196
-1.7473469	˧˥ n	-0.30015227
-1.8786694	õ n	-0.2523196
-1.8159528	jɤ n	-0.2523196
-1.5367043	mmm… n	-0.2523196
-1.6370523	<SIL> m	-0.59239554
-1.4505739	˩˥ m	-0.53051156
-1.687859	˩ m	-0.7530929
-1.6625851	˥ m	-0.6822062
-1.6330043	˧ m	-0.82029366
-1.9535564	n m	-0.2523196
-1.5042402	m m	-0.25529608
-1.367353	əəə… m	-0.4964469
-2.0892277	ɤ m	-0.2523196
-1.7433211	q m	-0.2523196
-1.7756156	b m	-0.2523196
-1.3686777	˧˥ m	-0.69144684
-1.3352151	jo m	-0.2523196
-1.2230865	mmm… m	-0.31740522
-1.2507235	v m	-0.25979933
-1.6960783	<SIL> v̩	-0.52498484
-0.80058897	tʰ v̩	-0.52325153
-1.7859478	˩˥ v̩	-0.33532378
-0.84660846	g v̩	-0.54621
-1.8144201	˩ v̩	-0.4342246
-1.8759476	˥ v̩	-0.4322338
-1.1211667	ʈʂʰ v̩	-0.36693576
-1.850481	˧ v̩	-0.48693255
-1.3330896	n v̩	-0.4338826
-0.8306251	m v̩	-0.68900514
-0.8455521	k v̩	-0.47689396
-1.7140778	əəə… v̩	-0.25979933
-0.638117	kʰ v̩	-0.5798607
-0.8877497	ʐ v̩	-0.55131376
-1.1746929	ɳ v̩	-0.25729176
-1.2145984	l v̩	-0.4143819
-1.0572287	p v̩	-0.3983128
-0.87453634	qʰ v̩	-0.51141506
-0.7873862	q v̩	-0.57267773
-1.3818023	ʂ v̩	-0.32086486
-1.5274535	ɬ v̩	-0.2523196
-0.8623018	d v̩	-0.4342246
-0.9096776	b v̩	-0.51911724
-1.414086	ɖ v̩	-0.2523196
-1.6321352	ʁ v̩	-0.2523196
-0.73497933	t v̩	-0.4652596
-1.6410112	tsʰ v̩	-0.2523196
-0.76761645	pʰ v̩	-0.43307495
-1.9803216	˧˥ v̩	-0.2523196
-1.0161105	ʈʂ v̩	-0.25604337
-1.2024424	ʈ v̩	-0.25829303
-0.5660497	ŋ v̩	-0.6327672
-1.5299729	ʈʰ v̩	-0.2523196
-0.395663	f v̩	-0.3864763
-1.2727863	mmm… v̩	-0.33532378
-1.3948	v v̩	-0.2523196
-0.7387532	ɖʐ v̩	-0.6363538
-1.7420495	<SIL> k	-0.51911724
-1.5719994	˩˥ k	-0.25604337
-1.5456975	˩ k	-0.7440247
-1.5749867	˥ k	-0.664861
-1.608354	˧ k	-0.7432432
-1.8548477	k k	-0.2523196
-1.8886731	s k	-0.2523196
-1.8438607	ə k	-0.2523196
-2.095829	ɤ k	-0.2523196
-1.7253426	ts k	-0.2523196
-1.4651988	˧˥ k	-0.49881876
-1.889685	õ k	-0.2523196
-1.6785576	mmm… k	-0.2523196
-1.5125133	v k	-0.2523196
-1.7329638	<SIL> h	-0.5153816
-2.1983514	i h	-0.2523196
-1.4472219	˩˥ h	-0.37789047
-1.5179454	˩ h	-0.65050346
-1.5688214	˥ h	-0.53464025
-1.8838937	o h	-0.2523196
-1.6591384	˧ h	-0.6998329
-1.7397912	h h	-0.2836443
-1.5307163	əəə… h	-0.3126148
-1.8288951	ə h	-0.2523196
-1.4863244	ɳ h	-0.2523196
-1.5152252	w h	-0.2523196
-1.3263748	˧˥ h	-0.30087724
-1.8679262	õ h	-0.2523196
-1.8089826	jɤ h	-0.2523196
-1.662083	mmm… h	-0.25979933
-2.639393	<SIL> ĩ	-0.2523196
-2.4347713	˩˥ ĩ	-0.2523196
-2.6247168	˩ ĩ	-0.25729176
-2.6607575	˧ ĩ	-0.25979933
-1.040456	h ĩ	-0.55029595
-2.469796	˧˥ ĩ	-0.2523196
-2.7645376	<SIL> jæ	-0.2523196
-1.0820956	n jæ	-0.6363538
-1.981709	s jæ	-0.2523196
-1.6370523	<SIL> s	-0.63181573
-1.9679618	i s	-0.2523196
-1.7282032	˩˥ s	-0.2589619
-1.8506936	g s	-0.2523196
-1.5957685	˩ s	-0.7123883
-1.3137586	ʝ s	-0.2523196
-1.7773545	˥ s	-0.41627023
-1.6330043	˧ s	-0.7715763
-1.8811258	s s	-0.2523196
-1.6530783	əəə… s	-0.3348157
-1.6876343	t s	-0.2523196
-1.7473469	˧˥ s	-0.30866277
-1.8159528	jɤ s	-0.2523196
-1.6702423	mmm… s	-0.2523196
-1.2816863	ɑ̃ s	-0.2523196
-1.5846931	<SIL> əəə…	-0.3632666
-1.8142413	˩˥ əəə…	-0.25434682
-1.679595	˩ əəə…	-0.35923776
-1.7627604	˥ əəə…	-0.28080297
-1.8769363	˧ əəə…	-0.34354278
-1.9254189	n əəə…	-0.2523196
-1.7865888	əəə… əəə…	-0.2523196
-1.8053532	e əəə…	-0.2523196
-2.0700047	ɤ əəə…	-0.2523196
-2.0809212	ɑ əəə…	-0.2523196
-1.8131466	ʂ əəə…	-0.2523196
-1.7326509	d əəə…	-0.2523196
-1.7182463	ɖ əəə…	-0.2523196
-1.6455116	tɕ əəə…	-0.2523196
-1.5082961	˧˥ əəə…	-0.27741948
-1.5102775	õ əəə…	-0.2523196
-0.972376	ɭ əəə…	-0.2523196
-1.5189058	mmm… əəə…	-0.2523196
-1.7608116	<SIL> kʰ	-0.56523764
-2.24772	i kʰ	-0.2523196
-1.8813654	˩˥ kʰ	-0.30015227
-1.6680297	˩ kʰ	-0.6730412
-2.0877535	˥ kʰ	-0.3581442
-1.8484426	dʑ kʰ	-0.2523196
-1.7053481	˧ kʰ	-0.7223234
-1.9916049	əəə… kʰ	-0.25729176
-2.195354	˧˥ kʰ	-0.25979933
-1.578594	ŋ kʰ	-0.2523196
-1.6263704	<SIL> ə	-0.549281
-1.4938462	˩˥ ə	-0.6301772
-1.7145114	˩ ə	-0.6082879
-1.6047845	˥ ə	-0.60832506
-1.8013668	dʑ ə	-0.2523196
-1.7166576	˧ ə	-0.8898145
-1.8691567	m ə	-0.2523196
-2.0321612	h ə	-0.2523196
-1.43138	əəə… ə	-0.5783618
-1.0939429	ə ə	-0.3429942
-2.0809212	ɑ ə	-0.2523196
-1.6147058	ɬ ə	-0.2523196
-1.7537302	b ə	-0.2523196
-1.5076804	w ə	-0.2523196
-1.5082961	˧˥ ə	-0.6184352
-1.8472059	õ ə	-0.2523196
-1.7953689	jɤ ə	-0.2523196
-1.5189058	mmm… ə	-0.33532378
-1.8249346	<SIL> ʐ	-0.53801763
-1.667372	˩˥ ʐ	-0.3156582
-1.7790997	˩ ʐ	-0.5224477
-1.8028238	˥ ʐ	-0.351693
-1.673871	˧ ʐ	-0.6042947
-1.4642868	əəə… ʐ	-0.45773554
-1.9324634	ʐ ʐ	-0.2523196
-1.8147362	b ʐ	-0.2523196
-1.6011987	˧˥ ʐ	-0.3348157
-1.5366887	v ʐ	-0.2523196
-1.1539025	ʈʂʰ wæ	-0.37298918
-1.6069577	k wæ	-0.25979933
-1.3324757	h wæ	-0.49187452
-1.7263768	kʰ wæ	-0.2523196
-0.84526825	ʐ wæ	-0.65504354
-0.94344795	ɻ wæ	-0.25604337
-1.7311128	l wæ	-0.25979933
-1.1361604	qʰ wæ	-0.36693576
-0.88789153	q wæ	-0.3983128
-1.1117196	ʂ wæ	-0.46699288
-0.7690436	ɖ wæ	-0.47841817
-1.7462727	ʁ wæ	-0.2523196
-1.4098445	ʈʂ wæ	-0.2587229
-1.2559912	ʈ wæ	-0.2523196
-1.5532713	ŋ wæ	-0.2523196
-1.4460796	ɖʐ wæ	-0.2523196
-2.4578536	<SIL> ɻ	-0.2523196
-2.015801	˩ ɻ	-0.4336015
-2.002838	˥ ɻ	-0.5887845
-1.9609112	ʈʂʰ ɻ	-0.2523196
-1.7889323	˧ ɻ	-0.46761924
-0.59745693	u ɻ	-0.2523196
-1.683863	<SIL> æ	-0.5448857
-0.9494531	tʰ æ	-0.45773554
-1.7646279	˩˥ æ	-0.36693576
-1.2109787	g æ	-0.32086486
-2.0332263	˩ æ	-0.40004608
-1.7851024	˥ æ	-0.40004608
-1.0208757	ʈʂʰ æ	-0.46176136
-1.8862627	˧ æ	-0.5887845
-1.491316	n æ	-0.36693576
-0.95319325	m æ	-0.54908043
-1.6761422	k æ	-0.2523196
-1.2068058	h æ	-0.57267773
-1.5433996	s æ	-0.25979933
-1.6918696	əəə… æ	-0.25979933
-1.1267774	ʐ æ	-0.46353322
-0.7085548	ɻ æ	-0.3581442
-2.0703256	æ æ	-0.2523196
-0.8206228	ɳ æ	-0.337574
-1.6237438	l æ	-0.2523196
-1.0539627	p æ	-0.39540625
-0.87228715	qʰ æ	-0.4348082
-0.96476364	q æ	-0.4143819
-1.3840312	ts æ	-0.25729176
-0.9794238	ʂ æ	-0.51366526
-0.90663195	b æ	-0.5129138
-0.6863879	ɖ æ	-0.6184352
-0.96887106	ʁ æ	-0.46699288
-1.352056	t æ	-0.25979933
-1.2744857	tɕʰ æ	-0.25979933
-1.0076851	tɕ æ	-0.25829303
-0.63767505	pʰ æ	-0.48809028
-1.0113465	ʈʂ æ	-0.3272317
-0.53943044	ʈ æ	-0.51141506
-1.4645817	ŋ æ	-0.2523196
-0.40861228	ʈʰ æ	-0.6378526
-0.9016915	f æ	-0.25979933
-1.5017099	mmm… æ	-0.25979933
-1.1949749	ɑ̃ æ	-0.2523196
-1.381555	v æ	-0.2523196
-1.3692195	ɖʐ æ	-0.2523196
-1.9136127	<SIL> ɳ	-0.45773554
-1.6733763	˩ ɳ	-0.90935504
-1.6393772	˥ ɳ	-0.60969275
-1.6492158	˧ ɳ	-0.6790355
-2.21672	əəə… ɳ	-0.2523196
-1.4084227	ɻ ɳ	-0.2523196
-2.2275991	˧˥ ɳ	-0.2523196
-1.9650202	mmm… ɳ	-0.2523196
-1.5010328	<SIL> l	-0.575675
-1.9370577	i l	-0.2523196
-1.3398503	˩˥ l	-0.6014843
-1.894749	ɯ l	-0.2523196
-1.4848341	˩ l	-0.7934215
-1.4472647	˥ l	-0.670714
-1.9929719	o l	-0.2523196
-1.5670842	˧ l	-0.7565309
-1.6918746	n l	-0.25979933
-1.9865282	h l	-0.2523196
-1.6091743	əəə… l	-0.29387698
-1.5653481	ə l	-0.2523196
-1.7796137	wæ l	-0.2523196
-1.7016814	l l	-0.25979933
-1.4929731	w l	-0.2523196
-1.278321	˧˥ l	-0.73182625
-1.8085139	õ l	-0.2523196
-1.7693586	jɤ l	-0.2523196
-1.5912135	ʈʰ l	-0.2523196
-1.616107	mmm… l	-0.2523196
-1.2556123	ɑ̃ l	-0.2523196
-1.2287668	v l	-0.25979933
-2.3203132	<SIL> e	-0.2523196
-1.623858	ʈʂʰ e	-0.25979933
-1.0585884	z e	-0.37560955
-1.3770341	n e	-0.29387698
-1.592777	k e	-0.2523196
-0.9504186	s e	-0.54842734
-1.7088182	kʰ e	-0.2523196
-1.2928296	ʐ e	-0.49187452
-0.62174505	l e	-0.5871074
-0.75330055	dz e	-0.6363538
-1.1016027	ts e	-0.30866277
-0.8518431	ʂ e	-0.58061206
-1.6604004	t e	-0.2523196
-1.5039567	w e	-0.2523196
-0.6718043	tsʰ e	-0.76487577
-1.7145205	pʰ e	-0.2523196
-0.8050752	ʈʂ e	-0.5783618
-0.7561242	j e	-0.25729176
-0.8355147	ɖʐ e	-0.66796577
-0.92331445	g ɤ	-0.48880857
-1.2917796	ʝ ɤ	-0.2523196
-0.72501886	dʑ ɤ	-0.573804
-1.4521921	ʈʂʰ ɤ	-0.31740522
-0.73912036	m ɤ	-0.65174276
-0.92239666	k ɤ	-0.44731337
-1.3068275	h ɤ	-0.45012224
-1.5905633	s ɤ	-0.25979933
-0.959189	kʰ ɤ	-0.34707442
-1.276229	ʐ ɤ	-0.40658298
-1.873381	l ɤ	-0.2523196
-0.9658703	p ɤ	-0.45742607
-1.4222721	dz ɤ	-0.25979933
-1.0886703	ts ɤ	-0.30866277
-1.7474124	ʂ ɤ	-0.2523196
-1.4567745	d ɤ	-0.2523196
-1.4850531	b ɤ	-0.25729176
-1.6105757	t ɤ	-0.2523196
-0.8137123	tɕʰ ɤ	-0.51141506
-1.1193461	tsʰ ɤ	-0.36051607
-1.0254416	tɕ ɤ	-0.31416667
-1.096491	pʰ ɤ	-0.4322338
-1.0323793	ʈʂ ɤ	-0.25829303
-0.87200135	ʈ ɤ	-0.39658648
-1.5103648	ŋ ɤ	-0.2523196
-1.3285851	ʈʰ ɤ	-0.25529608
-0.8286976	ɖʐ ɤ	-0.43319482
-1.7259923	<SIL> ɑ	-0.6363538
-0.9569962	tʰ ɑ	-0.4724002
-1.7297328	˩˥ ɑ	-0.49187452
-1.8412879	˩ ɑ	-0.62189484
-2.0245948	˥ ɑ	-0.36693576
-2.0549119	˧ ɑ	-0.5887845
-1.2485766	z ɑ	-0.36693576
-0.98127717	n ɑ	-0.5592667
-1.2722293	m ɑ	-0.25979933
-1.0119836	h ɑ	-0.5215252
-0.94087034	s ɑ	-0.4964469
-1.5638956	əəə… ɑ	-0.49187452
-0.86886823	l ɑ	-0.51999134
-1.7464621	p ɑ	-0.2523196
-0.5674057	qʰ ɑ	-0.7929045
-1.1087418	q ɑ	-0.29085532
-0.82993776	dz ɑ	-0.54302704
-0.8500027	ts ɑ	-0.43319482
-1.7275403	ʂ ɑ	-0.2523196
-0.6575719	ɬ ɑ	-0.5215252
-0.78458303	d ɑ	-0.47346723
-1.0172924	b ɑ	-0.34707442
-0.7947439	ʁ ɑ	-0.5448857
-1.0554631	t ɑ	-0.32527792
-1.3104608	tsʰ ɑ	-0.25529608
-1.6578214	pʰ ɑ	-0.2523196
-1.765355	˧˥ ɑ	-0.49187452
-1.7401513	õ ɑ	-0.2523196
-1.1787915	f ɑ	-0.2523196
-1.1592042	j ɑ	-0.2523196
-1.5879003	<SIL> p	-0.60581785
-1.4438955	˩˥ p	-0.5689976
-1.5912923	˩ p	-0.71460694
-1.4917504	˥ p	-0.6762329
-1.6019578	˧ p	-0.81372684
-1.9010139	əəə… p	-0.25979933
-1.3674622	ɻ p	-0.2523196
-2.0763183	ɤ p	-0.2523196
-2.0874574	ɑ p	-0.2523196
-1.5114365	w p	-0.2523196
-1.4566071	˧˥ p	-0.5171634
-1.0939234	õ p	-0.5783618
-1.8021224	jɤ p	-0.2523196
-1.005876	ɑ̃ p	-0.25979933
-1.4952258	v p	-0.2523196
-0.9675947	wɑ p	-0.2523196
-0.5888064	ɔ p	-0.2523196
-1.906851	<SIL> ʑ	-0.66796577
-2.0613537	˩˥ ʑ	-0.36693576
-2.0746171	˩ ʑ	-0.51141506
-2.0979836	˥ ʑ	-0.49187452
-1.864529	˧ ʑ	-0.7746565
-2.006239	əəə… ʑ	-0.25979933
-1.6630765	ɬ ʑ	-0.2523196
-1.7666172	ɖ ʑ	-0.2523196
-1.9493899	õ ʑ	-0.2523196
-1.8139623	<SIL> qʰ	-0.46761924
-2.021993	˩˥ qʰ	-0.25604337
-2.188541	ɯ qʰ	-0.2523196
-1.7326264	˩ qʰ	-0.5526345
-1.7292771	˥ qʰ	-0.48497877
-2.2843733	o qʰ	-0.2523196
-1.7698276	˧ qʰ	-0.65984446
-1.3701476	ĩ qʰ	-0.2523196
-1.9637378	əəə… qʰ	-0.2523196
-2.0501966	˧˥ qʰ	-0.25604337
-1.9125917	õ qʰ	-0.2523196
-1.9044926	mmm… qʰ	-0.2523196
-1.7153435	<SIL> wɤ	-0.57190424
-1.7989646	˩˥ wɤ	-0.33532378
-1.2499588	g wɤ	-0.4322338
-1.8322929	˩ wɤ	-0.649621
-1.82036	˥ wɤ	-0.46699288
-1.1474739	ʈʂʰ wɤ	-0.40004608
-1.782975	˧ wɤ	-0.59788525
-0.85993683	k wɤ	-0.60832506
-1.177803	h wɤ	-0.54617715
-1.1043932	kʰ wɤ	-0.39658648
-1.054343	ʐ wɤ	-0.4471383
-1.711272	l wɤ	-0.25979933
-0.99229956	qʰ wɤ	-0.40376937
-1.1247885	q wɤ	-0.39658648
-1.7976551	ʂ wɤ	-0.2523196
-0.8017503	ʁ wɤ	-0.5761373
-1.7205007	˧˥ wɤ	-0.39658648
-1.3943118	ʈʂ wɤ	-0.25979933
-1.2452694	ʈ wɤ	-0.25979933
-0.5020441	ŋ wɤ	-0.60832506
-1.8361912	<SIL> q	-0.5090119
-2.0753088	˩˥ q	-0.25604337
-1.6415024	˩ q	-0.58482003
-1.7473643	˥ q	-0.43307495
-1.7451324	˧ q	-0.65934235
-2.0213835	əəə… q	-0.2523196
-1.7688472	ts q	-0.2523196
-2.4149468	˧˥ q	-0.2523196
-1.8249346	<SIL> dz	-0.55257237
-2.1633573	˩˥ dz	-0.2523196
-1.7790997	˩ dz	-0.5405469
-1.7382265	˥ dz	-0.41793755
-1.7761029	˧ dz	-0.61378366
-1.7242695	t dz	-0.2523196
-1.7759625	˧˥ dz	-0.25729176
-1.713509	mmm… dz	-0.2523196
-1.5366887	v dz	-0.2523196
-0.88768905	ə̃ dz	-0.2523196
-1.8249346	<SIL> ts	-0.45993042
-2.1633573	˩˥ ts	-0.2523196
-1.8729181	˩ ts	-0.5264946
-1.8028238	˥ ts	-0.49522284
-1.9212502	ʈʂʰ ts	-0.2523196
-1.673871	˧ ts	-0.6653865
-1.9916049	əəə… ts	-0.25729176
-1.7538563	ts ts	-0.2523196
-2.195354	˧˥ ts	-0.25729176
-1.9337027	mmm… ts	-0.2523196
-1.6966008	<SIL> ʂ	-0.56401706
-1.8568712	tʰ ʂ	-0.2523196
-1.863587	˩˥ ʂ	-0.30252415
-1.772291	˩ ʂ	-0.5487771
-1.8664168	˥ ʂ	-0.4143819
-1.7698276	˧ ʂ	-0.62937427
-2.1110933	h ʂ	-0.2523196
-1.6733438	əəə… ʂ	-0.33532378
-1.3194317	ʑ ʂ	-0.2523196
-1.863241	ʂ ʂ	-0.2523196
-2.0501966	˧˥ ʂ	-0.2523196
-0.97700906	ṽ̩ ʂ	-0.2523196
-1.8249346	<SIL> ɬ	-0.4652596
-2.0478332	˩˥ ɬ	-0.30015227
-1.8234805	˩ ɬ	-0.5771092
-1.8787369	˥ ɬ	-0.5783618
-1.8606721	˧ ɬ	-0.5887845
-2.1409497	h ɬ	-0.2523196
-2.1708953	əəə… ɬ	-0.2523196
-1.2184665	ɬ ɬ	-0.25604337
-2.195354	˧˥ ɬ	-0.25979933
-1.9337027	mmm… ɬ	-0.2523196
-1.6884094	<SIL> d	-0.56523764
-2.231272	˩˥ d	-0.2523196
-1.7265038	˩ d	-0.6938247
-1.7205085	˥ d	-0.5448857
-1.663994	˧ d	-0.7706647
-1.9633559	n d	-0.2523196
-2.083158	h d	-0.2523196
-1.8240615	əəə… d	-0.33532378
-1.833021	e d	-0.2523196
-2.1076777	ɑ d	-0.2523196
-1.6355418	ɬ d	-0.2523196
-1.6612853	˧˥ d	-0.34859103
-1.8771238	mmm… d	-0.2523196
-1.5125133	v d	-0.2523196
-1.906851	<SIL> ɲ	-0.66796577
-1.768257	˩˥ ɲ	-0.5887845
-1.6390101	˩ ɲ	-1.0659058
-1.550024	˥ ɲ	-0.96899575
-1.5932472	˧ ɲ	-1.145087
-1.890636	ʂ ɲ	-0.2523196
-1.6846159	˧˥ ɲ	-0.66796577
-1.5829618	ŋ ɲ	-0.2523196
-1.5429488	v ɲ	-0.2523196
-1.8194138	<SIL> b	-0.49851203
-2.034721	˩˥ b	-0.25791734
-2.196754	ɯ b	-0.2523196
-1.6048616	˩ b	-0.7123883
-1.628707	˥ b	-0.5887845
-1.6713806	˧ b	-0.78030306
-1.8544532	əəə… b	-0.25604337
-1.8549938	e b	-0.2523196
-2.180087	˧˥ b	-0.2523196
-1.9245147	õ b	-0.2523196
-1.9188522	mmm… b	-0.2523196
-1.6370523	<SIL> ɖ	-0.6762329
-2.2061994	i ɖ	-0.2523196
-1.3188784	˩˥ ɖ	-0.7339419
-1.687859	˩ ɖ	-0.7002669
-1.4969071	˥ ɖ	-0.8192334
-1.6615595	˧ ɖ	-0.68900514
-1.7022253	z ɖ	-0.2523196
-1.8928913	m ɖ	-0.2523196
-1.8464267	k ɖ	-0.2523196
-1.5357245	əəə… ɖ	-0.46699288
-1.4904437	ɳ ɖ	-0.2523196
-1.825937	e ɖ	-0.2523196
-1.2916914	˧˥ ɖ	-0.73182625
-1.4656202	æ̃ ɖ	-0.2523196
-1.8640603	mmm… ɖ	-0.2523196
-1.8194138	<SIL> ʁ	-0.44731337
-1.8723853	˩˥ ʁ	-0.2587229
-1.6991282	˩ ʁ	-0.58267426
-1.8725332	˥ ʁ	-0.4092967
-1.7363923	˧ ʁ	-0.746531
-1.8544532	əəə… ʁ	-0.25604337
-2.23082	æ ʁ	-0.2523196
-1.8721819	ʂ ʁ	-0.2523196
-1.8917843	˧˥ ʁ	-0.25604337
-1.9245147	õ ʁ	-0.2523196
-0.97891665	wɑ ʁ	-0.2523196
-1.906851	<SIL> t	-0.41988218
-2.0613537	˩˥ t	-0.25604337
-1.9984012	˩ t	-0.3618902
-1.8081019	˥ t	-0.37298918
-1.8198134	˧ t	-0.5776933
-1.8759642	əəə… t	-0.25729176
-2.3899186	˧˥ t	-0.2523196
-1.9493899	õ t	-0.2523196
-1.9490793	mmm… t	-0.2523196
-2.0078967	<SIL> tɕʰ	-0.39540625
-2.1995633	˩˥ tɕʰ	-0.25729176
-2.0814464	˩ tɕʰ	-0.31416667
-2.2786193	˥ tɕʰ	-0.25604337
-1.8684205	˧ tɕʰ	-0.5774901
-2.21672	əəə… tɕʰ	-0.2523196
-1.8781377	e tɕʰ	-0.2523196
-2.2275991	˧˥ tɕʰ	-0.2523196
-2.0565562	<SIL> w	-0.49187452
-2.0841875	˩˥ w	-0.25604337
-2.449107	˩ w	-0.2523196
-2.2729769	˥ w	-0.25979933
-2.2531443	o w	-0.2523196
-2.1558716	˧ w	-0.51141506
-2.0698364	h w	-0.2523196
-2.073864	əəə… w	-0.2523196
-1.7323911	kʰ w	-0.2523196
-1.8886244	ʐ w	-0.2523196
-1.825937	e w	-0.2523196
-1.5190473	w w	-0.2523196
-1.8159528	jɤ w	-0.2523196
-1.4656202	æ̃ w	-0.2523196
-1.5066739	v w	-0.2523196
-1.7560445	<SIL> tsʰ	-0.54621
-2.239092	i tsʰ	-0.2523196
-1.8723853	˩˥ tsʰ	-0.30252415
-1.6991282	˩ tsʰ	-0.6380026
-1.7976091	˥ tsʰ	-0.38914633
-1.7729539	˧ tsʰ	-0.6354257
-1.6803147	əəə… tsʰ	-0.30866277
-1.8673229	ə tsʰ	-0.2523196
-2.1288853	ɑ tsʰ	-0.2523196
-1.8917843	˧˥ tsʰ	-0.25604337
-1.6939688	õ tsʰ	-0.2523196
-1.8305264	<SIL> tɕ	-0.5081142
-2.2565227	i tɕ	-0.2523196
-2.181083	˩˥ tɕ	-0.2523196
-1.8771977	˩ tɕ	-0.5283171
-1.7427714	˥ tɕ	-0.48693255
-1.864529	˧ tɕ	-0.649621
-2.1932034	əəə… tɕ	-0.2523196
-1.781919	˧˥ tɕ	-0.4322338
-1.9490793	mmm… tɕ	-0.2523196
-1.906851	<SIL> pʰ	-0.4471383
-2.181083	˩˥ pʰ	-0.25529608
-1.8272976	˩ pʰ	-0.45905983
-1.9785832	˥ pʰ	-0.37298918
-1.7421994	˧ pʰ	-0.5783618
-1.928512	s pʰ	-0.2523196
-2.006239	əəə… pʰ	-0.2523196
-1.9075137	˧˥ pʰ	-0.25604337
-1.9490793	mmm… pʰ	-0.2523196
-1.0525396	i ˧˥	-0.40818256
-1.0071892	ɯ ˧˥	-0.3425827
-1.0982265	o ˧˥	-0.38263518
-1.0223988	v̩ ˧˥	-0.38492802
-1.3421109	ĩ ˧˥	-0.2523196
-1.5734414	ə ˧˥	-0.25979933
-0.943988	wæ ˧˥	-0.3045425
-1.1230881	æ ˧˥	-0.42249534
-1.7921534	e ˧˥	-0.2523196
-1.0115991	ɤ ˧˥	-0.3201324
-1.1578679	ɑ ˧˥	-0.32783562
-1.52932	wɤ ˧˥	-0.2523196
-1.1878965	õ ˧˥	-0.2760715
-1.2004884	jɤ ˧˥	-0.29570016
-1.1852825	æ̃ ˧˥	-0.25529608
-1.0412238	ɻ̍ ˧˥	-0.25604337
-0.9620425	ṽ ˧˥	-0.2523196
-1.2629036	ɑ̃ ˧˥	-0.2523196
-0.9620425	ṽ̩ ˧˥	-0.2523196
-0.9620425	wɑ ˧˥	-0.2523196
-1.8329916	<SIL> õ	-0.3619003
-1.7915232	˩˥ õ	-0.4322338
-1.5868465	g õ	-0.25979933
-2.120874	ɯ õ	-0.2523196
-1.8284318	˩ õ	-0.5001247
-1.8149318	˥ õ	-0.30015227
-1.8278247	ʈʂʰ õ	-0.2523196
-2.1126335	˧ õ	-0.43079624
-1.8989937	n õ	-0.2523196
-1.583574	k õ	-0.25979933
-1.4161243	h õ	-0.3126148
-1.3387302	ĩ õ	-0.2523196
-1.8566365	əəə… õ	-0.25979933
-1.7064502	l õ	-0.2523196
-1.5637271	p õ	-0.25729176
-1.7162348	d õ	-0.2523196
-1.5086781	b õ	-0.2523196
-1.7162534	ʁ õ	-0.2523196
-1.6473981	t õ	-0.2523196
-1.8206939	˧˥ õ	-0.25604337
-1.496526	õ õ	-0.2523196
-2.016447	<SIL> jo	-0.40004608
-2.4034784	˩˥ jo	-0.2523196
-2.3073668	˩ jo	-0.32086486
-2.2946005	˥ jo	-0.25979933
-2.3440907	˧ jo	-0.25979933
-1.8861349	e jo	-0.2523196
-1.2405901	ɕ jo	-0.25979933
-2.047187	<SIL> jɤ	-0.2587229
-2.069949	˩˥ jɤ	-0.2523196
-1.8480899	˩ jɤ	-0.4092967
-2.168356	˥ jɤ	-0.25729176
-2.2432146	o jɤ	-0.2523196
-2.0661218	˧ jɤ	-0.32086486
-0.9959831	n jɤ	-0.60832506
-1.838166	k jɤ	-0.2523196
-2.056812	əəə… jɤ	-0.2523196
-1.3840448	l jɤ	-0.2523196
-1.4378734	t jɤ	-0.25979933
-2.1108947	˧˥ jɤ	-0.2523196
-1.8089826	jɤ jɤ	-0.2523196
-0.5086279	ɕ jɤ	-0.28905818
-1.8513781	mmm… jɤ	-0.2523196
-0.8784896	ə̃ jɤ	-0.2523196
-1.906851	<SIL> ʈʂ	-0.40376937
-2.2565227	i ʈʂ	-0.2523196
-2.346939	˩˥ ʈʂ	-0.2523196
-1.9984012	˩ ʈʂ	-0.31410614
-1.9785832	˥ ʈʂ	-0.32086486
-1.7421994	˧ ʈʂ	-0.44947165
-2.1932034	əəə… ʈʂ	-0.2523196
-2.3899186	˧˥ ʈʂ	-0.2523196
-1.9490793	mmm… ʈʂ	-0.2523196
-2.3915937	<SIL> æ̃	-0.25829303
-2.346939	˩˥ æ̃	-0.2523196
-2.284803	˩ æ̃	-0.25604337
-2.5331705	˥ æ̃	-0.2523196
-1.5877202	h æ̃	-0.37298918
-2.006239	əəə… æ̃	-0.25979933
-1.974773	æ æ̃	-0.25729176
-1.5427144	w æ̃	-0.2523196
-1.9490793	mmm… æ̃	-0.2523196
-1.8419309	<SIL> ʈ	-0.5761373
-2.0897272	˩˥ ʈ	-0.36693576
-1.9434912	˩ ʈ	-0.4041679
-1.9946016	˥ ʈ	-0.40004608
-2.0470877	˧ ʈ	-0.4336015
-2.2415833	əəə… ʈ	-0.2523196
-2.441506	˧˥ ʈ	-0.2523196
-2.4823947	<SIL> ɣ	-0.25979933
-2.4684956	˩˥ ɣ	-0.2523196
-2.6494555	˩ ɣ	-0.25979933
-2.4645126	˥ ɣ	-0.25979933
-2.1398253	˧ ɣ	-0.66796577
-2.4578536	<SIL> ɻ̍	-0.25979933
-1.9485303	˩ ɻ̍	-0.5448857
-2.311192	˥ ɻ̍	-0.36693576
-1.690886	ʈʂʰ ɻ̍	-0.25604337
-1.7889323	˧ ɻ̍	-0.7744211
-1.919876	ʂ ɻ̍	-0.2523196
-1.7608116	<SIL> ŋ	-0.54842734
-1.8691272	tʰ ŋ	-0.2523196
-2.0478332	˩˥ ŋ	-0.32086486
-2.1588123	˩ ŋ	-0.40693763
-1.9707904	˥ ŋ	-0.36693576
-2.3065145	o ŋ	-0.2523196
-1.910059	˧ ŋ	-0.61743635
-1.9916049	əəə… ŋ	-0.2523196
-1.5116472	ɳ ŋ	-0.2523196
-2.195354	˧˥ ŋ	-0.25979933
-1.8194138	<SIL> ʈʰ	-0.48497877
-1.7544912	˩˥ ʈʰ	-0.51141506
-1.9238997	˩ ʈʰ	-0.60343814
-2.077759	˥ ʈʰ	-0.25979933
-1.7729539	˧ ʈʰ	-0.61519665
-1.9121354	s ʈʰ	-0.2523196
-1.8544532	əəə… ʈʰ	-0.36693576
-1.8673229	ə ʈʰ	-0.2523196
-2.0614653	˧˥ ʈʰ	-0.25729176
-1.6423385	ʈʰ ʈʰ	-0.2523196
-1.9188522	mmm… ʈʰ	-0.2523196
-1.6155487	h ṽ	-0.35578513
-2.163389	<SIL> f	-0.25604337
-2.2602499	˩˥ f	-0.25729176
-2.6494555	˩ f	-0.25979933
-2.368119	˧ f	-0.4322338
-2.296036	əəə… f	-0.2523196
-2.7186978	<SIL> ɭ	-0.2523196
-2.109891	˩ ɭ	-0.66796577
-2.7036226	˥ ɭ	-0.2523196
-1.9961786	˧ ɭ	-0.6875063
-2.1284933	<SIL> ɕ	-0.31740522
-2.0753088	˩˥ ɕ	-0.25729176
-2.175583	˩ ɕ	-0.30015227
-2.3977058	˥ ɕ	-0.2523196
-2.041229	˧ ɕ	-0.45505422
-2.21672	əəə… ɕ	-0.2523196
-1.7224739	wɤ ɕ	-0.25979933
-1.8681536	jɤ ɕ	-0.2523196
-2.0078967	<SIL> mmm…	-0.28170258
-2.1995633	˩˥ mmm…	-0.2523196
-2.004124	˩ mmm…	-0.25529602
-2.1084604	˥ mmm…	-0.2523196
-2.041229	˧ mmm…	-0.29387698
-2.1730113	h mmm…	-0.2523196
-1.8871328	əəə… mmm…	-0.2523196
-1.9155973	˧˥ mmm…	-0.2523196
-2.7186978	<SIL> ɑ̃	-0.2523196
-1.4686852	h ɑ̃	-0.3348157
-1.9723779	s ɑ̃	-0.2523196
-2.07609	l ɑ̃	-0.2523196
-1.8296943	h ṽ̩	-0.25657794
-2.2520711	˩˥ v	-0.2523196
-1.6238102	g v	-0.2523196
-2.4329047	˥ v	-0.2523196
-1.5109376	m v	-0.2523196
-2.1101184	əəə… v	-0.2523196
-1.7446754	kʰ v	-0.2523196
-1.6638148	ʐ v	-0.2523196
-1.8483582	p v	-0.2523196
-1.7571211	q v	-0.2523196
-1.5423205	b v	-0.2523196
-1.7019198	t v	-0.2523196
-1.2208123	f v	-0.2523196
-1.7141812	ɖʐ v	-0.2523196
-2.7380364	˩ j	-0.2523196
-1.8610544	wæ j	-0.2523196
-1.883521	p j	-0.2523196
-1.739835	t j	-0.2523196
-1.6368418	tɕʰ j	-0.2523196
-1.7797494	pʰ j	-0.2523196
-1.0679016	ɕ j	-0.25729176
-1.9650202	mmm… j	-0.2523196
-1.2462305	j ẽ	-0.2523196
-1.906851	<SIL> ɖʐ	-0.3715847
-1.8905352	˩˥ ɖʐ	-0.25829303
-2.2136612	ɯ ɖʐ	-0.2523196
-1.7825446	˩ ɖʐ	-0.3581442
-2.2632055	˥ ɖʐ	-0.2523196
-1.8547027	dʑ ɖʐ	-0.2523196
-1.9707106	˧ ɖʐ	-0.38759997
-1.7859869	d ɖʐ	-0.2523196
-2.2111773	˧˥ ɖʐ	-0.25729176
-2.9792423	˧ w̃æ	-0.2523196
-2.9314454	˩ ɻ̩	-0.2523196
-2.7403176	˧ ɻ̩	-0.2523196
-1.9512278	ʂ ɻ̩	-0.2523196
-2.7645376	<SIL> ə̃	-0.2523196
-2.9675303	˧ ə̃	-0.2523196
-2.5677521	˧˥ ə̃	-0.2523196
-2.2653553	h wɑ	-0.2523196
-1.5453454	ʁ wɑ	-0.25729176
-1.4645442	ʈʂ wɑ	-0.25979933
-1.7416441	tɕ ɛ	-0.2523196
-0.94898355	j ɛ	-0.25979933
-2.9234927	˩ ɻ̃	-0.2523196
-2.7355502	˧ ɻ̃	-0.25979933
-2.7566469	<SIL> ɔ	-0.2523196
-0.5997148	ɔ ɔ	-0.2523196
-2.2702248	h ĩ	-0.2523196
-2.7566469	<SIL> u	-0.2523196
-1.8266859	h u	-0.36693576
-2.9792423	˧ õ	-0.2523196
-2.9430654	˩ ɻ̩̃	-0.2523196

\3-grams:
-1.1169828	˩˥ <SIL> </s>	0
-0.33576477	g <SIL> </s>	0
-0.8824738	ɯ <SIL> </s>	0
-1.3091356	˩ <SIL> </s>	0
-1.2352467	˥ <SIL> </s>	0
-0.9629667	o <SIL> </s>	0
-1.4058387	˧ <SIL> </s>	0
-0.77521294	m <SIL> </s>	0
-0.33576477	h <SIL> </s>	0
-0.33576477	ĩ <SIL> </s>	0
-1.3604213	əəə… <SIL> </s>	0
-0.33576477	b <SIL> </s>	0
-0.33576477	tɕ <SIL> </s>	0
-1.0989968	˧˥ <SIL> </s>	0
-0.91850317	õ <SIL> </s>	0
-0.10060022	jɤ <SIL> </s>	0
-1.0525279	mmm… <SIL> </s>	0
-1.7437384	<SIL> tʰ <SIL>	-0.22391927
-1.7492793	tʰ i <SIL>	-0.22391927
-1.5753021	ʝ i <SIL>	-0.22391927
-0.9982927	i ˩˥ <SIL>	-0.71433806
-0.9183119	ɯ ˩˥ <SIL>	-0.246525
-0.64104396	o ˩˥ <SIL>	-0.33875906
-0.7886239	v̩ ˩˥ <SIL>	-0.56795925
-1.15555	ĩ ˩˥ <SIL>	-0.25236523
-1.0861324	wæ ˩˥ <SIL>	-0.22391927
-0.53492796	æ ˩˥ <SIL>	-0.34310544
-1.1734657	e ˩˥ <SIL>	-0.24267475
-1.1142389	ɤ ˩˥ <SIL>	-0.22391927
-0.63539845	ɑ ˩˥ <SIL>	-0.25828502
-0.9452142	wɤ ˩˥ <SIL>	-0.3123376
-0.74458474	õ ˩˥ <SIL>	-0.22391927
-0.74458474	ɑ̃ ˩˥ <SIL>	-0.22391927
-1.3854024	˩˥ g <SIL>	-0.22391927
-1.6227194	dʑ ɯ <SIL>	-0.22391927
-1.3928031	dz ɯ <SIL>	-0.22391927
-1.632388	ɖ ɯ <SIL>	-0.22391927
-1.2563779	i ˩ <SIL>	-0.96425956
-1.2672068	ɯ ˩ <SIL>	-0.78758204
-1.1316665	o ˩ <SIL>	-0.882969
-1.1000086	v̩ ˩ <SIL>	-1.0327594
-1.4521623	ĩ ˩ <SIL>	-0.34372035
-0.77188003	wæ ˩ <SIL>	-0.38271
-0.76810324	ɻ ˩ <SIL>	-0.22391927
-1.0457455	æ ˩ <SIL>	-1.0638285
-1.3389498	e ˩ <SIL>	-0.7743205
-0.880755	ɤ ˩ <SIL>	-0.39461535
-1.194484	ɑ ˩ <SIL>	-0.4610467
-0.8614486	wɤ ˩ <SIL>	-0.54056084
-1.1130326	õ ˩ <SIL>	-0.22391927
-1.1638045	jo ˩ <SIL>	-0.22391927
-1.4789243	jɤ ˩ <SIL>	-0.25355172
-1.1845927	æ̃ ˩ <SIL>	-0.25236523
-1.3745234	ɻ̍ ˩ <SIL>	-0.33702648
-1.2634989	ɑ̃ ˩ <SIL>	-0.22391927
-0.6180844	ṽ̩ ˩ <SIL>	-0.22391927
-0.6180844	ɻ̩ ˩ <SIL>	-0.22391927
-0.6180844	ɻ̃ ˩ <SIL>	-0.22391927
-1.1156068	i ˥ <SIL>	-0.6389136
-1.0928483	ɯ ˥ <SIL>	-0.6375475
-0.9728885	o ˥ <SIL>	-0.56659156
-0.9425393	v̩ ˥ <SIL>	-0.4100855
-1.3259273	ĩ ˥ <SIL>	-0.34380546
-0.8993634	wæ ˥ <SIL>	-0.25236523
-1.0230634	æ ˥ <SIL>	-0.26015237
-1.0834506	e ˥ <SIL>	-0.4373143
-1.0141416	ɤ ˥ <SIL>	-0.25450325
-1.0067599	ɑ ˥ <SIL>	-0.28962278
-1.1162232	wɤ ˥ <SIL>	-0.2740832
-0.86520404	õ ˥ <SIL>	-0.22391927
-1.0497264	jo ˥ <SIL>	-0.25236523
-1.2703526	ɻ̍ ˥ <SIL>	-0.24267475
-0.60808134	ṽ ˥ <SIL>	-0.22391927
-1.0014223	ɑ̃ ˥ <SIL>	-0.22391927
-0.7616643	ṽ̩ ˥ <SIL>	-0.26227686
-1.6214257	<SIL> dʑ <SIL>	-0.22391927
-1.1445827	əəə… dʑ <SIL>	-0.22391927
-1.2969162	g o <SIL>	-0.22391927
-0.78508633	o o <SIL>	-0.2828057
-1.5972662	z o <SIL>	-0.22391927
-1.0809704	ɬ o <SIL>	-0.22391927
-1.4057398	ʁ o <SIL>	-0.22391927
-1.6472222	<SIL> ʈʂʰ <SIL>	-0.22391927
-1.3164628	i ˧ <SIL>	-0.7590905
-1.3091435	ɯ ˧ <SIL>	-0.65172786
-1.259123	o ˧ <SIL>	-0.61815524
-1.2300142	v̩ ˧ <SIL>	-0.4507599
-0.9723085	ĩ ˧ <SIL>	-0.48572254
-1.1664883	wæ ˧ <SIL>	-0.51865155
-1.2531434	æ ˧ <SIL>	-0.36297375
-1.1403382	e ˧ <SIL>	-0.5099675
-1.1216528	ɤ ˧ <SIL>	-0.39736474
-1.2509307	ɑ ˧ <SIL>	-0.40719187
-1.0695848	wɤ ˧ <SIL>	-0.33077663
-1.0730903	õ ˧ <SIL>	-0.25450325
-1.039939	jo ˧ <SIL>	-0.246525
-1.4002934	jɤ ˧ <SIL>	-0.4350122
-1.4753505	æ̃ ˧ <SIL>	-0.2459519
-1.2215275	ɻ̍ ˧ <SIL>	-0.23994528
-0.89468175	ṽ ˧ <SIL>	-0.22391927
-1.0956593	ṽ̩ ˧ <SIL>	-0.22391927
-0.6241404	w̃æ ˧ <SIL>	-0.22391927
-1.737574	<SIL> n <SIL>	-0.22391927
-1.8163116	˧ n <SIL>	-0.22391927
-1.0056795	m m <SIL>	-0.25236523
-1.6809866	˧ k <SIL>	-0.22391927
-2.063222	˩ h <SIL>	-0.22391927
-1.4449385	h ĩ <SIL>	-0.22391927
-0.98387736	<SIL> əəə… <SIL>	-0.34135857
-1.1113065	˩˥ əəə… <SIL>	-0.26948375
-0.7473057	˩ əəə… <SIL>	-0.24612035
-0.9637352	˥ əəə… <SIL>	-0.24911095
-0.6446793	˧ əəə… <SIL>	-0.246525
-0.321219	n əəə… <SIL>	-0.22391927
-0.321219	ɤ əəə… <SIL>	-0.22391927
-0.321219	ɑ əəə… <SIL>	-0.22391927
-0.77934825	˧˥ əəə… <SIL>	-0.22391927
-1.505085	<SIL> ə <SIL>	-0.22391927
-1.3180697	˩ ə <SIL>	-0.22391927
-1.16487	ə ə <SIL>	-0.22391927
-1.7349789	˩ ʐ <SIL>	-0.22391927
-1.4415511	ɖ wæ <SIL>	-0.22391927
-1.4048474	ʈ æ <SIL>	-0.22391927
-1.2005166	<SIL> ɳ <SIL>	-0.22391927
-1.4497464	l e <SIL>	-0.2828057
-1.3414271	tɕ ɤ <SIL>	-0.22391927
-1.4850305	h ɑ <SIL>	-0.22391927
-1.597928	l ɑ <SIL>	-0.22391927
-1.1600931	˩˥ q <SIL>	-0.22391927
-1.6048048	˩ ʂ <SIL>	-0.22391927
-1.7948824	˧ ʂ <SIL>	-0.22391927
-1.7197286	˩ d <SIL>	-0.22391927
-1.89148	˧ b <SIL>	-0.22391927
-1.5833334	<SIL> ɖ <SIL>	-0.22391927
-1.770684	˧ ʁ <SIL>	-0.22391927
-0.8971863	˩˥ tɕ <SIL>	-0.22391927
-0.80627286	i ˧˥ <SIL>	-0.37112707
-0.82779866	ɯ ˧˥ <SIL>	-0.5574647
-0.7831366	o ˧˥ <SIL>	-0.3624492
-0.78772074	v̩ ˧˥ <SIL>	-0.48448077
-0.8335729	ĩ ˧˥ <SIL>	-0.22391927
-0.74269587	wæ ˧˥ <SIL>	-0.36224452
-0.73404723	æ ˧˥ <SIL>	-0.43506426
-0.85909486	ɤ ˧˥ <SIL>	-0.3459424
-0.8608234	ɑ ˧˥ <SIL>	-0.3927707
-1.0022379	wɤ ˧˥ <SIL>	-0.26227686
-0.8277739	õ ˧˥ <SIL>	-0.22391927
-0.8322623	jɤ ˧˥ <SIL>	-0.25236523
-0.6648071	æ̃ ˧˥ <SIL>	-0.22391927
-0.58281726	ɻ̍ ˧˥ <SIL>	-0.26227686
-0.59029925	ṽ̩ ˧˥ <SIL>	-0.22391927
-1.1178164	<SIL> õ <SIL>	-0.22391927
-1.3130949	˩ õ <SIL>	-0.22391927
-0.7290717	p õ <SIL>	-0.22391927
-0.5841807	b õ <SIL>	-0.22391927
-0.82291573	õ õ <SIL>	-0.22391927
-0.7170089	<SIL> jɤ <SIL>	-0.27615863
-1.0235163	˩ jɤ <SIL>	-0.27615863
-0.43940195	˥ jɤ <SIL>	-0.2828057
-0.8391006	˧ jɤ <SIL>	-0.27615863
-0.75861377	l jɤ <SIL>	-0.22391927
-0.29685804	jɤ jɤ <SIL>	-0.22391927
-1.2040676	˩ ŋ <SIL>	-0.22391927
-1.1004468	<SIL> mmm… <SIL>	-0.23507509
-0.97662103	˩˥ mmm… <SIL>	-0.22391924
-0.9347559	˩ mmm… <SIL>	-0.22391927
-0.9225603	˥ mmm… <SIL>	-0.22391927
-0.57625127	˧ mmm… <SIL>	-0.22391927
-0.3034485	h mmm… <SIL>	-0.22391927
-0.7779792	˧˥ mmm… <SIL>	-0.22391927
-0.73791385	l ɑ̃ <SIL>	-0.22391927
-0.2612014	˩˥ v <SIL>	-0.22391927
-0.6624766	m v <SIL>	-0.22391927
-0.48452932	ʐ v <SIL>	-0.22391927
-0.2612014	q v <SIL>	-0.22391927
-0.2612014	f v <SIL>	-0.22391927
-0.31671366	mmm… j <SIL>	-0.22391927
-0.6722529	<s> <SIL> tʰ	-1.8842658
-0.34092873	tʰ <SIL> tʰ	-0.22391927
-0.62748444	i <SIL> tʰ	-0.22391927
-1.356237	˩˥ <SIL> tʰ	-0.7284563
-1.4200355	˩ <SIL> tʰ	-1.4136575
-1.3903863	˥ <SIL> tʰ	-0.94934
-1.3331789	˧ <SIL> tʰ	-1.2666295
-0.78956825	m <SIL> tʰ	-0.22391927
-1.4089746	əəə… <SIL> tʰ	-0.39410102
-1.4217498	˧˥ <SIL> tʰ	-0.5701923
-0.93828905	õ <SIL> tʰ	-0.22391927
-1.2931367	mmm… <SIL> tʰ	-0.26227686
-1.4218882	i ˩˥ tʰ	-0.7454213
-0.96523494	ɯ ˩˥ tʰ	-0.505536
-1.3655717	o ˩˥ tʰ	-0.25450325
-1.7176024	v̩ ˩˥ tʰ	-0.2828057
-1.3108482	e ˩˥ tʰ	-0.22391927
-1.4386557	ɤ ˩˥ tʰ	-0.22391927
-1.3739916	wɤ ˩˥ tʰ	-0.35798654
-1.6711314	ʈʂʰ ɯ tʰ	-0.22391927
-1.4339739	i ˩ tʰ	-0.9323587
-1.5546044	ɯ ˩ tʰ	-0.9546809
-1.5595055	o ˩ tʰ	-1.7659457
-1.4312279	v̩ ˩ tʰ	-0.68364394
-1.5405672	ĩ ˩ tʰ	-0.8342868
-1.6705147	wæ ˩ tʰ	-0.22391927
-1.2769656	æ ˩ tʰ	-0.62732196
-1.3823845	e ˩ tʰ	-0.6671023
-1.2875012	ɤ ˩ tʰ	-0.60516983
-1.3502245	ɑ ˩ tʰ	-0.97512865
-1.3755347	wɤ ˩ tʰ	-0.5340778
-1.5465132	õ ˩ tʰ	-0.2828057
-1.4296336	jo ˩ tʰ	-0.22391927
-0.99804044	jɤ ˩ tʰ	-0.5340778
-1.6107113	ɻ̍ ˩ tʰ	-0.22391927
-1.3186622	ɑ̃ ˩ tʰ	-0.2828057
-1.3707173	i ˥ tʰ	-0.9657855
-1.2835641	ɯ ˥ tʰ	-0.59929323
-1.3783851	o ˥ tʰ	-0.97512865
-1.1769295	v̩ ˥ tʰ	-0.7284563
-1.3968111	ĩ ˥ tʰ	-0.6441354
-1.4719186	æ ˥ tʰ	-0.26830006
-1.5723984	e ˥ tʰ	-0.40109736
-1.5974485	ɤ ˥ tʰ	-0.2828057
-1.5296097	ɑ ˥ tʰ	-0.2828057
-1.5147176	wɤ ˥ tʰ	-0.7990374
-1.0858094	jo ˥ tʰ	-0.22391927
-0.33745492	æ̃ ˥ tʰ	-0.2828057
-1.331802	ɻ̍ ˥ tʰ	-0.22391927
-1.0335629	ɑ̃ ˥ tʰ	-0.22391927
-1.0304081	<SIL> o tʰ	-0.2828057
-0.8181802	˩ o tʰ	-0.22391927
-1.4549818	i ˧ tʰ	-1.2027297
-1.4268891	ɯ ˧ tʰ	-1.0265176
-1.3855253	o ˧ tʰ	-1.0873849
-1.364188	v̩ ˧ tʰ	-0.80212164
-1.6429102	ĩ ˧ tʰ	-0.8404301
-1.6047523	wæ ˧ tʰ	-0.25450325
-1.6335801	æ ˧ tʰ	-0.5555333
-1.4008149	e ˧ tʰ	-1.0359858
-1.3940185	ɤ ˧ tʰ	-0.7757927
-1.4335327	ɑ ˧ tʰ	-0.6643388
-1.5295451	wɤ ˧ tʰ	-0.5701923
-1.0795647	õ ˧ tʰ	-0.5771886
-1.0047415	jɤ ˧ tʰ	-0.660438
-1.3127285	æ̃ ˧ tʰ	-0.26227686
-1.4398198	ɻ̍ ˧ tʰ	-0.22391927
-0.9009989	ṽ ˧ tʰ	-0.22391927
-1.0511855	ɑ̃ ˧ tʰ	-0.22391927
-1.1057373	ṽ̩ ˧ tʰ	-0.22391927
-0.6275172	ɻ̃ ˧ tʰ	-0.22391927
-1.8434612	<SIL> n tʰ	-0.22391927
-1.5786093	<SIL> əəə… tʰ	-0.5771886
-1.3226132	˩˥ əəə… tʰ	-0.26227686
-1.478446	˩ əəə… tʰ	-0.22391927
-1.3460444	˥ əəə… tʰ	-0.22391927
-1.4245026	˧ əəə… tʰ	-0.22391927
-1.2217231	˧˥ əəə… tʰ	-0.22391927
-0.7580559	õ əəə… tʰ	-0.22391927
-0.7580559	mmm… əəə… tʰ	-0.22391927
-1.5805093	<SIL> ə tʰ	-0.22391927
-1.2189684	ə ə tʰ	-0.22391927
-1.3407445	i ˧˥ tʰ	-0.262498
-1.25973	ɯ ˧˥ tʰ	-0.6441354
-1.4721985	o ˧˥ tʰ	-0.22391927
-1.5001669	v̩ ˧˥ tʰ	-0.22391927
-1.4119	wæ ˧˥ tʰ	-0.40109736
-1.4256626	æ ˧˥ tʰ	-0.26227686
-0.61237395	e ˧˥ tʰ	-0.22391927
-1.389041	ɤ ˧˥ tʰ	-0.25236523
-1.522574	ɑ ˧˥ tʰ	-0.40109736
-1.2847018	õ ˧˥ tʰ	-0.22391927
-1.102992	ɑ̃ ˧˥ tʰ	-0.22391927
-1.2375696	<SIL> õ tʰ	-0.2828057
-1.4526515	˩ õ tʰ	-0.22391927
-0.8977179	˧˥ õ tʰ	-0.22391927
-1.5537765	<SIL> mmm… tʰ	-0.26227686
-1.3439459	˩ mmm… tʰ	-0.22391927
-1.102491	˥ mmm… tʰ	-0.22391927
-0.53194356	<SIL> ə̃ tʰ	-0.22391927
-0.40402865	<SIL> tʰ i	-1.9339404
-0.28660023	˩˥ tʰ i	-0.8959474
-0.22676171	ɯ tʰ i	-0.22391927
-0.4072199	˩ tʰ i	-1.8108191
-0.23294607	˥ tʰ i	-1.3131422
-0.42838	o tʰ i	-0.22391927
-0.4271928	˧ tʰ i	-1.5003887
-0.2851139	əəə… tʰ i	-0.621228
-0.22170682	ə tʰ i	-0.2828057
-0.21916361	˧˥ tʰ i	-0.9293712
-0.16266389	õ tʰ i	-0.40109736
-0.42586038	mmm… tʰ i	-0.27615863
-0.22676171	ə̃ tʰ i	-0.22391927
-0.9091506	<SIL> g i	-0.43118274
-1.1116353	˩˥ g i	-1.058378
-1.1770585	˩ g i	-1.4424901
-1.2672977	˥ g i	-0.22391927
-0.87258816	˧ g i	-0.50667244
-0.7808534	˧˥ g i	-0.22391927
-0.022422504	<SIL> ʝ i	-1.1682699
-0.06257514	˩˥ ʝ i	-0.8404301
-0.017844444	˩ ʝ i	-1.1607652
-0.025722379	˥ ʝ i	-1.7198672
-0.03278383	˧ ʝ i	-2.0423539
-0.08339425	əəə… ʝ i	-0.22391927
-0.08339425	e ʝ i	-0.22391927
-0.08339425	˧˥ ʝ i	-0.22391927
-0.08339425	õ ʝ i	-0.22391927
-0.89541966	<SIL> dʑ i	-0.87821865
-1.2257861	˩˥ dʑ i	-0.22391927
-0.8445731	˩ dʑ i	-0.6347145
-1.017342	˥ dʑ i	-0.27615863
-0.9457042	˧ dʑ i	-0.49800742
-0.29653972	m dʑ i	-0.22391927
-1.1130103	<SIL> n i	-0.5771886
-1.1438602	˩˥ n i	-0.27615863
-0.29488626	g n i	-0.22391927
-0.74988616	˩ n i	-0.66858274
-1.181936	˥ n i	-0.26227686
-0.71667963	˧ n i	-0.8097613
-0.68939555	əəə… n i	-0.40109736
-0.7254558	˧˥ n i	-0.2828057
-0.29488626	jɤ n i	-0.22391927
-0.8833078	<SIL> m i	-0.5394001
-1.2674698	˩˥ m i	-0.22391927
-0.72863936	˩ m i	-1.4570488
-0.95855594	˥ m i	-0.91298074
-0.71979576	˧ m i	-1.8945489
-1.1269499	əəə… m i	-0.22391927
-0.29986268	q m i	-0.22391927
-0.6892613	<SIL> k i	-0.8034132
-0.9152789	˩˥ k i	-0.2828057
-0.576685	˩ k i	-1.0932995
-0.6519603	˥ k i	-0.97512865
-0.5523047	˧ k i	-1.6097178
-0.9213442	˧˥ k i	-0.40109736
-0.5415765	mmm… k i	-0.22391927
-1.2291282	<SIL> h i	-0.34310544
-1.0828177	˩˥ h i	-0.27615863
-1.5323658	˩ h i	-0.5771886
-1.5876889	˧ h i	-0.35798654
-1.3371667	˧˥ h i	-0.22391927
-0.63686013	<SIL> s i	-0.9826573
-0.6132747	i s i	-0.22391927
-0.7092545	˩˥ s i	-0.40109736
-0.890429	˩ s i	-0.8102842
-0.9990471	˥ s i	-0.22391927
-0.82900804	˧ s i	-1.0026913
-0.90633	əəə… s i	-0.22391927
-0.62885857	˧˥ s i	-0.22391927
-0.49884582	mmm… s i	-0.22391927
-0.2697053	ɑ̃ s i	-0.22391927
-0.6522905	<SIL> kʰ i	-0.7316245
-0.2715269	i kʰ i	-0.22391927
-0.83094674	˩˥ kʰ i	-0.26227686
-0.74800783	˩ kʰ i	-0.3586321
-0.72906584	˥ kʰ i	-0.2828057
-0.95171654	˧ kʰ i	-0.45390216
-0.4975976	˧˥ kʰ i	-0.22391927
-0.85095817	<SIL> l i	-0.5260361
-0.541725	i l i	-0.27615863
-1.2527733	˩˥ l i	-0.26227686
-1.0078158	˩ l i	-1.0473135
-1.2107168	˥ l i	-0.262498
-0.77950376	˧ l i	-0.91298074
-0.9358914	əəə… l i	-0.22391927
-1.3033849	˧˥ l i	-0.22391927
-0.6699567	mmm… l i	-0.22391927
-0.46684164	<SIL> p i	-1.4466028
-0.16511884	˩˥ p i	-1.0294863
-0.3819244	˩ p i	-1.7284563
-0.20175113	˥ p i	-1.5191966
-0.54221296	˧ p i	-1.4118212
-0.19739439	əəə… p i	-0.27615863
-0.20175746	ɻ p i	-0.22391927
-0.20175746	ɤ p i	-0.22391927
-0.20175746	ɑ p i	-0.22391927
-0.23552041	˧˥ p i	-1.0028607
-0.118243314	õ p i	-0.5771886
-0.20175746	jɤ p i	-0.27615863
-0.19739439	ɑ̃ p i	-0.2828057
-0.20175746	v p i	-0.22391927
-0.20175746	wɑ p i	-0.22391927
-0.20175746	ɔ p i	-0.22391927
-0.030161515	<SIL> ʑ i	-1.0406492
-0.06257514	˩˥ ʑ i	-0.91298074
-0.08074076	˩ ʑ i	-0.8901178
-0.046066	˥ ʑ i	-0.40109736
-0.04217175	˧ ʑ i	-1.4170855
-0.081827216	əəə… ʑ i	-0.27615863
-0.08339425	ɬ ʑ i	-0.22391927
-0.08339425	ɖ ʑ i	-0.22391927
-0.08339425	õ ʑ i	-0.22391927
-1.5817077	˧ q i	-0.2828057
-0.732465	<SIL> dz i	-0.5798353
-0.6395936	˩ dz i	-0.49648643
-0.7849492	˥ dz i	-0.73961926
-0.6884539	˧ dz i	-1.1902095
-1.5609554	˧ ts i	-0.6740987
-0.38543576	<SIL> ɬ i	-0.776761
-0.45051104	˩˥ ɬ i	-0.2828057
-0.32097888	˩ ɬ i	-0.8660826
-0.1361042	˥ ɬ i	-0.5771886
-0.2975913	˧ ɬ i	-1.089072
-0.4646216	əəə… ɬ i	-0.22391927
-0.2434789	˧˥ ɬ i	-0.2828057
-0.4492901	<SIL> d i	-0.7454213
-0.4970552	˩˥ d i	-0.262498
-0.50752056	˩ d i	-1.1731745
-0.2170727	˥ d i	-0.62732196
-0.54147387	˧ d i	-1.390102
-0.21314308	h d i	-0.22391927
-0.5989043	əəə… d i	-0.22391927
-0.21314308	ɑ d i	-0.22391927
-0.21314308	ɬ d i	-0.22391927
-0.69821477	˧˥ d i	-0.22391927
-0.21314308	mmm… d i	-0.22391927
-0.21314308	v d i	-0.22391927
-0.015419267	<SIL> ɲ i	-1.2304012
-0.018569943	˩˥ ɲ i	-0.5394001
-0.0061022136	˩ ɲ i	-1.608597
-0.0076412195	˥ ɲ i	-1.2688594
-0.0050791614	˧ ɲ i	-1.9105303
-0.04135591	ʂ ɲ i	-0.22391927
-0.015419267	˧˥ ɲ i	-0.61195076
-0.04135591	ŋ ɲ i	-0.22391927
-0.04135591	v ɲ i	-0.22391927
-0.83359885	<SIL> b i	-0.48292527
-0.7469051	˩˥ b i	-0.26227686
-0.4260386	˩ b i	-1.2222832
-0.33103204	˥ b i	-0.9451654
-0.59480536	˧ b i	-1.4320107
-0.7520274	əəə… b i	-0.22391927
-0.99406016	<SIL> t i	-0.2788053
-0.75465083	˩˥ t i	-0.22391927
-1.0808183	˩ t i	-0.22391927
-0.4930029	˥ t i	-0.8908869
-0.65416855	˧ t i	-0.8659842
-0.44530943	<SIL> tɕʰ i	-0.61468047
-0.34262282	˩˥ tɕʰ i	-0.26227686
-0.5363526	˩ tɕʰ i	-0.8856
-0.4205071	˥ tɕʰ i	-0.2828057
-0.4370389	˧ tɕʰ i	-1.0543098
-0.22429563	əəə… tɕʰ i	-0.22391927
-0.22429563	e tɕʰ i	-0.22391927
-0.42446357	˧˥ tɕʰ i	-0.22391927
-0.58585143	<SIL> tsʰ i	-0.72146
-0.48951155	˩˥ tsʰ i	-0.61468047
-0.55845433	˩ tsʰ i	-0.8659842
-0.7273377	˥ tsʰ i	-0.27615863
-0.64076	˧ tsʰ i	-0.9823072
-0.6412027	əəə… tsʰ i	-0.27615863
-0.5092407	õ tsʰ i	-0.22391927
-0.5486426	<SIL> tɕ i	-0.5798353
-0.69537926	˩˥ tɕ i	-0.22391927
-0.5275714	˩ tɕ i	-0.5260361
-0.9116142	˥ tɕ i	-0.40109736
-0.68843734	˧ tɕ i	-1.0208862
-0.8279982	˧˥ tɕ i	-0.27615863
-0.6592643	<SIL> pʰ i	-0.262498
-0.7813866	˩˥ pʰ i	-0.2828057
-0.8433961	˩ pʰ i	-0.7990374
-0.9871001	˥ pʰ i	-0.22391927
-0.8743045	˧ pʰ i	-0.806566
-0.64836764	əəə… pʰ i	-0.22391927
-1.3662405	˩ ʈ i	-0.5340778
-1.2526666	<SIL> ʈʰ i	-0.22391927
-1.3699399	˩ ʈʰ i	-0.22391927
-1.2424254	˧ ʈʰ i	-0.40109736
-0.33125088	<SIL> ɕ i	-0.49800742
-0.35387367	˩˥ ɕ i	-0.27615863
-0.4275486	˩ ɕ i	-0.359408
-0.4382438	˥ ɕ i	-0.22391927
-0.250614	˧ ɕ i	-0.806566
-0.23293598	əəə… ɕ i	-0.22391927
-0.42114383	tʰ i ˩˥	-1.1026212
-0.5705472	g i ˩˥	-0.6544312
-1.2465038	n i ˩˥	-0.22391927
-1.1831847	m i ˩˥	-0.38299233
-1.040985	k i ˩˥	-0.26227686
-1.0783719	l i ˩˥	-0.25740206
-1.1215651	dz i ˩˥	-0.22391927
-1.3310773	ɲ i ˩˥	-0.33368447
-1.0240142	b i ˩˥	-0.25318623
-1.2429885	tɕʰ i ˩˥	-0.22391927
-1.2184751	tsʰ i ˩˥	-0.26240325
-0.45110732	ʈʰ i ˩˥	-0.22391927
-0.8819965	g ɯ ˩˥	-0.26227686
-1.3097789	dʑ ɯ ˩˥	-0.22391927
-1.1521513	z ɯ ˩˥	-0.26448622
-1.1200118	h ɯ ˩˥	-0.22391927
-1.1526865	s ɯ ˩˥	-0.25658536
-1.1158209	kʰ ɯ ˩˥	-0.27388853
-1.1200118	dz ɯ ˩˥	-0.22391927
-1.1175597	ts ɯ ˩˥	-0.22391927
-1.3014792	ɖ ɯ ˩˥	-0.22391927
-1.0388498	tsʰ ɯ ˩˥	-0.22391927
-1.1701787	tɕ ɯ ˩˥	-0.22391927
-0.80220515	ɣ ɯ ˩˥	-0.22391927
-0.72153723	ʈʰ ɯ ˩˥	-0.22391927
-0.97659516	ɭ ɯ ˩˥	-0.23994528
-1.1521513	dʑ o ˩˥	-0.28504947
-1.370541	z o ˩˥	-0.22391927
-1.074723	h o ˩˥	-0.22391927
-1.3278155	s o ˩˥	-0.22391927
-0.5241452	ʐ o ˩˥	-0.35798654
-1.2494111	l o ˩˥	-0.22391927
-1.2286322	p o ˩˥	-0.2828057
-0.9584056	ʂ o ˩˥	-0.22391927
-0.78222567	d o ˩˥	-0.22391927
-0.9801736	b o ˩˥	-0.22391927
-0.6826484	ɖ o ˩˥	-0.22391927
-1.1930329	ʁ o ˩˥	-0.3517863
-1.0583342	tɕʰ o ˩˥	-0.22391927
-0.5315654	w o ˩˥	-0.30855456
-1.0745498	tsʰ o ˩˥	-0.22391927
-0.9589187	pʰ o ˩˥	-0.25658536
-1.2320248	tʰ v̩ ˩˥	-0.22391927
-0.96959615	g v̩ ˩˥	-0.28099233
-1.1068051	˩ v̩ ˩˥	-0.22391927
-0.70840716	m v̩ ˩˥	-0.33100873
-1.2068357	k v̩ ˩˥	-0.650549
-1.3164476	kʰ v̩ ˩˥	-0.246525
-1.1070861	p v̩ ˩˥	-0.22391927
-0.9208409	d v̩ ˩˥	-0.22391927
-1.2017496	b v̩ ˩˥	-0.22391927
-1.1740328	t v̩ ˩˥	-0.22391927
-1.1418481	pʰ v̩ ˩˥	-0.22391927
-0.65862304	ŋ v̩ ˩˥	-0.25658536
-1.0384258	f v̩ ˩˥	-0.22391927
-1.4763268	h ĩ ˩˥	-0.37323862
-0.9710406	ʈʂʰ wæ ˩˥	-0.22391927
-0.711385	ʐ wæ ˩˥	-0.25450325
-0.8951659	ɖ wæ ˩˥	-0.22391927
-1.2722447	ʈʂʰ æ ˩˥	-0.262498
-1.2962985	m æ ˩˥	-0.22391927
-1.1610708	h æ ˩˥	-0.22391927
-1.0519264	ʐ æ ˩˥	-0.22391927
-1.0558028	ɻ æ ˩˥	-0.26227686
-0.72397023	l æ ˩˥	-0.22391927
-1.1364863	b æ ˩˥	-0.22391927
-1.2985736	pʰ æ ˩˥	-0.27037233
-0.31642935	v æ ˩˥	-0.22391927
-1.1638675	n e ˩˥	-0.32357398
-0.3415149	w e ˩˥	-0.22391927
-1.2694318	g ɤ ˩˥	-0.2828057
-0.61168575	dʑ ɤ ˩˥	-0.36585456
-0.87243974	h ɤ ˩˥	-0.22391927
-0.9714835	ʈʰ ɤ ˩˥	-0.22391927
-0.8977505	tʰ ɑ ˩˥	-0.22391927
-0.63460433	n ɑ ˩˥	-0.24267475
-1.1558741	s ɑ ˩˥	-0.22391927
-1.3165742	l ɑ ˩˥	-0.2864013
-1.0142245	q ɑ ˩˥	-0.26227686
-1.2416693	d ɑ ˩˥	-0.22391927
-0.8475408	b ɑ ˩˥	-0.22391927
-1.0308913	t ɑ ˩˥	-0.22391927
-0.56450605	j ɑ ˩˥	-0.22391927
-0.18298899	<SIL> wɤ ˩˥	-0.44603762
-0.2948182	˩˥ wɤ ˩˥	-0.3742637
-0.8191484	g wɤ ˩˥	-0.22391927
-0.2296584	˩ wɤ ˩˥	-0.3356926
-0.2300264	˥ wɤ ˩˥	-0.25236517
-0.29941502	˧ wɤ ˩˥	-0.36042333
-1.0821804	h wɤ ˩˥	-0.2828057
-0.7738402	ʐ wɤ ˩˥	-0.246525
-0.72112346	qʰ wɤ ˩˥	-0.26227686
-0.28330985	˧˥ wɤ ˩˥	-0.25236523
-1.1443282	ŋ wɤ ˩˥	-0.22391927
-1.3310722	h õ ˩˥	-0.22391927
-1.2512516	˩ jɤ ˩˥	-0.22391927
-0.700829	<SIL> æ̃ ˩˥	-0.22391927
-1.1645536	h ɑ̃ ˩˥	-0.22391927
-0.43861437	˩ ɻ̩̃ ˩˥	-0.22391927
-1.7518183	<s> <SIL> g	-0.55994475
-1.600932	˩˥ <SIL> g	-0.3684466
-1.691304	˩ <SIL> g	-0.5725119
-1.5622675	˥ <SIL> g	-0.2958959
-1.4942231	˧ <SIL> g	-0.58125675
-0.34762636	ɤ <SIL> g	-0.22391927
-1.5884109	mmm… <SIL> g	-0.22391927
-1.7873554	i ˩˥ g	-0.73264915
-1.8191178	o ˩˥ g	-0.2828057
-1.6290034	v̩ ˩˥ g	-0.22391927
-1.3591125	e ˩˥ g	-0.2828057
-1.5693719	wɤ ˩˥ g	-0.26227686
-1.5029403	s ɯ g	-0.22391927
-1.6504279	i ˩ g	-0.55434555
-1.8913819	ɯ ˩ g	-0.50238323
-1.7281926	o ˩ g	-0.49270183
-1.8174772	v̩ ˩ g	-0.43118274
-1.5439043	ĩ ˩ g	-0.22391927
-0.84272707	ə ˩ g	-1.7467978
-1.6741322	wæ ˩ g	-0.49800742
-1.0591997	ɻ ˩ g	-0.22391927
-1.4868821	æ ˩ g	-0.45862323
-1.3016254	e ˩ g	-0.6740987
-1.8316869	ɤ ˩ g	-0.262498
-1.9331665	ɑ ˩ g	-0.26916227
-1.7903607	wɤ ˩ g	-0.22391927
-1.5498023	õ ˩ g	-0.2828057
-1.4520763	æ̃ ˩ g	-0.22391927
-1.3206612	ɑ̃ ˩ g	-0.22391927
-1.8707747	i ˥ g	-0.38209498
-1.8953954	ɯ ˥ g	-0.22391927
-1.9189645	o ˥ g	-0.22391927
-1.709031	v̩ ˥ g	-0.26227686
-1.7055266	æ ˥ g	-0.40109736
-1.6695578	e ˥ g	-0.2828057
-1.6961505	ɤ ˥ g	-0.22391927
-1.760965	ɑ ˥ g	-0.22391927
-1.391087	ɻ̍ ˥ g	-0.22391927
-0.34313017	ɻ̩ ˥ g	-0.22391927
-1.7688675	i ˧ g	-0.5865164
-1.7117832	ɯ ˧ g	-0.6883391
-1.7327657	o ˧ g	-0.61233747
-1.6240143	v̩ ˧ g	-0.5587053
-1.7273686	ĩ ˧ g	-0.26227686
-1.8305776	wæ ˧ g	-0.73961926
-1.9079067	æ ˧ g	-0.39410102
-1.7441878	e ˧ g	-0.9763296
-1.8144673	ɤ ˧ g	-0.38209498
-1.7885678	ɑ ˧ g	-0.26227686
-1.7532904	wɤ ˧ g	-0.2828057
-1.5987375	õ ˧ g	-0.26227686
-1.0684414	jo ˧ g	-0.2828057
-1.6471039	jɤ ˧ g	-0.26227686
-1.4556057	<SIL> əəə… g	-0.262498
-1.4038736	˧˥ əəə… g	-0.22391927
-1.0548272	˩ ʑ g	-0.22391927
-1.9037517	i ˧˥ g	-0.22391927
-1.8236246	ɯ ˧˥ g	-0.22391927
-1.9145961	v̩ ˧˥ g	-0.22391927
-1.7946403	ɑ ˧˥ g	-0.22391927
-0.6440079	d õ g	-0.2828057
-0.14079595	˧ õ g	-0.22391927
-0.9866448	<SIL> g ɯ	-0.359408
-0.8908987	˩˥ g ɯ	-0.48292527
-0.28536585	ɯ g ɯ	-0.22391927
-0.9927976	˩ g ɯ	-0.35798654
-1.0464414	˥ g ɯ	-0.49800742
-1.4244887	˧ g ɯ	-0.40109736
-0.6503163	əəə… g ɯ	-0.22391927
-0.7261367	˧˥ g ɯ	-0.22391927
-0.6501734	<SIL> dʑ ɯ	-1.1107912
-0.6418187	˩˥ dʑ ɯ	-0.7284563
-0.6235127	˩ dʑ ɯ	-0.85693604
-0.69853455	˥ dʑ ɯ	-0.563528
-0.25234517	dʑ dʑ ɯ	-0.22391927
-0.6350633	˧ dʑ ɯ	-0.99287647
-0.49250752	əəə… dʑ ɯ	-0.26227686
-0.46981853	ə dʑ ɯ	-0.22391927
-1.0050148	˧˥ dʑ ɯ	-0.26227686
-0.46502483	mmm… dʑ ɯ	-0.22391927
-0.34559923	<SIL> ʈʂʰ ɯ	-1.9179631
-0.24839474	˩˥ ʈʂʰ ɯ	-1.5843672
-0.36043507	˩ ʈʂʰ ɯ	-1.709306
-0.24762484	˥ ʈʂʰ ɯ	-1.5023288
-0.42385152	o ʈʂʰ ɯ	-0.22391927
-0.41669485	˧ ʈʂʰ ɯ	-1.968007
-0.22390951	h ʈʂʰ ɯ	-0.22391927
-0.34212157	əəə… ʈʂʰ ɯ	-0.6441354
-0.22390951	ɤ ʈʂʰ ɯ	-0.22391927
-0.22390951	ʁ ʈʂʰ ɯ	-0.22391927
-0.22390951	tɕ ʈʂʰ ɯ	-0.22391927
-0.053559534	˧˥ ʈʂʰ ɯ	-1.1969774
-0.22390951	õ ʈʂʰ ɯ	-0.22391927
-0.22390951	ṽ ʈʂʰ ɯ	-0.22391927
-0.16077183	mmm… ʈʂʰ ɯ	-0.6441354
-0.22390951	ə̃ ʈʂʰ ɯ	-0.22391927
-0.70134914	<SIL> z ɯ	-0.50977576
-0.82656074	˩˥ z ɯ	-0.2828057
-0.7067049	˩ z ɯ	-0.951884
-0.68735087	˥ z ɯ	-0.359408
-0.5743575	˧ z ɯ	-1.1367834
-0.99417055	əəə… z ɯ	-0.22391927
-0.66619366	˧˥ z ɯ	-0.27615863
-0.43726844	mmm… z ɯ	-0.2828057
-0.4400574	v z ɯ	-0.22391927
-1.3048375	<SIL> k ɯ	-0.2828057
-1.0605779	˩˥ k ɯ	-0.22391927
-1.5109671	˩ k ɯ	-0.22391927
-1.5626	˧ k ɯ	-0.40109736
-1.1034214	<SIL> h ɯ	-0.75327986
-1.4283818	˩˥ h ɯ	-0.2828057
-0.9885995	˩ h ɯ	-0.8660826
-1.1587636	˥ h ɯ	-0.621228
-1.0456668	˧ h ɯ	-1.0294863
-1.2991922	˧˥ h ɯ	-0.22391927
-0.82350713	<SIL> s ɯ	-0.695131
-0.78936845	˩˥ s ɯ	-0.27615863
-0.2975808	g s ɯ	-0.22391927
-0.6102663	˩ s ɯ	-0.9451654
-0.5986467	˥ s ɯ	-0.45224988
-0.61563057	˧ s ɯ	-1.5523651
-1.0157367	əəə… s ɯ	-0.22391927
-0.6852771	<SIL> kʰ ɯ	-0.33793643
-0.7368863	˩˥ kʰ ɯ	-0.2828057
-0.5003985	˩ kʰ ɯ	-1.285185
-0.41260538	˥ kʰ ɯ	-0.87122226
-0.5577002	˧ kʰ ɯ	-1.2423004
-0.8624821	<SIL> ʐ ɯ	-0.7990374
-0.9159508	˩˥ ʐ ɯ	-0.43858925
-0.8588914	˩ ʐ ɯ	-0.61195076
-0.8601026	˥ ʐ ɯ	-0.2788053
-1.2912858	˧ ʐ ɯ	-0.262498
-0.6426572	əəə… ʐ ɯ	-0.2828057
-1.027298	˧˥ ʐ ɯ	-0.22391927
-0.3668737	<SIL> ɳ ɯ	-0.4249333
-0.049242064	˩ ɳ ɯ	-1.5785381
-0.13483477	˥ ɳ ɯ	-1.3175514
-0.12735523	˧ ɳ ɯ	-1.7737026
-0.1892735	əəə… ɳ ɯ	-0.22391927
-0.1892735	ɻ ɳ ɯ	-0.22391927
-0.37017453	˧˥ ɳ ɯ	-0.2828057
-0.1892735	mmm… ɳ ɯ	-0.22391927
-2.0188668	˧ l ɯ	-0.22391927
-0.5941003	<SIL> dz ɯ	-0.78969425
-0.49521947	˩˥ dz ɯ	-0.22391927
-0.4128989	˩ dz ɯ	-0.85973525
-0.55840135	˥ dz ɯ	-0.43858925
-0.4891194	˧ dz ɯ	-1.2427459
-0.60495734	˧˥ dz ɯ	-0.27615863
-0.49521947	mmm… dz ɯ	-0.22391927
-1.0403444	<SIL> ts ɯ	-0.27037233
-0.68102086	˩˥ ts ɯ	-0.22391927
-0.3919183	˩ ts ɯ	-1.4316144
-0.4568451	˥ ts ɯ	-1.5968686
-0.46653438	˧ ts ɯ	-1.1170074
-0.6724582	<SIL> ʂ ɯ	-1.011199
-0.26486745	tʰ ʂ ɯ	-0.22391927
-0.6572347	˩˥ ʂ ɯ	-0.2828057
-0.6572182	˩ ʂ ɯ	-0.8404301
-0.49862593	˥ ʂ ɯ	-0.34310544
-0.63849187	˧ ʂ ɯ	-1.8469609
-0.52464193	əəə… ʂ ɯ	-0.26227686
-0.26486745	ʑ ʂ ɯ	-0.22391927
-0.26486745	ʂ ʂ ɯ	-0.22391927
-0.6717723	˧˥ ʂ ɯ	-0.2828057
-0.32183543	<SIL> ɖ ɯ	-1.7675943
-0.24677925	˩˥ ɖ ɯ	-1.5412515
-0.27826047	˩ ɖ ɯ	-1.4463181
-0.13468833	˥ ɖ ɯ	-1.5314312
-0.27507985	˧ ɖ ɯ	-1.7699931
-0.21849148	m ɖ ɯ	-0.22391927
-0.21849148	k ɖ ɯ	-0.22391927
-0.20051338	əəə… ɖ ɯ	-0.806566
-0.10440185	˧˥ ɖ ɯ	-1.2140107
-0.21849148	æ̃ ɖ ɯ	-0.22391927
-0.21849148	mmm… ɖ ɯ	-0.22391927
-1.1677003	<SIL> tɕʰ ɯ	-0.22391927
-0.7230511	˩ tɕʰ ɯ	-0.2788053
-0.74543554	˧ tɕʰ ɯ	-0.48866424
-1.0654429	<SIL> tsʰ ɯ	-0.26227686
-0.27625567	i tsʰ ɯ	-0.22391927
-0.61894625	˩ tsʰ ɯ	-1.4325058
-0.7282618	˥ tsʰ ɯ	-0.6441354
-0.64118916	˧ tsʰ ɯ	-1.3633088
-0.82002354	əəə… tsʰ ɯ	-0.22391927
-0.7031072	˧˥ tsʰ ɯ	-0.22391927
-0.63724005	<SIL> tɕ ɯ	-0.6848268
-0.657043	˩˥ tɕ ɯ	-0.22391927
-0.5133808	˩ tɕ ɯ	-1.3672391
-0.37002906	˥ tɕ ɯ	-0.77438134
-0.49551862	˧ tɕ ɯ	-1.320829
-0.25903645	əəə… tɕ ɯ	-0.22391927
-0.2111238	˧˥ tɕ ɯ	-0.40109736
-1.3205899	˩ ʈʂ ɯ	-0.22391927
-0.96528286	˧ ʈʂ ɯ	-0.38908896
-1.0809731	˩ ʈ ɯ	-0.40109736
-1.10939	˧ ʈ ɯ	-0.2788053
-0.07640154	<SIL> ɣ ɯ	-0.26227686
-0.07785512	˩˥ ɣ ɯ	-0.22391927
-0.07640154	˩ ɣ ɯ	-0.2828057
-0.07640154	˥ ɣ ɯ	-0.22391927
-0.02827183	˧ ɣ ɯ	-0.6757509
-0.7154155	<SIL> ʈʰ ɯ	-0.49101102
-0.8834553	˩˥ ʈʰ ɯ	-0.22391927
-0.49009967	˩ ʈʰ ɯ	-0.75327986
-0.4848593	˥ ʈʰ ɯ	-0.22391927
-0.5862037	˧ ʈʰ ɯ	-0.59929323
-0.6023701	˧˥ ʈʰ ɯ	-0.22391927
-0.13951755	<SIL> ɭ ɯ	-0.22391927
-0.048425898	˩ ɭ ɯ	-0.65937537
-0.13951755	˥ ɭ ɯ	-0.22391927
-0.070495375	˧ ɭ ɯ	-1.562752
-0.97722244	<SIL> ɖʐ ɯ	-0.2828057
-0.6846432	˩ ɖʐ ɯ	-0.34310544
-0.80216396	˥ ɖʐ ɯ	-0.22391927
-0.8864536	˧ ɖʐ ɯ	-0.25450325
-0.8548038	tʰ i ˩	-0.5769208
-0.5993806	g i ˩	-0.80372536
-0.6829796	ʝ i ˩	-0.7293537
-0.919907	dʑ i ˩	-0.22391927
-0.52744555	n i ˩	-0.5157249
-0.29251766	m i ˩	-0.6573845
-0.4997952	k i ˩	-0.54551005
-0.27272296	h i ˩	-0.3036798
-0.91652864	s i ˩	-0.22391927
-0.90836847	kʰ i ˩	-0.24267475
-0.39369544	l i ˩	-0.6244243
-0.7286571	p i ˩	-0.68846965
-0.64437383	ʑ i ˩	-0.45649529
-0.5051743	dz i ˩	-0.5381846
-0.5106361	ɬ i ˩	-0.53365606
-0.30953696	d i ˩	-0.7199795
-0.42393866	ɲ i ˩	-0.9301781
-0.58874124	b i ˩	-0.7381723
-0.44995484	t i ˩	-0.46332023
-0.33243603	tɕʰ i ˩	-0.48182282
-0.6020843	tsʰ i ˩	-0.29980913
-0.38745427	tɕ i ˩	-0.40234017
-0.49587965	pʰ i ˩	-0.3002262
-0.5740795	ʈʰ i ˩	-0.25236523
-0.7515249	ɕ i ˩	-0.22391927
-0.37445346	g ɯ ˩	-0.62821215
-0.4645986	dʑ ɯ ˩	-0.5624805
-0.78078437	ʈʂʰ ɯ ˩	-0.5530857
-0.75928617	z ɯ ˩	-0.41823477
-0.4466108	h ɯ ˩	-0.54138726
-0.49778	s ɯ ˩	-0.9426504
-0.58187294	kʰ ɯ ˩	-0.6152431
-0.39138827	ʐ ɯ ˩	-0.41325253
-0.29961053	ɳ ɯ ˩	-0.759845
-0.24881545	l ɯ ˩	-0.22391927
-0.69090885	dz ɯ ˩	-0.31261247
-0.5964885	ts ɯ ˩	-1.4702559
-0.41611606	ʂ ɯ ˩	-0.41055018
-0.5342349	ɖ ɯ ˩	-0.54673266
-0.5878778	tɕʰ ɯ ˩	-0.31620076
-0.34433457	tsʰ ɯ ˩	-0.5099314
-0.45750973	tɕ ɯ ˩	-0.91177726
-0.4593282	ʈʂ ɯ ˩	-0.22391927
-0.56846285	ʈ ɯ ˩	-0.25236523
-0.70089716	ɣ ɯ ˩	-0.22391927
-0.4083618	ʈʰ ɯ ˩	-0.2851594
-0.55787694	ɭ ɯ ˩	-0.35183048
-0.3186835	ɖʐ ɯ ˩	-0.32039517
-0.2692976	tʰ o ˩	-0.32039517
-0.49756205	g o ˩	-0.26971185
-0.5091533	dʑ o ˩	-1.1631017
-0.81645185	ʈʂʰ o ˩	-0.22391927
-0.34473148	z o ˩	-1.0342739
-0.69112766	n o ˩	-0.31289867
-0.4693945	m o ˩	-0.44809037
-0.7777531	k o ˩	-0.22391927
-0.6679582	h o ˩	-0.43614486
-0.3631956	s o ˩	-0.6639908
-0.2790197	ʐ o ˩	-0.3002262
-0.5401274	l o ˩	-0.4073756
-0.6716396	p o ˩	-0.6401783
-0.8003763	qʰ o ˩	-0.26227686
-0.33611852	q o ˩	-0.6697191
-0.9238811	dz o ˩	-0.22391927
-0.48961774	ts o ˩	-0.46440256
-0.6570774	ʂ o ˩	-0.22391927
-0.5564617	d o ˩	-0.4024017
-0.29353845	b o ˩	-0.42979196
-0.5751815	ɖ o ˩	-0.26227686
-0.73958296	ʁ o ˩	-0.68153346
-0.30512127	t o ˩	-0.40750107
-0.6048844	tɕʰ o ˩	-0.3370827
-0.41950268	w o ˩	-0.4446557
-0.91096395	tsʰ o ˩	-0.22391927
-0.7185951	tɕ o ˩	-0.22391927
-0.45045432	pʰ o ˩	-0.34191874
-0.62928224	ʈʂ o ˩	-0.262498
-0.6609916	ɖʐ o ˩	-0.22391927
-0.17521596	<SIL> v̩ ˩	-0.73961926
-0.60401344	tʰ v̩ ˩	-0.53896046
-0.2594527	˩˥ v̩ ˩	-0.262498
-0.4197678	g v̩ ˩	-0.6081946
-0.27918765	˩ v̩ ˩	-0.3590014
-0.1936931	˥ v̩ ˩	-0.49800742
-0.3989851	ʈʂʰ v̩ ˩	-0.22391927
-0.53031063	˧ v̩ ˩	-0.40063128
-0.31435654	n v̩ ˩	-0.46459466
-0.46874142	m v̩ ˩	-1.0439452
-0.41699928	k v̩ ˩	-0.99040705
-0.2248311	əəə… v̩ ˩	-0.2828057
-0.4663765	kʰ v̩ ˩	-0.7043178
-0.386781	ʐ v̩ ˩	-0.5335206
-0.45775998	l v̩ ˩	-0.41036174
-0.47907472	p v̩ ˩	-0.29872593
-0.4079463	qʰ v̩ ˩	-0.44525352
-0.9213784	q v̩ ˩	-0.22391927
-0.5133419	ʂ v̩ ˩	-0.25236523
-0.27918765	d v̩ ˩	-0.31436324
-0.3801744	b v̩ ˩	-0.44127023
-0.4335075	ɖ v̩ ˩	-0.22391927
-0.2299778	ʁ v̩ ˩	-0.22391927
-0.80941653	t v̩ ˩	-0.23507509
-0.2299778	tsʰ v̩ ˩	-0.22391927
-0.5138368	pʰ v̩ ˩	-0.38108307
-0.58986807	ʈʂ v̩ ˩	-0.2788053
-0.4864136	ʈ v̩ ˩	-0.24925394
-0.44091484	ŋ v̩ ˩	-0.3971362
-0.52438194	f v̩ ˩	-0.25236523
-0.6333952	mmm… v̩ ˩	-0.22391927
-0.846134	h ĩ ˩	-0.75028616
-0.23125078	<SIL> jæ ˩	-0.22391927
-0.93709165	n jæ ˩	-0.22391927
-0.6080907	<SIL> ə ˩	-0.7375737
-0.42944592	˩˥ ə ˩	-0.37419268
-0.6331705	˩ ə ˩	-1.011448
-0.822479	˥ ə ˩	-0.660438
-0.45025483	˧ ə ˩	-0.44068837
-0.9915434	əəə… ə ˩	-0.26227686
-1.0988572	˧˥ ə ˩	-0.22391927
-0.7485054	mmm… ə ˩	-0.22391927
-0.45490074	ʈʂʰ wæ ˩	-0.22391924
-0.5427897	h wæ ˩	-0.25355172
-0.6435992	ʐ wæ ˩	-0.31863913
-0.66855633	ɻ wæ ˩	-0.22391927
-0.4364822	qʰ wæ ˩	-0.27037233
-0.41514468	q wæ ˩	-0.26245376
-0.7148303	ʂ wæ ˩	-0.49800742
-0.50871634	ɖ wæ ˩	-0.5737053
-0.6338895	ʈʂ wæ ˩	-0.26227686
-0.8065874	˩ ɻ ˩	-0.22391927
-0.9002123	˧ ɻ ˩	-0.25236523
-0.29519084	u ɻ ˩	-0.22391927
-0.6429735	<SIL> æ ˩	-0.22391927
-0.33463043	g æ ˩	-0.49800742
-0.60116816	˩ æ ˩	-0.22391927
-0.60116816	˥ æ ˩	-0.26227686
-0.49608743	ʈʂʰ æ ˩	-0.2993092
-0.62679046	˧ æ ˩	-0.25450325
-0.16825627	n æ ˩	-0.49800742
-0.3448472	m æ ˩	-1.0704222
-0.9338201	h æ ˩	-0.22391927
-0.20974569	ʐ æ ˩	-0.46804416
-0.34725124	ɻ æ ˩	-0.47603583
-0.6410444	ɳ æ ˩	-0.22391927
-0.5405668	l æ ˩	-0.22391927
-0.58991814	p æ ˩	-0.35468745
-0.5210401	qʰ æ ˩	-0.22391927
-0.5973129	q æ ˩	-0.22391927
-0.41274917	ʂ æ ˩	-0.26227686
-0.46955603	b æ ˩	-0.27792054
-0.13556644	ɖ æ ˩	-0.78091705
-0.66811496	ʁ æ ˩	-0.37419268
-0.22993091	tɕʰ æ ˩	-0.22391927
-0.6433145	tɕ æ ˩	-0.49800742
-0.7383268	pʰ æ ˩	-0.332962
-0.5101627	ʈʂ æ ˩	-0.3371316
-0.6569359	ʈ æ ˩	-0.505536
-0.5286207	ʈʰ æ ˩	-0.46652302
-0.44192857	ɖʐ æ ˩	-0.262498
-0.24235156	ʈʂʰ e ˩	-0.24267475
-0.3179854	z e ˩	-0.9016645
-0.4857036	n e ˩	-0.6323706
-0.37137341	s e ˩	-0.5571791
-0.94112456	l e ˩	-0.28590533
-0.97306466	dz e ˩	-0.22391927
-0.40413862	ts e ˩	-0.22391927
-0.59859645	ʂ e ˩	-0.37821957
-0.31373507	tsʰ e ˩	-0.65085393
-0.9150727	ʈʂ e ˩	-0.28537095
-0.37368903	j e ˩	-0.22391927
-0.45212358	g ɤ ˩	-0.52411455
-0.23620465	ʝ ɤ ˩	-0.22391927
-0.3446102	dʑ ɤ ˩	-0.57960314
-0.68088233	ʈʂʰ ɤ ˩	-0.22391927
-0.6002047	m ɤ ˩	-0.6050703
-0.56863534	k ɤ ˩	-0.38043138
-0.3714141	h ɤ ˩	-0.40858182
-0.67269945	kʰ ɤ ˩	-0.22391927
-0.35958844	ʐ ɤ ˩	-0.5332568
-0.23620465	l ɤ ˩	-0.22391927
-0.2531171	p ɤ ˩	-0.64815974
-0.56401104	ts ɤ ˩	-0.22391927
-0.23620465	ʂ ɤ ˩	-0.22391927
-0.3581477	b ɤ ˩	-0.22391927
-0.3488194	tsʰ ɤ ˩	-0.30046803
-0.55777216	tɕ ɤ ˩	-0.3205621
-0.7434308	pʰ ɤ ˩	-0.22391927
-0.4975613	ʈʂ ɤ ˩	-0.25236523
-0.7600636	ʈ ɤ ˩	-0.22391927
-0.4962589	ʈʰ ɤ ˩	-0.22391927
-0.4973865	ɖʐ ɤ ˩	-0.26916227
-0.10275995	<SIL> ɑ ˩	-1.1792486
-0.50009966	tʰ ɑ ˩	-0.3592753
-0.10626327	˩˥ ɑ ˩	-0.6740987
-0.12547833	˩ ɑ ˩	-0.91571045
-0.14837085	˥ ɑ ˩	-0.70212734
-0.082828656	˧ ɑ ˩	-0.5771886
-0.14837085	z ɑ ˩	-0.2788053
-0.39005446	n ɑ ˩	-0.71728736
-0.39304245	m ɑ ˩	-0.2828057
-0.68789643	h ɑ ˩	-0.2504958
-0.7306996	s ɑ ˩	-0.22391927
-0.10626327	əəə… ɑ ˩	-0.40109736
-0.6540404	l ɑ ˩	-0.8262821
-0.20536903	p ɑ ˩	-0.26227686
-0.32603276	qʰ ɑ ˩	-0.9711103
-0.5733322	q ɑ ˩	-0.2825867
-0.29599845	dz ɑ ˩	-0.7990374
-0.5800981	ts ɑ ˩	-0.25450325
-0.20536903	ʂ ɑ ˩	-0.2828057
-0.8144666	ɬ ɑ ˩	-0.262498
-0.67702377	d ɑ ˩	-0.37439576
-0.34871063	b ɑ ˩	-1.077791
-0.28286007	ʁ ɑ ˩	-0.94274056
-0.46286803	t ɑ ˩	-0.68145764
-0.20536903	pʰ ɑ ˩	-0.22391927
-0.10626327	˧˥ ɑ ˩	-0.359408
-0.20536903	õ ɑ ˩	-0.22391927
-0.20536903	f ɑ ˩	-0.22391927
-0.8041116	<SIL> wɤ ˩	-0.25236523
-0.6202983	˩˥ wɤ ˩	-0.22391927
-0.18984546	g wɤ ˩	-0.26550975
-0.5909369	˩ wɤ ˩	-0.8565632
-0.64916664	˥ wɤ ˩	-0.44183764
-0.24911831	ʈʂʰ wɤ ˩	-0.26685497
-0.92750335	˧ wɤ ˩	-0.26227686
-0.2869218	k wɤ ˩	-0.9876825
-0.6749835	h wɤ ˩	-0.30392438
-0.73059803	kʰ wɤ ˩	-0.25299293
-0.4038458	ʐ wɤ ˩	-0.62738246
-0.21869883	l wɤ ˩	-0.22391927
-0.42510068	qʰ wɤ ˩	-0.4278523
-0.73059803	q wɤ ˩	-0.22391927
-0.75831115	ʁ wɤ ˩	-0.27615863
-0.73059803	˧˥ wɤ ˩	-0.22391927
-0.41660166	ŋ wɤ ˩	-0.4371676
-1.4364439	<SIL> õ ˩	-0.22391927
-0.8373451	˥ õ ˩	-0.26884118
-0.76475286	h õ ˩	-0.2674866
-0.5697149	<SIL> jo ˩	-0.2828057
-0.31394118	˩ jo ˩	-0.33969042
-0.40913218	˥ jo ˩	-0.25236523
-0.5019803	˧ jo ˩	-0.23994528
-0.21117724	ɕ jo ˩	-0.22391927
-0.6178206	<SIL> jɤ ˩	-0.2828057
-0.475659	˩˥ jɤ ˩	-0.22391927
-0.54410756	˩ jɤ ˩	-0.4258525
-0.5855013	˥ jɤ ˩	-0.22391927
-0.57091546	˧ jɤ ˩	-0.23994528
-0.5262307	n jɤ ˩	-0.39179373
-0.25587562	k jɤ ˩	-0.22391927
-0.6491823	l jɤ ˩	-0.6441354
-0.475659	˧˥ jɤ ˩	-0.22391927
-0.81294656	ɕ jɤ ˩	-0.2828057
-0.43984038	<SIL> æ̃ ˩	-0.25236523
-0.20320381	˩˥ æ̃ ˩	-0.22391927
-0.3880823	˩ æ̃ ˩	-0.22391927
-0.20320381	˥ æ̃ ˩	-0.22391927
-0.3853718	h æ̃ ˩	-0.35656956
-0.19880179	əəə… æ̃ ˩	-0.2828057
-0.20320381	mmm… æ̃ ˩	-0.22391927
-0.2104074	<SIL> ɻ̍ ˩	-0.2828057
-0.21809676	˩ ɻ̍ ˩	-0.38643473
-0.15492532	˥ ɻ̍ ˩	-0.33368447
-0.5568694	ʈʂʰ ɻ̍ ˩	-0.22391927
-0.4653526	˧ ɻ̍ ˩	-0.43430972
-0.41091633	h ṽ ˩	-0.24925394
-0.52628875	h ɑ̃ ˩	-0.31678534
-0.7198465	h ṽ̩ ˩	-0.22391927
-0.23125078	˩ ɻ̩ ˩	-0.22391927
-0.4355433	˧ ɻ̩ ˩	-0.22391927
-0.23125078	tɕ ɛ ˩	-0.22391927
-0.23125078	˩ ɻ̃ ˩	-0.22391927
-0.4355433	˩ ɻ̩̃ ˩	-0.22391927
-1.9628671	<s> <SIL> ʝ	-1.077791
-1.8914022	˩˥ <SIL> ʝ	-0.27615863
-0.92130506	ɯ <SIL> ʝ	-0.22391927
-1.6229596	˩ <SIL> ʝ	-0.9451654
-1.8785723	˥ <SIL> ʝ	-0.27615863
-1.6297872	˧ <SIL> ʝ	-1.3672391
-1.8274077	əəə… <SIL> ʝ	-0.22391927
-2.034401	˧˥ <SIL> ʝ	-0.22391927
-1.8997277	i ˩˥ ʝ	-0.6441354
-1.9001446	ɯ ˩˥ ʝ	-0.22391927
-1.6291354	wɤ ˩˥ ʝ	-0.27615863
-1.9491969	i ˩ ʝ	-0.75327986
-1.7705467	ɯ ˩ ʝ	-1.1414601
-1.9624852	o ˩ ʝ	-0.49800742
-1.8831354	v̩ ˩ ʝ	-0.49800742
-1.6366336	ĩ ˩ ʝ	-0.22391927
-1.5652516	wæ ˩ ʝ	-0.2828057
-1.873073	e ˩ ʝ	-0.9451654
-1.7492378	ɤ ˩ ʝ	-0.49800742
-1.9234442	ɑ ˩ ʝ	-0.49800742
-2.053318	wɤ ˩ ʝ	-0.22391927
-1.9390062	i ˥ ʝ	-0.6441354
-1.812363	ɯ ˥ ʝ	-2.0395865
-2.0126045	o ˥ ʝ	-0.5771886
-1.9471233	v̩ ˥ ʝ	-0.5771886
-1.7945995	æ ˥ ʝ	-0.27615863
-1.7853614	ɤ ˥ ʝ	-0.22391927
-1.8526926	ɑ ˥ ʝ	-0.22391927
-1.6898503	s o ʝ	-0.22391927
-1.6770158	i ˧ ʝ	-1.378821
-1.9650985	ɯ ˧ ʝ	-1.1000674
-1.6272917	o ˧ ʝ	-1.2140107
-1.7580492	v̩ ˧ ʝ	-0.660438
-1.747038	ĩ ˧ ʝ	-0.6441354
-1.0191263	ə ˧ ʝ	-2.0800707
-1.5912875	æ ˧ ʝ	-0.87821865
-1.4400538	e ˧ ʝ	-2.3055425
-1.4945288	ɤ ˧ ʝ	-1.1414601
-1.8013514	ɑ ˧ ʝ	-0.6441354
-1.9202547	wɤ ˧ ʝ	-0.2828057
-1.3347278	jo ˧ ʝ	-0.22391927
-1.0775988	ɑ̃ ˧ ʝ	-0.22391927
-2.1037917	<SIL> əəə… ʝ	-0.22391927
-1.2072101	n e ʝ	-0.22391927
-2.015398	o ˧˥ ʝ	-0.22391927
-0.8143028	l õ ʝ	-0.22391927
-0.99077135	tʰ i ˥	-0.41926998
-0.88156635	g i ˥	-0.25658536
-0.6960526	ʝ i ˥	-0.93096614
-0.94051903	dʑ i ˥	-0.22391927
-0.9369082	n i ˥	-0.26240325
-0.873544	m i ˥	-0.26015237
-0.9097684	k i ˥	-0.33159703
-1.0690023	s i ˥	-0.22391927
-0.7736179	kʰ i ˥	-0.25658536
-1.0551103	l i ˥	-0.33368447
-0.9850328	p i ˥	-0.468397
-0.9637206	ʑ i ˥	-0.37191063
-0.81196946	dz i ˥	-0.246525
-0.48004338	ts i ˥	-0.22391927
-0.9356919	ɬ i ˥	-0.23994528
-0.9119206	d i ˥	-0.4145615
-0.87363636	ɲ i ˥	-1.005869
-0.8844652	b i ˥	-0.41775212
-0.60609347	t i ˥	-0.37849045
-1.0769577	tɕʰ i ˥	-0.262498
-1.032947	tsʰ i ˥	-0.26916227
-0.82957065	tɕ i ˥	-0.4289511
-0.48004338	ʈ i ˥	-0.22391927
-1.1045911	dʑ ɯ ˥	-0.29769439
-1.1333895	ʈʂʰ ɯ ˥	-0.67314255
-0.9555373	z ɯ ˥	-0.22391927
-0.82172287	k ɯ ˥	-0.22391927
-1.0488553	h ɯ ˥	-0.24278039
-0.94234055	s ɯ ˥	-0.48094207
-0.91208506	kʰ ɯ ˥	-0.42363763
-0.5909486	ɳ ɯ ˥	-0.54006505
-1.0488553	dz ɯ ˥	-0.36401132
-0.91826254	ts ɯ ˥	-0.792041
-1.0476252	ʂ ɯ ˥	-1.1860375
-1.1008836	ɖ ɯ ˥	-0.25872615
-0.80763686	tɕ ɯ ˥	-0.83856815
-0.6901058	ʈʂ ɯ ˥	-0.22391927
-0.6168054	ʈ ɯ ˥	-0.22391927
-0.9025537	ɣ ɯ ˥	-0.22391927
-0.7662493	ɭ ɯ ˥	-0.25236523
-0.8719299	ɖʐ ɯ ˥	-0.22391927
-1.0242058	tʰ o ˥	-0.25236523
-0.68248206	dʑ o ˥	-0.5800209
-0.706771	ʈʂʰ o ˥	-0.26916227
-1.1340207	z o ˥	-0.6469724
-1.1273239	n o ˥	-0.6606916
-0.99998176	m o ˥	-0.64709955
-0.9916828	h o ˥	-0.3203148
-1.0946163	s o ˥	-0.22391927
-1.0047463	l o ˥	-0.3715477
-0.84395015	p o ˥	-0.27064276
-0.71111816	q o ˥	-0.4649604
-0.77806497	ts o ˥	-0.39410102
-0.71215874	ʂ o ˥	-0.22391927
-1.0221505	d o ˥	-0.26227686
-1.0636204	b o ˥	-0.25236523
-0.95267856	ʁ o ˥	-0.31809163
-0.9519076	t o ˥	-0.22391927
-0.9575594	tɕʰ o ˥	-0.33368447
-1.1403303	w o ˥	-0.34566554
-0.63706446	tsʰ o ˥	-0.25658536
-0.789181	tɕ o ˥	-0.27037233
-0.72166175	pʰ o ˥	-0.24267475
-0.8835248	ɖʐ o ˥	-0.2828057
-1.0818292	tʰ v̩ ˥	-0.25658536
-0.88531893	g v̩ ˥	-0.3584041
-0.82472086	˩ v̩ ˥	-0.22391927
-0.88816476	˧ v̩ ˥	-0.27994448
-1.1481692	m v̩ ˥	-0.4499147
-0.9288939	k v̩ ˥	-0.652868
-1.0390247	kʰ v̩ ˥	-0.44871366
-0.9796725	ʐ v̩ ˥	-0.25236523
-0.60401237	ɳ v̩ ˥	-0.22391927
-0.8156141	l v̩ ˥	-0.22391927
-0.8275467	p v̩ ˥	-0.5212797
-1.0290277	qʰ v̩ ˥	-0.26227686
-1.007445	q v̩ ˥	-0.30855456
-0.9668829	d v̩ ˥	-0.25236523
-0.9203495	b v̩ ˥	-0.5866879
-0.73186105	t v̩ ˥	-0.22391927
-0.99165255	pʰ v̩ ˥	-0.22391927
-0.4849345	ʈʂ v̩ ˥	-0.25236523
-0.5499957	ʈ v̩ ˥	-0.28385454
-1.1794325	ŋ v̩ ˥	-0.25236523
-0.904089	f v̩ ˥	-0.22391927
-1.0101417	ɖʐ v̩ ˥	-0.22391927
-1.2519025	h ĩ ˥	-0.57785285
-1.6488175	˩ ə ˥	-0.22391927
-0.746053	h wæ ˥	-0.24925394
-0.7604697	ɻ wæ ˥	-0.22391927
-1.0839057	q wæ ˥	-0.22391927
-0.89966685	ʈʂ wæ ˥	-0.22391927
-0.5462201	ʈ wæ ˥	-0.22391927
-0.5462201	ɖʐ wæ ˥	-0.22391927
-0.9954369	˧ ɻ ˥	-0.22391927
-0.98845553	ʈʂʰ æ ˥	-0.32967702
-1.0088133	m æ ˥	-0.23994528
-0.76579386	ɻ æ ˥	-0.4712342
-1.0262244	p æ ˥	-0.33368447
-0.92572266	qʰ æ ˥	-0.33959314
-1.0370238	q æ ˥	-0.22391927
-0.42658794	ts æ ˥	-0.40109736
-0.93470603	ʂ æ ˥	-0.26227686
-1.182161	b æ ˥	-0.246525
-1.1167597	ɖ æ ˥	-0.22391927
-0.5947565	tɕ æ ˥	-0.27615863
-1.0147845	pʰ æ ˥	-0.2828057
-0.94987357	ʈʂ æ ˥	-0.22391927
-1.1072129	ʈ æ ˥	-0.49800742
-1.3070997	ʈʰ æ ˥	-0.22391927
-0.7839855	z e ˥	-0.66746825
-1.0300343	s e ˥	-0.51570493
-1.1021209	l e ˥	-0.8835794
-0.93845797	ts e ˥	-0.22391927
-1.062219	ʂ e ˥	-0.31620076
-0.8478645	g ɤ ˥	-0.24925394
-1.0234786	dʑ ɤ ˥	-0.2828057
-0.7499375	ʈʂʰ ɤ ˥	-0.22391927
-1.0509057	m ɤ ˥	-0.5502839
-0.89772475	k ɤ ˥	-0.24925394
-0.72508943	h ɤ ˥	-0.22391927
-0.8769344	kʰ ɤ ˥	-0.22391927
-0.8922836	ʐ ɤ ˥	-0.22391927
-0.8095667	p ɤ ˥	-0.3181233
-0.4847201	dz ɤ ˥	-0.22391927
-0.7825436	ts ɤ ˥	-0.22391927
-0.7638414	tɕ ɤ ˥	-0.22391927
-0.71911234	ʈʂ ɤ ˥	-0.22391927
-0.82911867	ʈ ɤ ˥	-0.22391927
-0.71749616	ʈʰ ɤ ˥	-0.25236523
-0.9769704	ɖʐ ɤ ˥	-0.22391927
-1.0263028	tʰ ɑ ˥	-0.26227686
-1.0648526	n ɑ ˥	-0.4217386
-1.1744131	h ɑ ˥	-0.22391927
-1.0873288	s ɑ ˥	-0.38633072
-0.6814897	l ɑ ˥	-0.5096327
-0.77719957	q ɑ ˥	-0.26227686
-1.0706422	ts ɑ ˥	-0.2828057
-0.83967817	d ɑ ˥	-0.44992384
-0.9673221	b ɑ ˥	-0.2828057
-1.1113663	ʁ ɑ ˥	-0.87821865
-0.9552886	t ɑ ˥	-0.22391927
-0.79362464	tsʰ ɑ ˥	-0.22391927
-1.2062104	˩ wɤ ˥	-0.2828057
-1.2380425	˧ wɤ ˥	-0.22391927
-1.1995134	k wɤ ˥	-0.22391927
-1.1373655	h wɤ ˥	-0.22391927
-0.891224	kʰ wɤ ˥	-0.55478835
-0.807086	ʐ wɤ ˥	-0.25740206
-0.926529	qʰ wɤ ˥	-0.32594046
-0.891224	q wɤ ˥	-0.2828057
-1.1995134	ŋ wɤ ˥	-0.22391927
-1.1934226	˧ õ ˥	-0.22391927
-1.0285395	h õ ˥	-0.22391927
-0.7524384	˧ jo ˥	-0.4586664
-1.473288	n jɤ ˥	-0.22391927
-1.2242315	h æ̃ ˥	-0.2828057
-0.7403384	˩ ɻ̍ ˥	-0.24925394
-0.5787328	˧ ɻ̍ ˥	-0.42271924
-0.98382	h ṽ ˥	-0.22391927
-1.1551638	h ɑ̃ ˥	-0.24278039
-0.90599686	h ṽ̩ ˥	-0.26916227
-0.52851844	˧ ɻ̩ ˥	-0.22391927
-0.13893706	h ĩ ˥	-0.22391927
-1.746741	<s> <SIL> dʑ	-0.7161502
-1.313944	˩˥ <SIL> dʑ	-0.7322128
-1.6120725	˩ <SIL> dʑ	-0.72616774
-1.4125841	˥ <SIL> dʑ	-0.60066974
-1.4433594	˧ <SIL> dʑ	-0.76744586
-1.4494299	əəə… <SIL> dʑ	-0.2828057
-0.34485257	q <SIL> dʑ	-0.22391927
-1.2330675	˧˥ <SIL> dʑ	-0.9293712
-1.544056	mmm… <SIL> dʑ	-0.22391927
-1.2037307	i ˩˥ dʑ	-0.82238936
-1.1467009	ɯ ˩˥ dʑ	-0.40109736
-1.0643656	o ˩˥ dʑ	-0.5771886
-1.1878893	v̩ ˩˥ dʑ	-0.40109736
-1.2322912	ĩ ˩˥ dʑ	-0.2828057
-1.1503842	wæ ˩˥ dʑ	-0.22391927
-1.2537566	e ˩˥ dʑ	-0.22391927
-1.1804459	ɤ ˩˥ dʑ	-0.26227686
-1.4348365	ɑ ˩˥ dʑ	-0.22391927
-1.4490076	wɤ ˩˥ dʑ	-0.25450325
-1.4914654	i ˩ dʑ	-1.3000265
-1.4300307	ɯ ˩ dʑ	-1.4801068
-1.402353	o ˩ dʑ	-1.0872253
-1.2851336	v̩ ˩ dʑ	-1.083556
-1.5282271	ĩ ˩ dʑ	-0.69011897
-1.6515651	ə ˩ dʑ	-0.22391927
-1.6571584	wæ ˩ dʑ	-0.22391927
-1.4792067	æ ˩ dʑ	-0.7016613
-1.2955399	e ˩ dʑ	-1.2167405
-1.5353472	ɤ ˩ dʑ	-0.69377863
-1.5264398	ɑ ˩ dʑ	-0.59599304
-1.3706678	wɤ ˩ dʑ	-0.8959474
-1.1974036	jo ˩ dʑ	-0.27615863
-1.3685167	jɤ ˩ dʑ	-0.5771886
-1.4409487	æ̃ ˩ dʑ	-0.22391927
-1.4342197	ɻ̍ ˩ dʑ	-0.87821865
-1.3112171	ɑ̃ ˩ dʑ	-0.27615863
-1.300362	i ˥ dʑ	-1.5116963
-1.2466192	ɯ ˥ dʑ	-1.4929469
-1.3950734	o ˥ dʑ	-0.75327986
-1.1873112	v̩ ˥ dʑ	-0.8644632
-1.4297754	ĩ ˥ dʑ	-0.359408
-0.9351231	wæ ˥ dʑ	-0.2828057
-1.3263555	æ ˥ dʑ	-0.5124954
-1.2860675	e ˥ dʑ	-0.91571045
-1.6431265	ɤ ˥ dʑ	-0.22391927
-1.2404032	ɑ ˥ dʑ	-0.43858925
-1.1694226	wɤ ˥ dʑ	-0.5771886
-1.1402869	ɻ̍ ˥ dʑ	-0.87821865
-1.2034471	əəə… dʑ dʑ	-0.22391927
-1.3917289	i ˧ dʑ	-1.5399559
-1.5975626	ɯ ˧ dʑ	-1.5047601
-1.4927808	o ˧ dʑ	-1.0162094
-1.4421929	v̩ ˧ dʑ	-1.1670141
-1.7071542	ĩ ˧ dʑ	-0.6784745
-1.8101075	wæ ˧ dʑ	-0.22391927
-1.5784407	æ ˧ dʑ	-0.87821865
-1.603046	e ˧ dʑ	-0.779033
-1.4820724	ɤ ˧ dʑ	-1.3749945
-1.4550369	ɑ ˧ dʑ	-1.0543098
-1.7367781	wɤ ˧ dʑ	-0.25450325
-1.7866206	jɤ ˧ dʑ	-0.2828057
-1.5484285	æ̃ ˧ dʑ	-0.22391927
-1.4819854	ɻ̍ ˧ dʑ	-0.262498
-0.63379365	w̃æ ˧ dʑ	-0.22391927
-1.9298017	˩ m dʑ	-0.22391927
-1.6932558	<SIL> əəə… dʑ	-0.22391927
-1.4011153	˩˥ əəə… dʑ	-0.22391927
-1.567791	˩ əəə… dʑ	-0.22391927
-1.5055642	˧ əəə… dʑ	-0.22391927
-1.0558975	˧˥ əəə… dʑ	-0.26227686
-0.336841	ɭ əəə… dʑ	-0.22391927
-1.635779	<SIL> ə dʑ	-0.22391927
-1.7345515	l e dʑ	-0.22391927
-1.9855825	˧ p dʑ	-0.22391927
-1.2041857	i ˧˥ dʑ	-0.359408
-1.2605495	ɯ ˧˥ dʑ	-0.61468047
-1.1807568	o ˧˥ dʑ	-0.48292527
-1.0406715	v̩ ˧˥ dʑ	-0.75327986
-0.32469937	ə ˧˥ dʑ	-0.2828057
-1.4131708	wæ ˧˥ dʑ	-0.2828057
-0.98145026	æ ˧˥ dʑ	-0.6371391
-1.228075	ɤ ˧˥ dʑ	-0.27615863
-1.5241283	ɑ ˧˥ dʑ	-0.22391927
-1.1036953	ɑ̃ ˧˥ dʑ	-0.27615863
-0.61260104	ṽ̩ ˧˥ dʑ	-0.22391927
-1.4464768	<SIL> mmm… dʑ	-0.22391927
-1.1344924	˩˥ mmm… dʑ	-0.22391927
-1.2706988	˩ mmm… dʑ	-0.22391927
-1.0587014	˥ mmm… dʑ	-0.22391927
-2.6005287	<s> <SIL> o	-0.246525
-2.4921675	˩ <SIL> o	-0.22391927
-1.0810155	<SIL> tʰ o	-0.262498
-1.1412742	˩˥ tʰ o	-0.22391927
-1.5078776	˩ tʰ o	-0.22391927
-0.5290884	o tʰ o	-0.22391927
-0.850421	˧ tʰ o	-0.62732196
-0.287293	n tʰ o	-0.22391927
-0.9935352	əəə… tʰ o	-0.22391927
-0.9310761	<SIL> g o	-0.61195076
-1.1619533	˩˥ g o	-0.43858925
-0.8420603	˩ g o	-0.44525352
-1.1479996	˥ g o	-0.2828057
-0.8098222	˧ g o	-0.77266085
-2.5962756	o ˩ o	-0.22391927
-2.2098913	e ˩ o	-0.22391927
-2.313177	o ˥ o	-0.22391927
-0.5827186	<SIL> dʑ o	-1.2487556
-0.31984332	˩˥ dʑ o	-1.2286397
-0.3478706	˩ dʑ o	-1.8324611
-0.30769056	˥ dʑ o	-1.8616194
-0.43935835	˧ dʑ o	-1.9604053
-0.7847594	əəə… dʑ o	-0.22391927
-0.46807745	ə dʑ o	-0.22391927
-0.25128913	e dʑ o	-0.22391927
-0.25271502	˧˥ dʑ o	-1.1882035
-0.6398626	mmm… dʑ o	-0.22391927
-0.80788726	˩ o o	-0.22391927
-0.34736076	˥ o o	-0.22391927
-0.51033765	o o o	-0.2828057
-0.8001342	<SIL> ʈʂʰ o	-0.48292527
-0.94486624	˩ ʈʂʰ o	-0.34310544
-0.59869605	o ʈʂʰ o	-0.22391927
-1.2730262	˧ ʈʂʰ o	-0.8404301
-2.4039025	ɤ ˧ o	-0.22391927
-0.32387376	<SIL> z o	-1.5337917
-0.22496857	˩˥ z o	-0.75327986
-0.34531707	˩ z o	-1.4847791
-0.29650512	˥ z o	-1.2973479
-0.1891805	o z o	-0.2828057
-0.3840357	˧ z o	-1.6598088
-0.0866392	əəə… z o	-0.96040535
-0.19331871	ə z o	-0.22391927
-0.19331871	ts z o	-0.22391927
-0.18560426	˧˥ z o	-0.49800742
-0.37492314	mmm… z o	-0.40109736
-0.37632474	v z o	-0.22391927
-0.6691979	<SIL> n o	-1.083556
-0.43430334	˩˥ n o	-0.77266085
-0.64934343	˩ n o	-1.650854
-0.739388	˥ n o	-0.78598213
-0.27989736	o n o	-0.22391927
-0.70007014	˧ n o	-0.92385525
-0.71121246	n n o	-0.22391927
-0.8139909	əəə… n o	-0.2828057
-0.27989736	e n o	-0.22391927
-0.8587427	˧˥ n o	-0.22391927
-0.71121246	mmm… n o	-0.22391927
-0.89762926	<SIL> m o	-0.45224988
-1.141998	˩˥ m o	-0.38908896
-0.7355087	˩ m o	-0.8659842
-0.8575477	˥ m o	-0.70212734
-0.82937264	˧ m o	-0.9293712
-0.87817127	mmm… m o	-0.22391927
-1.2962213	<SIL> k o	-0.22391927
-1.051584	˩˥ k o	-0.22391927
-1.547464	˥ k o	-0.22391927
-1.5532974	˧ k o	-0.27615863
-0.92084306	<SIL> h o	-0.61468047
-1.3326505	˩˥ h o	-0.5771886
-0.9683124	˩ h o	-0.9075926
-0.85292125	˥ h o	-0.73961926
-0.72971797	o h o	-0.2828057
-1.0250236	˧ h o	-0.8404301
-0.7214855	əəə… h o	-0.40109736
-1.2132974	˧˥ h o	-0.22391927
-0.6360646	<SIL> s o	-0.78091705
-0.6114715	i s o	-0.22391927
-0.70704055	˩˥ s o	-0.6347145
-0.743929	˩ s o	-1.1107912
-0.26888686	ʝ s o	-0.22391927
-0.7019139	˥ s o	-0.35798654
-0.6756029	˧ s o	-1.122836
-0.453502	əəə… s o	-0.2788053
-0.43055382	˧˥ s o	-0.505536
-0.26888686	jɤ s o	-0.22391927
-1.1214411	<SIL> ʐ o	-0.262498
-1.1052748	˩˥ ʐ o	-0.2828057
-1.2723273	˩ ʐ o	-0.22391927
-0.8824266	˥ ʐ o	-0.2788053
-1.3254204	˧ ʐ o	-0.2828057
-1.0618848	˧˥ ʐ o	-0.22391927
-0.86208093	<SIL> l o	-0.6740987
-0.89532185	˩˥ l o	-0.48292527
-0.7961852	˩ l o	-0.8617073
-1.2314031	˥ l o	-0.359408
-0.88450557	˧ l o	-0.60516983
-0.96222395	əəə… l o	-0.22391927
-0.5532203	ə l o	-0.22391927
-1.325671	˧˥ l o	-0.22391927
-0.7694454	<SIL> p o	-0.59989214
-0.87476474	˩ p o	-0.4786883
-0.8172399	˥ p o	-1.107596
-0.79665136	˧ p o	-1.226152
-0.299061	w p o	-0.22391927
-0.8076708	˧˥ p o	-0.359408
-1.1457174	<SIL> qʰ o	-0.22391927
-1.404561	˩ qʰ o	-0.2828057
-0.9925435	˧ qʰ o	-0.46804416
-0.31504714	ĩ qʰ o	-0.22391927
-0.6766739	<SIL> q o	-0.42320198
-0.7270597	˩˥ q o	-0.27615863
-0.39308748	˩ q o	-1.378821
-0.3848496	˥ q o	-0.75327986
-0.5457193	˧ q o	-1.7385566
-0.6527631	əəə… q o	-0.22391927
-0.7965927	<SIL> dz o	-0.49800742
-1.2062548	˩ dz o	-0.22391927
-1.1844094	˧ dz o	-0.22391927
-0.28048375	t dz o	-0.22391927
-0.6332295	˧˥ dz o	-0.2828057
-0.28048375	v dz o	-0.22391927
-0.45949966	<SIL> ts o	-0.49800742
-0.58536065	˩˥ ts o	-0.22391927
-0.57473195	˩ ts o	-0.49800742
-0.505906	˥ ts o	-0.45224988
-0.2568278	ʈʂʰ ts o	-0.22391927
-0.72955394	˧ ts o	-1.4466028
-0.38534868	əəə… ts o	-0.27615863
-0.2568278	mmm… ts o	-0.22391927
-1.2702566	<SIL> ʂ o	-0.2828057
-1.2550167	˩ ʂ o	-0.22391927
-1.1427386	˥ ʂ o	-0.22391927
-1.1450837	˧ ʂ o	-0.5260361
-0.8053905	˧˥ ʂ o	-0.22391927
-0.61393744	<SIL> ɬ o	-0.563528
-0.69643795	˩˥ ɬ o	-0.2828057
-0.56817496	˩ ɬ o	-0.70212734
-0.9949178	˥ ɬ o	-0.22391927
-0.6614107	˧ ɬ o	-0.6441354
-0.82144046	<SIL> d o	-0.4173052
-0.63326615	˩ d o	-0.3172394
-0.748709	˥ d o	-0.262498
-0.51849306	˧ d o	-1.0162094
-0.6282743	<SIL> b o	-0.61468047
-0.86419785	˩˥ b o	-0.27615863
-1.1394027	˩ b o	-0.40080068
-0.9077549	˥ b o	-0.359408
-0.9254012	˧ b o	-0.45224988
-0.5127423	əəə… b o	-0.2828057
-0.2812145	mmm… b o	-0.22391927
-1.5974541	˩ ɖ o	-0.262498
-1.3852122	˧ ɖ o	-0.87821865
-0.717296	<SIL> ʁ o	-1.0294863
-0.7379382	˩˥ ʁ o	-0.22391927
-0.47302216	˩ ʁ o	-1.4711353
-0.30354238	˥ ʁ o	-0.70212734
-0.4996904	˧ ʁ o	-1.2663988
-0.6367813	əəə… ʁ o	-0.2828057
-0.25001624	æ ʁ o	-0.22391927
-0.25001624	ʂ ʁ o	-0.22391927
-0.6367813	˧˥ ʁ o	-0.22391927
-0.6664279	<SIL> t o	-0.5771886
-0.93176085	˩ t o	-0.4173052
-0.65269023	˥ t o	-0.40109736
-1.0501084	˧ t o	-0.5394001
-0.2937287	mmm… t o	-0.22391927
-0.6607588	<SIL> tɕʰ o	-0.25236523
-0.80241513	˩ tɕʰ o	-0.22391927
-0.70604825	˥ tɕʰ o	-0.40109736
-0.6088039	˧ tɕʰ o	-0.66858274
-0.5119063	˧˥ tɕʰ o	-0.22391927
-0.0746967	<SIL> w o	-0.46459466
-0.29439798	˩˥ w o	-0.22391927
-0.29640603	˩ w o	-0.26227686
-0.13646115	˥ w o	-0.9451654
-0.13925542	o w o	-0.22391927
-0.110422246	˧ w o	-0.83652925
-0.13925542	əəə… w o	-0.22391927
-0.13925542	e w o	-0.22391927
-0.13925542	w w o	-0.22391927
-0.13925542	æ̃ w o	-0.22391927
-0.13925542	v w o	-0.22391927
-0.8142953	<SIL> tsʰ o	-0.48292527
-0.7413136	˩˥ tsʰ o	-0.2828057
-0.804307	˩ tsʰ o	-0.54939634
-0.78127193	˥ tsʰ o	-0.49800742
-0.798239	˧ tsʰ o	-0.69377863
-0.9865382	˩ tɕ o	-1.1375592
-1.1836331	˥ tɕ o	-0.2828057
-0.81167555	˧ tɕ o	-0.49800742
-0.30545598	mmm… tɕ o	-0.22391927
-0.8331515	<SIL> pʰ o	-0.26227686
-0.873291	˩ pʰ o	-0.5725119
-0.86214215	˥ pʰ o	-0.2828057
-0.7904004	˧ pʰ o	-0.70212734
-0.5420531	˧˥ pʰ o	-0.2828057
-0.63536125	<SIL> ʈʂ o	-0.40109736
-1.1300694	˩ ʈʂ o	-0.262498
-1.1860614	˧ ʈʂ o	-0.27615863
-0.30596226	əəə… ʈʂ o	-0.22391927
-1.1457433	<SIL> ɖʐ o	-0.22391927
-0.6403868	˩˥ ɖʐ o	-0.26227686
-1.1783687	˩ ɖʐ o	-0.22391927
-0.8817321	˧ ɖʐ o	-0.2828057
-1.2644887	<s> <SIL> ʈʂʰ	-1.2396121
-1.5378987	˩˥ <SIL> ʈʂʰ	-0.98961663
-1.5438975	˩ <SIL> ʈʂʰ	-1.011366
-1.3957498	˥ <SIL> ʈʂʰ	-1.178952
-0.34189197	ʈʂʰ <SIL> ʈʂʰ	-0.22391927
-1.430864	˧ <SIL> ʈʂʰ	-1.0768228
-0.6293497	n <SIL> ʈʂʰ	-0.22391927
-1.7237358	əəə… <SIL> ʈʂʰ	-0.2828057
-0.34189197	ʁ <SIL> ʈʂʰ	-0.22391927
-1.5292282	˧˥ <SIL> ʈʂʰ	-0.5771886
-0.94205487	õ <SIL> ʈʂʰ	-0.2828057
-1.6156487	i ˩˥ ʈʂʰ	-1.1989859
-1.1539017	ɯ ˩˥ ʈʂʰ	-0.43858925
-1.6544943	o ˩˥ ʈʂʰ	-0.22391927
-1.6376312	v̩ ˩˥ ʈʂʰ	-0.22391927
-1.2452813	ĩ ˩˥ ʈʂʰ	-0.22391927
-1.3216846	æ ˩˥ ʈʂʰ	-0.22391927
-1.4515704	ɑ ˩˥ ʈʂʰ	-0.22391927
-1.3376848	wɤ ˩˥ ʈʂʰ	-0.5969259
-0.7772523	ɑ̃ ˩˥ ʈʂʰ	-0.22391927
-1.5312034	i ˩ ʈʂʰ	-0.9731589
-1.5582371	ɯ ˩ ʈʂʰ	-0.9855069
-1.519043	o ˩ ʈʂʰ	-1.0794711
-1.7289224	v̩ ˩ ʈʂʰ	-1.0028607
-1.550992	ĩ ˩ ʈʂʰ	-1.3175514
-1.6818228	wæ ˩ ʈʂʰ	-0.22391927
-1.4084011	æ ˩ ʈʂʰ	-0.62999344
-1.3872106	e ˩ ʈʂʰ	-0.246525
-1.684844	ɤ ˩ ʈʂʰ	-0.25450325
-1.5397965	ɑ ˩ ʈʂʰ	-1.2461954
-1.487411	wɤ ˩ ʈʂʰ	-0.7990374
-1.4570687	æ̃ ˩ ʈʂʰ	-0.22391927
-1.4516369	ɻ̍ ˩ ʈʂʰ	-0.27615863
-0.9080005	ṽ ˩ ʈʂʰ	-0.22391927
-1.3248862	ɑ̃ ˩ ʈʂʰ	-0.2828057
-1.4237794	i ˥ ʈʂʰ	-0.986897
-1.2885385	ɯ ˥ ʈʂʰ	-0.57653624
-1.5199324	o ˥ ʈʂʰ	-0.7596532
-1.1807725	v̩ ˥ ʈʂʰ	-0.9534732
-1.408815	ĩ ˥ ʈʂʰ	-0.9451654
-1.1748854	wæ ˥ ʈʂʰ	-0.22391927
-1.4839195	æ ˥ ʈʂʰ	-0.40109736
-1.6768489	ɑ ˥ ʈʂʰ	-0.22391927
-1.356785	wɤ ˥ ʈʂʰ	-0.40109736
-1.3420726	ɻ̍ ˥ ʈʂʰ	-0.22391927
-1.038723	ɑ̃ ˥ ʈʂʰ	-0.22391927
-0.78274775	ṽ̩ ˥ ʈʂʰ	-0.2828057
-0.33848885	ĩ ˥ ʈʂʰ	-0.22391927
-1.0294001	<SIL> o ʈʂʰ	-0.22391927
-1.6595497	dʑ o ʈʂʰ	-0.22391927
-1.8197355	˩ ʈʂʰ ʈʂʰ	-0.22391927
-1.522127	i ˧ ʈʂʰ	-1.0183239
-1.4731822	ɯ ˧ ʈʂʰ	-0.8318163
-1.4250448	o ˧ ʈʂʰ	-1.0703154
-1.478859	v̩ ˧ ʈʂʰ	-0.90559494
-1.7016093	ĩ ˧ ʈʂʰ	-1.7335359
-1.646896	wæ ˧ ʈʂʰ	-0.9451654
-1.5078626	æ ˧ ʈʂʰ	-1.0031574
-1.4236542	e ˧ ʈʂʰ	-0.77162135
-1.6642741	ɤ ˧ ʈʂʰ	-0.779033
-1.5358363	ɑ ˧ ʈʂʰ	-0.97512865
-1.7322242	wɤ ˧ ʈʂʰ	-0.8404301
-0.91951	õ ˧ ʈʂʰ	-1.390102
-1.7808499	jɤ ˧ ʈʂʰ	-0.75327986
-1.3411821	æ̃ ˧ ʈʂʰ	-0.40109736
-1.4784312	ɻ̍ ˧ ʈʂʰ	-0.48292527
-1.3118979	h h ʈʂʰ	-0.22391927
-1.8080329	<SIL> əəə… ʈʂʰ	-0.505536
-1.3922524	˧˥ əəə… ʈʂʰ	-0.22391927
-1.4898338	k ɤ ʈʂʰ	-0.22391927
-1.7999365	˧ ʁ ʈʂʰ	-0.22391927
-0.34377038	i tɕ ʈʂʰ	-0.22391927
-1.3868481	i ˧˥ ʈʂʰ	-0.27615863
-1.4847664	ɯ ˧˥ ʈʂʰ	-0.2828057
-1.2134286	o ˧˥ ʈʂʰ	-0.49800742
-1.5724802	v̩ ˧˥ ʈʂʰ	-0.27615863
-1.4804388	æ ˧˥ ʈʂʰ	-0.27615863
-1.4534649	ɤ ˧˥ ʈʂʰ	-0.2828057
-1.2727242	ɑ ˧˥ ʈʂʰ	-0.5771886
-1.3471234	jɤ ˧˥ ʈʂʰ	-0.22391927
-1.5184067	˩ õ ʈʂʰ	-0.22391927
-0.98896384	h ṽ ʈʂʰ	-0.22391927
-1.1808226	<SIL> mmm… ʈʂʰ	-0.49800742
-1.1532607	˧ mmm… ʈʂʰ	-0.22391927
-0.7862362	əəə… mmm… ʈʂʰ	-0.22391927
-0.5307988	<SIL> ə̃ ʈʂʰ	-0.22391927
-0.55700374	tʰ i ˧	-0.8509497
-0.7073057	g i ˧	-0.3174765
-0.43917644	ʝ i ˧	-0.9820696
-0.1806227	dʑ i ˧	-0.60240525
-0.36904788	n i ˧	-0.28011614
-0.6812033	m i ˧	-0.86129993
-0.4099942	k i ˧	-0.6740926
-0.5379725	h i ˧	-0.32039517
-0.23614444	s i ˧	-0.48916042
-0.36651266	kʰ i ˧	-0.3707949
-0.53431654	l i ˧	-0.3776904
-0.2005736	p i ˧	-1.0760404
-0.26417312	ʑ i ˧	-0.6568804
-0.24234897	q i ˧	-0.22391927
-0.49482152	dz i ˧	-0.26490173
-0.45344633	ts i ˧	-0.32967702
-0.3494613	ɬ i ˧	-0.7428402
-0.5730233	d i ˧	-0.55666304
-0.47610012	ɲ i ˧	-0.5442633
-0.4003034	b i ˧	-0.5631702
-0.5814613	t i ˧	-0.22391924
-0.4851312	tɕʰ i ˧	-0.52095145
-0.34101915	tsʰ i ˧	-0.6980674
-0.48788732	tɕ i ˧	-0.32039517
-0.3803959	pʰ i ˧	-0.2880896
-0.45344633	ʈ i ˧	-0.23994528
-0.1809929	ɕ i ˧	-0.5177263
-0.62561923	g ɯ ˧	-0.25236523
-0.3686994	dʑ ɯ ˧	-0.48368376
-0.17792727	ʈʂʰ ɯ ˧	-1.1532435
-0.34825438	z ɯ ˧	-0.46692824
-0.2074652	k ɯ ˧	-0.39410102
-0.45035326	h ɯ ˧	-0.60626954
-0.4184846	s ɯ ˧	-0.6160354
-0.48797095	kʰ ɯ ˧	-0.3091691
-0.31772423	ʐ ɯ ˧	-0.4376505
-0.8896631	ɳ ɯ ˧	-0.65990436
-0.2938192	dz ɯ ˧	-0.5517838
-0.5056179	ts ɯ ˧	-0.29621866
-0.35615185	ʂ ɯ ˧	-0.6640807
-0.34045082	ɖ ɯ ˧	-1.1507446
-0.41024524	tɕʰ ɯ ˧	-0.25828502
-0.60365367	tsʰ ɯ ˧	-0.34950915
-0.5423286	tɕ ɯ ˧	-0.4974855
-0.64371276	ʈʂ ɯ ˧	-0.22391927
-0.40219697	ɣ ɯ ˧	-0.332962
-0.65680426	ʈʰ ɯ ˧	-0.24911095
-0.5649883	ɭ ɯ ˧	-0.671432
-0.66263676	ɖʐ ɯ ˧	-0.262498
-0.62316024	tʰ o ˧	-0.25450325
-0.38808843	g o ˧	-1.0326545
-0.57450247	dʑ o ˧	-0.8530634
-0.32121974	ʈʂʰ o ˧	-0.4028552
-0.485043	z o ˧	-0.7041082
-0.3431138	n o ˧	-0.68511796
-0.5517271	m o ˧	-0.53821933
-0.20675804	k o ˧	-0.24267475
-0.3710061	h o ˧	-0.71858037
-0.5184435	s o ˧	-0.48815113
-0.32237142	l o ˧	-0.44345778
-0.5753177	p o ˧	-0.8366936
-0.4682583	qʰ o ˧	-0.25658536
-0.6748101	q o ˧	-0.78160876
-0.13701084	dz o ˧	-0.307877
-0.4028303	ts o ˧	-0.7352099
-0.49215215	ʂ o ˧	-0.25450325
-0.16472434	ɬ o ˧	-0.75225204
-0.5559837	d o ˧	-0.35877085
-0.6962427	b o ˧	-0.246525
-0.57447445	ɖ o ˧	-0.28942072
-0.287581	ʁ o ˧	-0.66080993
-0.73682857	t o ˧	-0.22391927
-0.46899873	tɕʰ o ˧	-0.3002262
-0.94466215	w o ˧	-0.34109336
-0.34669572	tsʰ o ˧	-0.47166282
-0.5715122	tɕ o ˧	-0.37123835
-0.8124881	pʰ o ˧	-0.24911095
-0.2700926	ʈʂ o ˧	-0.3002262
-0.32121974	ɖʐ o ˧	-0.26227686
-1.8231163	˧ z ˧	-0.22391927
-0.6994684	<SIL> v̩ ˧	-0.22391927
-0.2949765	tʰ v̩ ˧	-0.75394124
-0.6105771	˩˥ v̩ ˧	-0.22391927
-0.5269444	g v̩ ˧	-0.42369324
-0.7227422	˩ v̩ ˧	-0.2828057
-0.7074871	˥ v̩ ˧	-0.22391927
-0.38646972	ʈʂʰ v̩ ˧	-0.2828057
-0.33950812	˧ v̩ ˧	-0.76441014
-0.45341653	n v̩ ˧	-0.25740206
-0.46169648	m v̩ ˧	-0.5185243
-0.4822995	k v̩ ˧	-0.53367245
-0.40181437	kʰ v̩ ˧	-0.5101421
-0.44464165	ʐ v̩ ˧	-0.38858098
-0.33565295	ɳ v̩ ˧	-0.26240325
-0.44491872	l v̩ ˧	-0.25740206
-0.4650975	p v̩ ˧	-0.35515726
-0.39875042	qʰ v̩ ˧	-0.34789935
-0.14707729	q v̩ ˧	-0.953409
-0.31714132	ʂ v̩ ˧	-0.42612094
-0.2189171	ɬ v̩ ˧	-0.22391927
-0.7227422	d v̩ ˧	-0.22391927
-0.4516211	b v̩ ˧	-0.33883977
-0.4159665	ɖ v̩ ˧	-0.35431206
-0.2941186	t v̩ ˧	-0.29090464
-0.40532783	pʰ v̩ ˧	-0.46972388
-0.2189171	˧˥ v̩ ˧	-0.22391927
-0.5651467	ʈʂ v̩ ˧	-0.22391927
-0.6032631	ʈ v̩ ˧	-0.22391927
-0.50030154	ŋ v̩ ˧	-0.25571662
-0.2189171	ʈʰ v̩ ˧	-0.22391927
-0.37548286	f v̩ ˧	-0.26227686
-0.24966028	mmm… v̩ ˧	-0.22391927
-0.2189171	v v̩ ˧	-0.22391927
-0.10713175	ɖʐ v̩ ˧	-0.35749412
-0.19342013	<SIL> ĩ ˧	-0.24278039
-0.19342013	˩˥ ĩ ˧	-0.22391927
-0.3029484	˩ ĩ ˧	-0.27615863
-0.18927927	˧ ĩ ˧	-0.22391927
-0.24940585	h ĩ ˧	-0.9596766
-0.19342013	˧˥ ĩ ˧	-0.22391927
-0.11067273	n jæ ˧	-1.0543098
-0.23010519	s jæ ˧	-0.22391927
-0.32227945	<SIL> ə ˧	-1.1713469
-0.2931812	˩˥ ə ˧	-0.78862804
-0.27465552	˩ ə ˧	-0.9137332
-0.17669204	˥ ə ˧	-0.7125069
-0.1981906	dʑ ə ˧	-0.22391927
-0.23656069	˧ ə ˧	-0.9554815
-0.1981906	m ə ˧	-0.22391927
-0.1981906	h ə ˧	-0.22391927
-0.11685074	əəə… ə ˧	-0.32028094
-0.1981906	ɑ ə ˧	-0.22391927
-0.1981906	ɬ ə ˧	-0.22391927
-0.1981906	b ə ˧	-0.22391927
-0.1981906	w ə ˧	-0.22391927
-0.122535	˧˥ ə ˧	-0.3590014
-0.1981906	õ ə ˧	-0.22391927
-0.1981906	jɤ ə ˧	-0.22391927
-0.23123455	mmm… ə ˧	-0.25236523
-0.518539	ʈʂʰ wæ ˧	-0.3375977
-0.20665076	k wæ ˧	-0.22391927
-0.38766682	h wæ ˧	-0.394101
-0.34251228	ʐ wæ ˧	-0.6663591
-0.40038687	ɻ wæ ˧	-0.25236523
-0.37784395	qʰ wæ ˧	-0.22391927
-0.7001523	q wæ ˧	-0.22391927
-0.19627383	ʂ wæ ˧	-0.51230794
-0.87666583	ɖ wæ ˧	-0.22391927
-0.21127248	ʁ wæ ˧	-0.22391927
-0.522563	ʈʂ wæ ˧	-0.22391927
-0.4039927	ʈ wæ ˧	-0.22391927
-0.21127248	ŋ wæ ˧	-0.2828057
-0.4039927	ɖʐ wæ ˧	-0.22391927
-1.2087831	˧ ɻ ˧	-0.22391927
-0.20811749	<SIL> æ ˧	-0.8908869
-0.3730886	tʰ æ ˧	-0.70212734
-0.1419719	˩˥ æ ˧	-0.4711027
-0.45878595	g æ ˧	-0.2828057
-0.22800514	˩ æ ˧	-0.60516983
-0.22800514	˥ æ ˧	-0.5771886
-0.45206106	ʈʂʰ æ ˧	-0.56190276
-0.17942259	˧ æ ˧	-0.73961926
-0.4602655	m æ ˧	-0.5217568
-0.19590262	k æ ˧	-0.2828057
-0.1376015	h æ ˧	-0.41755038
-0.19169605	s æ ˧	-0.22391927
-0.19169605	əəə… æ ˧	-0.26227686
-0.73603106	ʐ æ ˧	-0.22391927
-0.68002266	ɻ æ ˧	-0.25948456
-0.19590262	æ æ ˧	-0.22391927
-0.42573866	ɳ æ ˧	-0.25355172
-0.46449205	l æ ˧	-0.22391927
-0.41154787	p æ ˧	-0.33312857
-0.3825597	qʰ æ ˧	-0.25688222
-0.32556695	q æ ˧	-0.46025747
-0.46732908	ts æ ˧	-0.40109736
-0.38007316	ʂ æ ˧	-0.6210492
-0.43244195	b æ ˧	-0.40261483
-0.8909331	ɖ æ ˧	-0.22391927
-0.18715084	ʁ æ ˧	-0.480061
-0.19169605	t æ ˧	-0.40109736
-0.4274944	tɕ æ ˧	-0.26227686
-0.29342598	pʰ æ ˧	-0.40375355
-0.44938117	ʈʂ æ ˧	-0.34009892
-0.233569	ʈ æ ˧	-0.9826573
-0.19590262	ŋ æ ˧	-0.22391927
-0.4431883	ʈʰ æ ˧	-0.52430725
-0.19169605	f æ ˧	-0.2828057
-0.19169605	mmm… æ ˧	-0.2828057
-0.19590262	ɑ̃ æ ˧	-0.22391927
-0.380269	ɖʐ æ ˧	-0.22391927
-0.730922	z e ˧	-0.50296146
-0.58359945	n e ˧	-1.8188457
-0.4162075	k e ˧	-0.22391927
-0.43414572	s e ˧	-0.27852145
-0.21907017	kʰ e ˧	-0.22391927
-0.112491645	ʐ e ˧	-0.38908896
-0.22242625	l e ˧	-1.1564734
-0.10718062	dz e ˧	-0.39410102
-0.53252685	ts e ˧	-0.5035421
-0.25492123	ʂ e ˧	-0.53457165
-0.36564025	tsʰ e ˧	-0.36358112
-0.12490381	ʈʂ e ˧	-0.26916227
-0.5111338	j e ˧	-0.22391927
-0.07167025	ɖʐ e ˧	-0.26234487
-0.57463133	g ɤ ˧	-0.38968444
-0.9256466	dʑ ɤ ˧	-0.22391927
-0.32316062	ʈʂʰ ɤ ˧	-0.43858925
-0.2420963	m ɤ ˧	-0.95741934
-0.3844335	k ɤ ˧	-0.48704472
-0.7898553	h ɤ ˧	-0.22391927
-0.22041929	s ɤ ˧	-0.22391927
-0.37121615	kʰ ɤ ˧	-0.43243918
-0.4919476	ʐ ɤ ˧	-0.23633248
-0.72972184	p ɤ ˧	-0.4971771
-0.42380208	dz ɤ ˧	-0.24267475
-0.37590128	ts ɤ ˧	-0.48389983
-0.42627385	d ɤ ˧	-0.2828057
-0.52355015	b ɤ ˧	-0.5464436
-0.152696	tɕʰ ɤ ˧	-0.382977
-0.6328118	tsʰ ɤ ˧	-0.25318623
-0.53838444	tɕ ɤ ˧	-0.2504958
-0.19092698	pʰ ɤ ˧	-0.359408
-0.47836208	ʈʂ ɤ ˧	-0.29651472
-0.24977487	ʈ ɤ ˧	-0.27635863
-0.22543655	ŋ ɤ ˧	-0.26227686
-0.6171085	ʈʰ ɤ ˧	-0.26227686
-0.48446345	ɖʐ ɤ ˧	-0.26685497
-0.97759545	<SIL> ɑ ˧	-0.22391927
-0.4749861	tʰ ɑ ˧	-0.3917267
-0.8478544	˩ ɑ ˧	-0.2828057
-0.67656773	n ɑ ˧	-0.34070188
-0.4626822	m ɑ ˧	-0.42016992
-0.26172742	h ɑ ˧	-0.5841546
-0.23025528	s ɑ ˧	-0.40621513
-0.4309829	l ɑ ˧	-0.561455
-0.34249905	qʰ ɑ ˧	-0.359408
-0.5208771	q ɑ ˧	-0.32155353
-0.4395024	dz ɑ ˧	-0.3586321
-0.51414275	ts ɑ ˧	-0.49800742
-0.18421686	ɬ ɑ ˧	-0.70212734
-0.38825965	d ɑ ˧	-0.55560064
-0.7037962	b ɑ ˧	-0.40109736
-0.5108057	ʁ ɑ ˧	-0.7764305
-0.53326833	t ɑ ˧	-0.2538913
-0.5216831	tsʰ ɑ ˧	-0.22391927
-0.46609777	j ɑ ˧	-0.22391927
-0.9953793	<SIL> wɤ ˧	-0.22391927
-0.6185312	ʈʂʰ wɤ ˧	-0.22391927
-0.59723383	˧ wɤ ˧	-0.23755471
-0.5178188	k wɤ ˧	-0.9335007
-0.23583904	h wɤ ˧	-0.5870969
-0.265025	kʰ wɤ ˧	-0.36648506
-0.7252315	ʐ wɤ ˧	-0.25450325
-0.6734952	qʰ wɤ ˧	-0.54147065
-0.265025	q wɤ ˧	-0.33610907
-0.24565119	ʂ wɤ ˧	-0.22391927
-0.15801759	ʁ wɤ ˧	-0.53052866
-0.24004743	ʈʂ wɤ ˧	-0.22391927
-0.24004743	ʈ wɤ ˧	-0.22391927
-0.35966855	ŋ wɤ ˧	-0.52573943
-0.33712208	jɤ w ˧	-0.22391927
-0.49021673	<SIL> õ ˧	-0.7826075
-0.20973314	˩˥ õ ˧	-0.25740206
-0.25668922	ɯ õ ˧	-0.22391927
-0.3384759	˩ õ ˧	-0.3727904
-0.4612317	˥ õ ˧	-0.22391927
-0.25668922	ʈʂʰ õ ˧	-0.22391927
-0.2685065	˧ õ ˧	-0.47962618
-0.25668922	n õ ˧	-0.22391927
-0.5951735	h õ ˧	-0.27640152
-0.25668922	ĩ õ ˧	-0.22391927
-0.2507538	əəə… õ ˧	-0.22391927
-0.47207493	˧˥ õ ˧	-0.22391927
-0.65119755	õ õ ˧	-0.22391927
-0.24270697	<SIL> jo ˧	-0.246525
-0.21518996	˩˥ jo ˧	-0.22391927
-0.48934883	˩ jo ˧	-0.25450325
-0.40800148	˥ jo ˧	-0.2828057
-0.5005805	˧ jo ˧	-0.26916227
-0.5726068	<SIL> jɤ ˧	-0.25236523
-0.5165687	˩ jɤ ˧	-0.37194976
-0.23535302	o jɤ ˧	-0.22391927
-0.67688465	˧ jɤ ˧	-0.22391927
-0.2928385	n jɤ ˧	-0.69280493
-0.23535302	əəə… jɤ ˧	-0.22391927
-0.6000848	l jɤ ˧	-0.25740206
-0.23005137	t jɤ ˧	-0.26916227
-0.44212824	˧˥ jɤ ˧	-0.22391927
-0.6390537	ɕ jɤ ˧	-0.22391927
-0.23535302	mmm… jɤ ˧	-0.22391927
-0.23535302	ə̃ jɤ ˧	-0.22391927
-0.7570107	<SIL> æ̃ ˧	-0.22391927
-0.7045118	˩ æ̃ ˧	-0.22391927
-0.62376684	h æ̃ ˧	-0.25872615
-0.4120795	æ æ̃ ˧	-0.3793036
-1.1013027	˩ ɻ̍ ˧	-0.27615863
-0.52113426	ʈʂʰ ɻ̍ ˧	-0.24267475
-0.5018816	˧ ɻ̍ ˧	-0.47955912
-0.9762168	h ṽ ˧	-0.26240325
-0.92864364	h ɑ̃ ˧	-0.22391927
-0.71636146	h ṽ̩ ˧	-0.23790939
-0.31881362	wæ j ˧	-0.22391927
-0.13754806	j ẽ ˧	-0.22391927
-0.13754806	˧ w̃æ ˧	-0.22391927
-0.2850144	ʂ ɻ̩ ˧	-0.22391927
-0.4680019	h wɑ ˧	-0.22391927
-0.2454725	ʈʂ wɑ ˧	-0.22391927
-0.22495484	j ɛ ˧	-0.22391927
-0.22495484	˧ ɻ̃ ˧	-0.262498
-0.16487661	h u ˧	-0.40109736
-1.4330168	<s> <SIL> z	-1.2772827
-1.7058005	˩˥ <SIL> z	-0.5693301
-1.6701975	˩ <SIL> z	-1.0221658
-1.6226491	˥ <SIL> z	-0.42320198
-1.7453651	˧ <SIL> z	-0.779033
-0.80097795	k <SIL> z	-0.22391927
-1.6353981	əəə… <SIL> z	-0.5771886
-1.7001915	˧˥ <SIL> z	-0.27615863
-1.545628	mmm… <SIL> z	-0.22391927
-1.9218448	i ˩˥ z	-0.695131
-1.8161386	o ˩˥ z	-0.22391927
-1.4191862	v̩ ˩˥ z	-0.26227686
-1.4998789	ɤ ˩˥ z	-0.22391927
-0.80442494	ɑ̃ ˩˥ z	-0.22391927
-1.536464	i ˩ z	-1.4832841
-1.4412417	ɯ ˩ z	-0.9767809
-1.5255007	o ˩ z	-1.2427459
-1.5369643	v̩ ˩ z	-1.3826139
-1.571081	ĩ ˩ z	-0.27615863
-1.0686995	ə ˩ z	-0.75327986
-1.3128252	wæ ˩ z	-0.5798353
-1.2859408	æ ˩ z	-0.46459466
-1.501312	e ˩ z	-0.75327986
-1.8616067	ɤ ˩ z	-0.563528
-1.551342	ɑ ˩ z	-0.34310544
-1.4972169	wɤ ˩ z	-0.563528
-1.5765738	õ ˩ z	-0.22391927
-1.6451423	ɻ̍ ˩ z	-0.26227686
-1.3176814	i ˥ z	-1.3774445
-1.377828	ɯ ˥ z	-0.61195076
-1.4894197	o ˥ z	-0.5508122
-1.7248799	v̩ ˥ z	-0.5701923
-1.7304419	æ ˥ z	-0.70212734
-1.3201371	e ˥ z	-0.25450325
-1.7211016	ɤ ˥ z	-0.22391927
-1.7865674	ɑ ˥ z	-0.22391927
-1.4052135	ɻ̍ ˥ z	-0.22391927
-1.6916442	z o z	-0.22391927
-1.6903036	n o z	-0.22391927
-1.6192582	i ˧ z	-1.5055361
-1.4676371	ɯ ˧ z	-1.1143079
-1.4523522	o ˧ z	-1.049604
-1.3403676	v̩ ˧ z	-1.1071147
-1.6757879	ĩ ˧ z	-0.2788053
-0.9923505	jæ ˧ z	-0.27615863
-1.2601233	ə ˧ z	-1.2461954
-1.1839411	wæ ˧ z	-0.33610907
-1.745618	æ ˧ z	-0.45224988
-1.7056625	e ˧ z	-0.262498
-1.4037865	ɤ ˧ z	-0.97512865
-1.5256234	ɑ ˧ z	-0.40080068
-1.7108831	wɤ ˧ z	-0.40109736
-1.2045845	õ ˧ z	-0.2828057
-1.7540162	jɤ ˧ z	-0.8404301
-1.4616665	ɻ̍ ˧ z	-0.22391927
-0.63083386	ɻ̃ ˧ z	-0.27615863
-1.2017498	<SIL> əəə… z	-0.91571045
-1.3260605	˩˥ əəə… z	-0.22391927
-1.0329784	˩ əəə… z	-0.49800742
-1.3494676	˥ əəə… z	-0.2828057
-0.75899714	əəə… əəə… z	-0.22391927
-0.32979938	ʂ əəə… z	-0.22391927
-0.32979938	ɖ əəə… z	-0.22391927
-0.32979938	tɕ əəə… z	-0.22391927
-1.2577697	ə ə z	-0.22391927
-1.4915963	<SIL> ts z	-0.22391927
-1.6270012	i ˧˥ z	-0.2788053
-1.3433846	ɯ ˧˥ z	-0.27615863
-1.8044412	v̩ ˧˥ z	-0.2828057
-1.5494667	wæ ˧˥ z	-0.22391927
-1.6977987	ɑ ˧˥ z	-0.22391927
-1.173747	ɑ̃ ˧˥ z	-0.22391927
-1.1878548	<SIL> mmm… z	-0.26227686
-1.1901969	˩˥ mmm… z	-0.22391927
-1.1220784	˩ mmm… z	-0.2828057
-0.6002724	g v z	-0.22391927
-0.7505844	b v z	-0.22391927
-1.2833954	<s> <SIL> n	-1.05431
-1.6646326	˩˥ <SIL> n	-0.4487376
-0.90519196	ɯ <SIL> n	-0.22391927
-1.4615948	˩ <SIL> n	-0.6317423
-1.4538245	˥ <SIL> n	-0.6130654
-0.99026644	o <SIL> n	-0.22391927
-1.5528756	˧ <SIL> n	-0.68016934
-0.79285693	k <SIL> n	-0.22391927
-1.7279187	əəə… <SIL> n	-0.22391927
-1.6626772	˧˥ <SIL> n	-0.22391927
-1.5038145	mmm… <SIL> n	-0.22391927
-1.4205345	i ˩˥ n	-0.70205146
-1.7106625	ɯ ˩˥ n	-0.22391927
-1.558974	o ˩˥ n	-0.26227686
-1.3771219	v̩ ˩˥ n	-0.2828057
-1.2851626	ĩ ˩˥ n	-0.22391927
-1.4369011	ɤ ˩˥ n	-0.22391927
-1.7965304	wɤ ˩˥ n	-0.22391927
-1.7129506	<SIL> g n	-0.22391927
-1.4367124	i ˩ n	-0.59055454
-1.5590228	ɯ ˩ n	-0.68623334
-1.6692449	o ˩ n	-1.4466028
-1.6529982	v̩ ˩ n	-0.44649228
-1.5532681	ĩ ˩ n	-0.25236523
-1.5067321	wæ ˩ n	-0.22391927
-1.8731891	æ ˩ n	-0.43118274
-1.7780383	e ˩ n	-0.48292527
-1.5495714	ɤ ˩ n	-0.27037233
-1.6762532	ɑ ˩ n	-0.92512316
-1.7998048	wɤ ˩ n	-0.2828057
-1.5590293	õ ˩ n	-0.22391927
-1.577664	jɤ ˩ n	-0.22391927
-1.4586668	æ̃ ˩ n	-0.22391927
-1.625005	ɻ̍ ˩ n	-0.22391927
-1.4960034	i ˥ n	-0.32039517
-1.7268593	ɯ ˥ n	-0.26227686
-1.6374278	o ˥ n	-0.5358878
-1.6876633	v̩ ˥ n	-0.262498
-1.4440229	ĩ ˥ n	-0.22391927
-1.6727209	æ ˥ n	-0.22391927
-1.4808502	e ˥ n	-0.25236523
-1.6633008	ɤ ˥ n	-0.22391927
-1.3988949	ɑ ˥ n	-0.24267475
-1.5696077	wɤ ˥ n	-0.22391927
-1.3719546	ɻ̍ ˥ n	-0.22391927
-1.0397501	<SIL> o n	-0.22391927
-1.6259573	i ˧ n	-0.8920418
-1.5110285	ɯ ˧ n	-1.5461694
-1.8704396	o ˧ n	-0.60066974
-1.7424098	v̩ ˧ n	-0.5416193
-1.7043729	ĩ ˧ n	-0.26916227
-1.8072919	wæ ˧ n	-0.22391927
-1.6593938	æ ˧ n	-0.46459466
-1.8650608	e ˧ n	-0.26227686
-2.0644631	ɤ ˧ n	-0.22391927
-1.4541494	ɑ ˧ n	-0.50109166
-1.7344952	wɤ ˧ n	-0.22391927
-1.7837257	jɤ ˧ n	-0.22391927
-1.0673454	ɑ̃ ˧ n	-0.22391927
-1.1241063	ṽ̩ ˧ n	-0.22391927
-0.63353896	ɛ ˧ n	-0.22391927
-1.6429863	<SIL> n n	-0.22391927
-1.770347	˩ n n	-0.22391927
-0.8758702	n n n	-0.22391927
-0.8758702	mmm… n n	-0.22391927
-1.5397397	<SIL> əəə… n	-0.26240325
-1.0911517	˩ əəə… n	-0.27037233
-1.2941985	˥ əəə… n	-0.22391927
-1.3858757	˧ əəə… n	-0.26227686
-0.34774858	t e n	-0.22391927
-1.6386087	˩ ʁ n	-0.22391927
-1.8398736	i ˧˥ n	-0.22391927
-1.629077	o ˧˥ n	-0.22391927
-1.7310526	ɤ ˧˥ n	-0.22391927
-1.5394887	ɑ ˧˥ n	-0.22391927
-1.4152924	jɤ ˧˥ n	-0.40109736
-0.33963254	g õ n	-0.27615863
-1.5166411	˩ jɤ n	-0.22391927
-1.5504961	<SIL> mmm… n	-0.22391927
-1.1856447	˩˥ mmm… n	-0.22391927
-1.1558145	˧ mmm… n	-0.22391927
-1.4054148	<s> <SIL> m	-0.82479537
-1.3049649	˩˥ <SIL> m	-0.61468047
-1.4677641	˩ <SIL> m	-1.3102543
-1.3529685	˥ <SIL> m	-0.90411115
-1.4370668	˧ <SIL> m	-1.025974
-1.6099427	əəə… <SIL> m	-0.26227686
-0.6322189	ɑ <SIL> m	-0.22391927
-1.439795	˧˥ <SIL> m	-0.3774445
-1.314682	mmm… <SIL> m	-0.2828057
-1.0637703	v <SIL> m	-0.22391927
-1.7093005	i ˩˥ m	-0.7288823
-1.491768	ɯ ˩˥ m	-0.26227686
-1.5115988	o ˩˥ m	-0.2828057
-1.198267	v̩ ˩˥ m	-0.55236506
-1.2476342	ĩ ˩˥ m	-0.27615863
-1.3239427	æ ˩˥ m	-0.22391927
-1.3865633	ɤ ˩˥ m	-0.40109736
-1.2588836	ɑ ˩˥ m	-0.22391927
-1.3397706	wɤ ˩˥ m	-0.27388853
-1.4726045	i ˩ m	-1.1374938
-1.2929248	ɯ ˩ m	-1.5271819
-1.4504517	o ˩ m	-0.9493966
-1.4434147	v̩ ˩ m	-1.3381135
-1.5822744	ĩ ˩ m	-0.61468047
-1.697839	ə ˩ m	-0.22391927
-1.5274717	wæ ˩ m	-0.8102842
-1.6100507	æ ˩ m	-0.82114196
-1.5076693	e ˩ m	-1.2764003
-1.4581366	ɤ ˩ m	-0.621228
-1.2944188	ɑ ˩ m	-1.122884
-1.5025799	wɤ ˩ m	-0.75327986
-1.4752151	ɻ̍ ˩ m	-0.359408
-1.4039254	i ˥ m	-0.96339023
-1.316231	ɯ ˥ m	-0.8501899
-1.6670637	o ˥ m	-0.43118274
-1.3881636	v̩ ˥ m	-0.71364236
-1.4795419	ĩ ˥ m	-0.25450325
-1.5546265	æ ˥ m	-0.27615863
-1.3175406	e ˥ m	-0.7395245
-1.349771	ɤ ˥ m	-0.26227686
-1.2641472	ɑ ˥ m	-0.65347445
-1.3671468	i ˧ m	-1.309951
-1.4702572	ɯ ˧ m	-0.9602428
-1.4227195	o ˧ m	-1.3956345
-1.3144172	v̩ ˧ m	-0.6682691
-1.6878389	ĩ ˧ m	-0.85184216
-0.96929705	ə ˧ m	-1.7335358
-1.0972536	wæ ˧ m	-0.46459466
-1.2670531	æ ˧ m	-0.5976948
-1.5921856	e ˧ m	-0.7284563
-1.6573825	ɤ ˧ m	-0.40109736
-1.2686309	ɑ ˧ m	-0.7019098
-1.2186894	wɤ ˧ m	-0.70212734
-1.766532	jɤ ˧ m	-0.45862323
-1.4695342	ɻ̍ ˧ m	-0.22391927
-0.90944046	ṽ ˧ m	-0.27615863
-0.3432541	u ˧ m	-0.40109736
-1.9211011	˧ n m	-0.22391927
-1.4812696	<SIL> m m	-0.49800742
-1.820773	˩ m m	-0.22391927
-0.70447993	m m m	-0.33368447
-1.4222636	<SIL> əəə… m	-0.25450325
-1.1882751	˩˥ əəə… m	-0.27615863
-1.517644	˩ əəə… m	-0.22391927
-1.3804753	˥ əəə… m	-0.22391927
-1.4602561	˧ əəə… m	-0.22391927
-0.33286417	d əəə… m	-0.22391927
-1.2475306	˧˥ əəə… m	-0.22391927
-1.6019217	m ɤ m	-0.22391927
-1.8401773	˧ q m	-0.22391927
-1.8371469	˩ b m	-0.22391927
-1.3398969	i ˧˥ m	-0.45224988
-1.2589118	ɯ ˧˥ m	-0.660438
-1.4709821	o ˧˥ m	-0.22391927
-1.4988768	v̩ ˧˥ m	-0.6740987
-1.2423148	wæ ˧˥ m	-0.22391927
-1.4246656	æ ˧˥ m	-0.262498
-1.3878812	ɤ ˧˥ m	-0.262498
-1.3917166	ɑ ˧˥ m	-0.26227686
-1.0610607	wɤ ˧˥ m	-0.22391927
-1.10229	ɑ̃ ˧˥ m	-0.22391927
-0.33293253	wɑ ˧˥ m	-0.22391927
-0.3311442	e jo m	-0.22391927
-1.3542203	<SIL> mmm… m	-0.22391927
-1.0839314	˩˥ mmm… m	-0.22391927
-1.2033312	˩ mmm… m	-0.22391927
-0.8447773	˧ mmm… m	-0.2828057
-0.84275854	˧˥ mmm… m	-0.22391927
-0.84904253	m v m	-0.22391927
