\data\
ngram 1=69
ngram 2=1141
ngram 3=11143
ngram 4=53803

\1-grams:
-2.8094087	<unk>	0
0	<s>	-4.247316
-2.7344584	</s>	0
-1.4957517	<SIL>	-1.004653
-1.5884027	s	-0.93355215
-1.5202695	t	-0.8986429
-1.5202695	u	-1.047963
-1.5598546	k	-1.0343353
-1.409548	ɯ	-1.2102585
-1.6692506	w	-0.7859576
-1.7261363	x	-0.7742193
-1.4505146	i	-1.1359795
-1.5738941	c	-0.95046985
-1.7468839	h	-0.7680519
-1.483993	o	-1.0619929
-1.5330678	n	-0.7806059
-1.687397	d	-0.9354018
-1.5202695	ɤ	-1.0219898
-1.5078375	r	-0.93267816
-1.5202695	e	-0.9672809
-1.5884027	p	-1.0167123
-1.4505146	a	-1.2382687
-1.5462546	l	-0.78505313
-1.6350853	m	-0.81098294
-1.6692506	ʑ	-0.79188246
-1.5738941	j	-0.81121933
-1.603413	ɕ	-0.89764416
-1.6692506	q	-0.87036073
-1.7261363	ʁ	-0.65334326
-1.8978305	ɬ	-0.77036506
-1.6518321	ɲ	-0.8429639
-1.687397	ŋ	-0.61452526
-1.5738941	ɣ	-0.6840374
-1.8414823	β	-0.5477172
-1.706335	z	-0.75975674
-1.8158319	f	-0.77861214
-1.7686727	b	-0.7771402
-1.7261363	χ	-0.7178177
-1.7468839	g	-0.6089531
-1.8978305	ɟ	-0.65555465
-2.248651	́	-0.33625597
-1.8687432	y	-0.6305953
-2.5211978	v	-0.29697433
-2.3219843	ʂ	-0.3191915
-1.8687432	ɴ	-0.91278857
-2.4809895	ɢ	-0.3145845
-2.7344584	ʐ	-0.26912364
-2.7344584	6	-0.26912364
-2.4102674	0	-0.3477711
-2.7344584	7	-0.26912364
-2.7344584	ü	-0.26912364
-2.6705594	2	-0.26912364
-2.7344584	ə	-0.26912364
-2.6705594	B	-0.3180674
-2.6705594	ɡ	-0.3477711
-2.7344584	？	-0.26912364
-2.7344584	ʊ	-0.26912364
-2.7344584	T	-0.26912364
-2.7344584	；	-0.26912364
-2.4809895	4	-0.39317313
-2.7344584	3	-0.26912364
-2.7344584	，	-0.26912364
-2.4809895	1	-0.26912364
-2.7344584	5	-0.26912364
-2.4809895	ɛ	-0.26912364
-2.6705594	ɦ	-0.3180674
-2.7344584	A	-0.26912364
-2.7344584	̂	-0.26912364
-2.7344584	ʀ	-0.26912364

\2-grams:
-1.3214878	<SIL> </s>	0
-0.000023789857	<s> <SIL>	-2.6129498
-2.4058442	<SIL> <SIL>	-0.2962166
-2.0350065	s <SIL>	-0.2962166
-1.7960083	t <SIL>	-0.4381605
-1.2964233	u <SIL>	-0.9032841
-1.5677377	ɯ <SIL>	-0.8615804
-1.8218335	w <SIL>	-0.2962166
-1.3754747	i <SIL>	-0.9608313
-1.8201092	h <SIL>	-0.2962166
-1.286466	o <SIL>	-0.85589767
-1.5787557	n <SIL>	-0.43453348
-2.1631012	d <SIL>	-0.2962166
-1.5851417	ɤ <SIL>	-0.43054104
-1.7808306	r <SIL>	-0.4037475
-1.2743628	e <SIL>	-0.8159283
-2.296995	p <SIL>	-0.2962166
-1.3991768	a <SIL>	-1.0277021
-1.8058872	l <SIL>	-0.33306122
-1.7090136	m <SIL>	-0.42193025
-2.0935812	ʑ <SIL>	-0.2962166
-1.6144493	j <SIL>	-0.33339912
-1.8287393	ɕ <SIL>	-0.30852237
-1.8719162	ʁ <SIL>	-0.3305002
-2.0382218	ɲ <SIL>	-0.2962166
-1.6334133	ŋ <SIL>	-0.32274517
-1.753631	ɣ <SIL>	-0.328624
-1.5593797	β <SIL>	-0.28927985
-1.5827503	z <SIL>	-0.3976517
-1.9937067	b <SIL>	-0.2962166
-1.9241135	g <SIL>	-0.2962166
-1.8109008	ɟ <SIL>	-0.2962166
-1.829527	y <SIL>	-0.2962166
-1.0394427	0 <SIL>	-0.2962166
-0.96034515	ü <SIL>	-0.2962166
-0.31960335	？ <SIL>	-0.2962166
-0.6053282	1 <SIL>	-0.2962166
-0.31960335	5 <SIL>	-0.2962166
-1.5213956	<SIL> s	-0.6912228
-2.333624	s s	-0.2962166
-1.2043661	t s	-0.79981136
-1.4308531	u s	-0.5321659
-1.4534874	ɯ s	-0.9285097
-2.0947225	w s	-0.2962166
-1.1798567	x s	-0.3365882
-1.4538945	i s	-0.67805153
-1.4819949	o s	-0.4935098
-1.9031012	n s	-0.31111544
-1.3975587	ɤ s	-0.66221744
-1.6889515	r s	-0.3861624
-1.4808332	e s	-0.45222765
-2.351022	p s	-0.2962166
-1.4777083	a s	-0.73249644
-2.0421944	l s	-0.2962166
-1.8127724	m s	-0.32766944
-1.8895314	j s	-0.29631642
-1.918389	ʁ s	-0.31958356
-1.8038841	ŋ s	-0.3192144
-1.9188516	ɣ s	-0.30095443
-1.7305548	β s	-0.30852237
-2.0507295	z s	-0.2962166
-0.8221886	f s	-0.6548469
-0.67610633	χ s	-0.65843546
-1.9829786	g s	-0.2962166
-1.6300156	́ s	-0.2962166
-1.8738363	y s	-0.2962166
-1.150238	v s	-0.2962166
-0.32260647	T s	-0.2962166
-1.3580569	<SIL> t	-0.98676234
-1.1182781	s t	-0.828265
-1.7352157	t t	-0.4887625
-1.3416306	u t	-0.78128314
-2.2875783	k t	-0.2962166
-1.4009092	ɯ t	-0.9294746
-1.7492355	w t	-0.2962166
-0.7497282	x t	-0.5816876
-1.3767982	i t	-0.7985351
-1.3317417	o t	-0.7463918
-1.189278	n t	-0.638655
-1.2888626	ɤ t	-0.842776
-1.4877725	r t	-0.56905055
-1.2921585	e t	-0.84845966
-2.3117576	p t	-0.2962166
-1.400281	a t	-0.90502334
-1.5599868	l t	-0.34475031
-1.2633778	m t	-0.63066685
-1.508711	j t	-0.44388568
-1.043056	ɕ t	-0.69800466
-2.0846524	q t	-0.2962166
-1.8846946	ʁ t	-0.33190137
-2.050323	ɲ t	-0.2962166
-1.7754061	ŋ t	-0.30502245
-1.6659032	ɣ t	-0.28406602
-1.5672708	β t	-0.299625
-1.6550548	z t	-0.44069946
-0.8200897	f t	-0.59235245
-2.0064254	b t	-0.2962166
-1.0183585	χ t	-0.5538256
-1.940134	g t	-0.2962166
-1.2768945	́ t	-0.3067429
-1.8417323	y t	-0.2962166
-0.9641003	ü t	-0.2962166
-0.88037586	2 t	-0.2962166
-2.4254549	<SIL> u	-0.2962166
-1.4284092	s u	-0.34649917
-1.1494027	t u	-0.8936599
-0.9263946	k u	-0.797366
-0.82377696	w u	-0.45748645
-0.99929917	x u	-0.49269664
-2.1649966	i u	-0.31896234
-1.0281404	c u	-0.4241266
-0.88063234	h u	-0.56965995
-1.8705121	o u	-0.33768144
-1.6406918	n u	-0.345919
-1.161366	d u	-0.3738528
-1.4301032	r u	-0.5338165
-1.1587027	p u	-0.5728744
-1.0529648	l u	-0.6875879
-1.2633778	m u	-0.60175323
-1.3998147	ʑ u	-0.32053283
-1.1591268	j u	-0.6866619
-1.3987151	ɕ u	-0.38143188
-1.0449218	q u	-0.40946925
-1.8846946	ʁ u	-0.3054131
-1.5278786	ɲ u	-0.33410135
-0.90010107	ŋ u	-0.7057289
-1.4620137	ɣ u	-0.42126346
-1.4783487	z u	-0.31762987
-1.2026129	f u	-0.31102592
-1.2796922	b u	-0.3115513
-1.4854121	χ u	-0.3067429
-0.8984122	g u	-0.43221164
-0.8413854	ɟ u	-0.40807536
-0.84496176	y u	-0.3937857
-1.3442415	ʂ u	-0.2962166
-1.2159891	ɢ u	-0.2962166
-1.0850008	ʐ u	-0.2962166
-0.27266604	B u	-0.27301398
-1.4526225	<SIL> k	-0.90221053
-1.2914283	s k	-0.575783
-1.743125	t k	-0.4347626
-1.3438818	u k	-0.94621474
-2.308534	k k	-0.2962166
-1.4392502	ɯ k	-1.0556817
-1.3787907	i k	-0.9694003
-2.1930816	c k	-0.2962166
-1.349666	o k	-0.8889613
-1.7162231	n k	-0.4288925
-1.4371666	ɤ k	-0.6976057
-1.5590938	r k	-0.5975102
-1.3292224	e k	-0.8108824
-1.3906868	a k	-1.1038654
-2.0286465	l k	-0.32118702
-1.4572835	m k	-0.487922
-1.9229722	ʑ k	-0.3342321
-1.56696	j k	-0.4628076
-1.2481554	ɕ k	-0.59752506
-1.904596	ʁ k	-0.3285933
-2.0691314	ɲ k	-0.2962166
-1.3938761	ŋ k	-0.3792544
-1.776565	ɣ k	-0.29645994
-1.5793827	β k	-0.3046076
-1.6641215	z k	-0.38489288
-0.94725823	f k	-0.519984
-1.9940387	χ k	-0.2962166
-1.9653304	g k	-0.2962166
-1.6152955	́ k	-0.2962166
-1.8607085	y k	-0.2962166
-0.6094753	1 k	-0.2962166
-0.6094753	ɛ k	-0.2962166
-1.3831401	<SIL> ɯ	-0.80424
-1.1541996	s ɯ	-0.7080816
-1.1121118	t ɯ	-0.82297647
-1.4359866	u ɯ	-0.6792691
-0.8388716	k ɯ	-0.93884706
-1.5780176	ɯ ɯ	-0.655614
-1.162187	w ɯ	-0.36189395
-1.100107	x ɯ	-0.4327148
-1.4119527	i ɯ	-0.7904438
-0.99181545	c ɯ	-0.49737868
-1.1669275	h ɯ	-0.49938077
-1.3901535	o ɯ	-0.5241908
-1.0075363	n ɯ	-0.97712654
-0.9543692	d ɯ	-0.44770265
-1.9195753	ɤ ɯ	-0.30642143
-1.1967325	r ɯ	-0.7278491
-1.3946548	e ɯ	-0.63185227
-0.999358	p ɯ	-0.77883047
-1.4679106	a ɯ	-0.77889276
-1.0083908	l ɯ	-0.4694975
-1.1630231	m ɯ	-0.732583
-0.982399	ʑ ɯ	-0.46476716
-1.1298287	j ɯ	-0.48106217
-1.1023031	ɕ ɯ	-0.5696665
-1.334329	q ɯ	-0.31607673
-1.4177762	ʁ ɯ	-0.30648354
-1.280477	ɬ ɯ	-0.27869946
-0.6402886	ɲ ɯ	-0.90158856
-1.2575494	ŋ ɯ	-0.32441837
-0.9776007	ɣ ɯ	-0.7068988
-1.6512713	β ɯ	-0.31487623
-1.1220306	z ɯ	-0.6073861
-1.9090165	f ɯ	-0.2962166
-1.0193207	b ɯ	-0.35140312
-1.3476788	χ ɯ	-0.3054131
-1.1198807	g ɯ	-0.31706762
-0.7846201	ɟ ɯ	-0.32053566
-1.5301408	́ ɯ	-0.2962166
-1.7838715	y ɯ	-0.2962166
-1.0083914	ʂ ɯ	-0.30438155
-1.1866692	ɢ ɯ	-0.2962166
-1.0607789	ʐ ɯ	-0.2962166
-0.86509705	2 ɯ	-0.2962166
-0.3824309	ɡ ɯ	-0.2962166
-0.3161964	； ɯ	-0.2962166
-1.5276958	<SIL> w	-0.6734928
-2.3842788	s w	-0.2962166
-2.1679327	t w	-0.31480852
-1.519467	u w	-0.6172042
-1.5286685	ɯ w	-0.6395769
-1.5681269	i w	-0.75013524
-1.8749185	h w	-0.3342321
-1.6143348	o w	-0.4461301
-1.9290966	n w	-0.29643288
-1.5715172	ɤ w	-0.52776
-1.8851678	r w	-0.35439393
-1.605635	e w	-0.53282887
-1.5554521	a w	-0.68083715
-1.7453223	l w	-0.33773905
-1.9390264	m w	-0.3756574
-1.803992	j w	-0.35140714
-1.9549191	ʁ w	-0.30852237
-1.8343614	ŋ w	-0.29643288
-2.0192015	ɣ w	-0.3342321
-2.026189	β w	-0.2962166
-1.4075705	z w	-0.53055173
-2.0305173	g w	-0.2962166
-1.1318456	́ w	-0.36132804
-0.3247644	ə w	-0.2962166
-0.3247644	̂ w	-0.2962166
-1.6759337	<SIL> x	-0.5529201
-2.4455264	t x	-0.2962166
-1.6588297	u x	-0.43426105
-1.531052	ɯ x	-0.8109156
-1.0441718	w x	-0.87507397
-1.7852907	x x	-0.2962166
-1.6649213	i x	-0.56868315
-1.8495023	o x	-0.3161742
-2.1584094	n x	-0.32118702
-1.4940908	ɤ x	-0.5305583
-2.3058589	r x	-0.2962166
-1.6857009	e x	-0.36208278
-1.7371913	a x	-0.56271374
-2.3045692	l x	-0.2962166
-2.1025999	m x	-0.32118702
-2.3457274	j x	-0.2962166
-2.1784525	ʁ x	-0.2962166
-1.928739	ŋ x	-0.2962166
-2.044637	ɣ x	-0.2962166
-1.8552842	β x	-0.2962166
-2.1147277	z x	-0.2962166
-2.061757	g x	-0.2962166
-1.612595	<SIL> i	-0.6734928
-1.2283826	s i	-0.6120234
-1.2742239	t i	-0.65608346
-1.6612478	u i	-0.37158036
-1.0068184	k i	-0.62106436
-1.9078947	ɯ i	-0.6709539
-1.3618271	w i	-0.36547652
-0.87166786	x i	-0.46565235
-1.8622005	i i	-0.64099073
-0.8396066	c i	-0.8155023
-1.2265047	h i	-0.47428665
-1.9739419	o i	-0.43468148
-1.1626656	n i	-0.5842421
-0.9559626	d i	-0.46552372
-2.2064412	ɤ i	-0.27869946
-1.154336	r i	-0.87481403
-1.6132956	e i	-0.34034297
-1.2773491	p i	-0.42501622
-1.6111878	a i	-0.43259686
-1.1359569	l i	-0.6103474
-1.339841	m i	-0.55349076
-1.1815492	ʑ i	-0.37192053
-1.1540682	j i	-0.6405905
-1.104749	ɕ i	-0.54055905
-0.96297157	q i	-0.39933747
-1.5719137	ʁ i	-0.30584136
-1.1548059	ɲ i	-0.32442054
-1.4409124	ŋ i	-0.33277315
-1.128457	ɣ i	-0.6820401
-1.7287982	β i	-0.2962166
-1.2784191	z i	-0.49691364
-1.021988	b i	-0.39434096
-1.9337198	χ i	-0.2962166
-1.6500545	g i	-0.32588547
-1.264906	ɟ i	-0.29637882
-0.7958636	y i	-0.43591505
-1.3206978	ʂ i	-0.2962166
-1.1981608	ɢ i	-0.2962166
-1.0703061	ʐ i	-0.2962166
-0.27061385	ɦ i	-0.32118702
-0.31789652	ʀ i	-0.2962166
-1.4336225	<SIL> c	-0.8141175
-1.4331934	s c	-0.53650457
-1.5878776	t c	-0.50376076
-1.3937811	u c	-0.73441124
-1.4940814	ɯ c	-0.87051237
-1.0018632	x c	-0.64099073
-1.4221311	i c	-0.8038066
-1.9370674	c c	-0.3342321
-2.080629	h c	-0.2962166
-1.4395123	o c	-0.7107985
-1.7195175	n c	-0.42137164
-1.5935754	ɤ c	-0.6088061
-1.3598789	r c	-0.65875524
-1.4548206	e c	-0.70149684
-2.34288	p c	-0.2962166
-1.4507501	a c	-0.8600637
-1.9702961	l c	-0.32118702
-1.7274582	m c	-0.4547907
-2.0824778	j c	-0.3342321
-2.273653	ɕ c	-0.2962166
-1.9114377	ʁ c	-0.32118702
-1.3102003	ɲ c	-0.40118793
-1.7980372	ŋ c	-0.32635808
-1.9123642	ɣ c	-0.2762537
-1.7247945	β c	-0.27301398
-1.8504367	z c	-0.33424562
-1.6169224	f c	-0.28214678
-1.0723052	χ c	-0.5269251
-1.974065	g c	-0.2962166
-1.375948	́ c	-0.3342321
-1.8672228	y c	-0.2962166
-1.896767	<SIL> h	-0.48413795
-1.3329141	s h	-0.7100632
-1.1931884	t h	-0.84528446
-1.9760132	u h	-0.27869946
-0.949979	k h	-0.9011748
-2.3104656	ɯ h	-0.3407939
-1.7862515	i h	-0.5740439
-0.714285	c h	-0.9570436
-2.0410206	o h	-0.28446034
-1.9510748	n h	-0.31480852
-2.5939631	ɤ h	-0.2962166
-2.3149416	r h	-0.2962166
-1.8946979	e h	-0.40319574
-1.0478039	p h	-0.7090315
-2.2382638	a h	-0.37563556
-2.1370852	ɕ h	-0.3028856
-0.6868994	q h	-0.734975
-2.1913962	ʁ h	-0.2962166
-1.4583023	z h	-0.76902056
-2.0726907	g h	-0.2962166
-1.4047147	ʂ h	-0.2962166
-2.2816625	<SIL> o	-0.32118702
-1.3858432	s o	-0.41556898
-1.131657	t o	-0.8193593
-1.7762265	u o	-0.417247
-0.94468313	k o	-0.6754866
-2.5996802	ɯ o	-0.2962166
-0.900725	w o	-0.5084603
-1.4693263	x o	-0.39795268
-2.016122	i o	-0.33773905
-0.9649344	c o	-0.42340234
-0.9678159	h o	-0.4457193
-2.4425817	o o	-0.2962166
-1.3389828	n o	-0.43503147
-0.93101263	d o	-0.46833348
-1.2706895	r o	-0.6517349
-2.3529744	e o	-0.2962166
-1.4503222	p o	-0.36669567
-1.7957857	a o	-0.4654557
-0.96147823	l o	-0.6353068
-1.7060142	m o	-0.30756328
-0.89176464	ʑ o	-0.8489566
-1.0959265	j o	-0.67451805
-1.1561612	ɕ o	-0.47811115
-1.4380203	q o	-0.2915614
-1.1626257	ʁ o	-0.45092088
-0.500192	ɬ o	-0.87507397
-1.1571536	ɲ o	-0.33418927
-1.0168296	ŋ o	-0.47664973
-1.404858	ɣ o	-0.40722474
-1.2822051	z o	-0.4189506
-0.90006447	b o	-0.42748815
-1.4787763	χ o	-0.2962166
-0.9607575	g o	-0.37874523
-1.0451822	ɟ o	-0.31315106
-1.0181884	y o	-0.57972944
-1.3323102	ʂ o	-0.2962166
-0.86960834	ɢ o	-0.2962166
-1.0775913	ʐ o	-0.2962166
-1.3757517	<SIL> n	-0.85818774
-1.3206772	s n	-0.54408073
-1.6282444	t n	-0.5147724
-1.3126062	u n	-0.6742852
-2.2944517	k n	-0.2962166
-1.4379623	ɯ n	-0.80871135
-1.8344162	w n	-0.32118702
-1.3911612	i n	-0.67930406
-1.7529296	h n	-0.2962166
-1.3025825	o n	-0.76453406
-1.6434585	n n	-0.46741366
-1.2895669	ɤ n	-0.68361425
-1.6347826	r n	-0.49740154
-1.2929634	e n	-0.6188454
-2.3193316	p n	-0.2962166
-1.400834	a n	-0.7806945
-1.9531463	l n	-0.31285277
-1.4160393	m n	-0.55941796
-1.4013608	ʑ n	-0.57972944
-1.464152	j n	-0.51393014
-1.3561809	ɕ n	-0.5763092
-1.1044362	ʁ n	-0.674341
-1.7809542	ŋ n	-0.2963346
-1.412938	ɣ n	-0.4177045
-1.5712706	β n	-0.31346154
-1.3545976	z n	-0.6376182
-1.979892	χ n	-0.2962166
-1.9483715	g n	-0.2962166
-1.1109601	́ n	-0.296402
-1.5889248	y n	-0.32118702
-1.1395118	v n	-0.2962166
-0.32088786	7 n	-0.2962166
-0.9659902	ü n	-0.2962166
-0.32088786	A n	-0.2962166
-1.7885795	<SIL> d	-0.4618421
-2.4195046	t d	-0.2962166
-1.6557333	u d	-0.31494913
-1.6352816	ɯ d	-0.6476228
-1.6371152	i d	-0.49740154
-1.8983248	o d	-0.30557877
-1.1785482	n d	-0.8448254
-1.603626	ɤ d	-0.43630728
-1.5721714	r d	-0.5832606
-1.6817385	e d	-0.41180965
-2.4033663	p d	-0.2962166
-1.815462	a d	-0.46802247
-1.2979839	l d	-0.47728354
-1.431647	m d	-0.49618343
-1.9662366	ʑ d	-0.3342321
-2.0655057	j d	-0.2962166
-1.3490744	ʁ d	-0.47793627
-1.8407222	ŋ d	-0.29637882
-1.6216563	ɣ d	-0.33064505
-1.0844703	β d	-0.53470725
-1.4092654	z d	-0.57972944
-2.05574	χ d	-0.2962166
-2.0406828	g d	-0.2962166
-1.1668411	v d	-0.2962166
-1.0797397	s ɤ	-0.7006584
-1.1494027	t ɤ	-0.803924
-0.9263946	k ɤ	-0.8065696
-2.053374	ɯ ɤ	-0.4704174
-1.1211028	w ɤ	-0.350286
-1.7372854	x ɤ	-0.3342321
-2.3731463	i ɤ	-0.31102592
-0.93813825	c ɤ	-0.48551178
-1.0410374	h ɤ	-0.42401037
-1.0595787	n ɤ	-0.8288154
-0.93214446	d ɤ	-0.5259075
-1.9507334	ɤ ɤ	-0.30972406
-1.2201195	r ɤ	-0.7026949
-1.1587027	p ɤ	-0.4635881
-2.6528091	a ɤ	-0.2962166
-1.1173412	l ɤ	-0.62130904
-1.1514785	m ɤ	-0.77023435
-1.2806163	ʑ ɤ	-0.36843362
-1.1175268	j ɤ	-0.64518595
-1.1326271	ɕ ɤ	-0.57093287
-1.199652	q ɤ	-0.38102627
-1.4404874	ʁ ɤ	-0.40319574
-0.70334613	ɬ ɤ	-0.59750617
-0.7033931	ɲ ɤ	-0.6987425
-1.0786308	ŋ ɤ	-0.44256425
-0.95039636	ɣ ɤ	-0.6636363
-1.4783487	z ɤ	-0.32860345
-0.9392344	b ɤ	-0.43023387
-1.3642215	χ ɤ	-0.29647616
-1.5248753	g ɤ	-0.2918509
-0.789774	ɟ ɤ	-0.29636636
-1.5941107	́ ɤ	-0.2962166
-1.3442415	ʂ ɤ	-0.2962166
-1.2159891	ɢ ɤ	-0.2962166
-1.0850008	ʐ ɤ	-0.2962166
-1.4691517	<SIL> r	-0.7078007
-1.3880054	s r	-0.5208826
-1.8774592	t r	-0.35333306
-1.3727347	u r	-0.6372929
-1.2849706	k r	-0.5040793
-1.4121039	ɯ r	-1.0100276
-1.4335487	i r	-0.6588889
-1.9189956	c r	-0.3342321
-1.583487	h r	-0.30766577
-1.3799118	o r	-0.5690503
-1.6379424	n r	-0.3797304
-1.5532819	d r	-0.28214678
-1.2881595	ɤ r	-0.8680668
-1.9265425	r r	-0.3714809
-1.3257331	e r	-0.49502108
-1.1581752	p r	-0.6723684
-1.4230319	a r	-0.8380381
-1.9420781	l r	-0.3285933
-1.7120337	m r	-0.3888412
-1.3982742	ʑ r	-0.38539812
-1.6168755	j r	-0.38876092
-1.8319994	ɕ r	-0.29643288
-1.0030485	q r	-0.56947637
-1.5066446	ʁ r	-0.35619265
-1.6374071	ŋ r	-0.30549592
-1.4597368	ɣ r	-0.37800527
-1.309162	β r	-0.37220785
-1.351613	z r	-0.70103866
-1.9579234	f r	-0.2962166
-1.0761636	b r	-0.40363815
-0.9288645	g r	-0.520264
-1.544818	ɟ r	-0.2962166
-1.2735871	́ r	-0.30438155
-1.5820632	y r	-0.32118702
-0.78364766	v r	-0.2962166
-1.2129664	ɢ r	-0.2962166
-2.1401615	<SIL> e	-0.31862438
-1.4716452	s e	-0.4013121
-1.4045483	t e	-0.4725663
-1.9976763	u e	-0.29638588
-1.2071956	k e	-0.44818625
-2.453615	ɯ e	-0.31480852
-1.1211028	w e	-0.6088061
-1.8341129	i e	-0.3633076
-1.9225503	c e	-0.2962166
-0.90831965	h e	-0.43388194
-2.470915	o e	-0.2962166
-1.5330867	n e	-0.33725253
-1.120244	d e	-0.39237785
-1.5197588	r e	-0.3664183
-2.0845833	e e	-0.36132804
-1.1587027	p e	-0.52796453
-2.473069	a e	-0.31480852
-1.2845535	l e	-0.41477787
-1.2151077	m e	-0.6784847
-1.4744577	ʑ e	-0.3342381
-1.3474433	j e	-0.445057
-1.1326271	ɕ e	-0.53097194
-1.345551	q e	-0.29164696
-1.3287773	ʁ e	-0.30111134
-1.7924585	ɲ e	-0.2962166
-1.7754061	ŋ e	-0.29476744
-1.2860506	ɣ e	-0.4397022
-1.7346056	z e	-0.34442016
-0.8996005	f e	-0.69898266
-1.076922	b e	-0.39320767
-1.7371116	χ e	-0.32118702
-1.0835778	g e	-0.36488968
-1.5477777	ɟ e	-0.30852237
-0.9540673	y e	-0.39244467
-1.0850008	ʐ e	-0.2962166
-1.4154189	<SIL> p	-0.7811694
-1.3580667	s p	-0.5369424
-1.899773	t p	-0.41883653
-1.450167	u p	-0.70472014
-2.323088	k p	-0.2962166
-1.4534874	ɯ p	-0.95923895
-2.0947225	w p	-0.2962166
-1.1798567	x p	-0.48241514
-1.4381038	i p	-0.7756985
-2.2065988	c p	-0.2962166
-1.3511448	o p	-0.6193333
-1.654705	n p	-0.35140714
-1.4391513	ɤ p	-0.6747216
-1.7409496	r p	-0.42837533
-1.4559919	e p	-0.5493306
-1.4387786	a p	-0.8897489
-1.8347806	l p	-0.31862438
-1.3542265	m p	-0.6525073
-1.4710534	j p	-0.43409494
-1.1891599	ɕ p	-0.5832396
-1.918389	ʁ p	-0.32270154
-1.662173	ŋ p	-0.31334978
-1.9188516	ɣ p	-0.28796002
-1.7305548	β p	-0.28061128
-1.6702727	z p	-0.39461625
-0.97654986	χ p	-0.5353316
-1.9829786	g p	-0.2962166
-1.29382	́ p	-0.32635808
-1.8738363	y p	-0.2962166
-0.32260647	， p	-0.2962166
-1.4851825	<SIL> a	-0.6368651
-1.1147977	s a	-0.6225025
-1.1615827	t a	-0.7515496
-1.4594444	u a	-0.5345529
-1.0806204	k a	-0.5314802
-1.7269466	ɯ a	-0.5039948
-0.96025276	w a	-0.54238963
-1.4452748	i a	-0.6890216
-0.9637554	c a	-0.40730283
-0.8043185	h a	-0.6032778
-1.5159006	o a	-0.43903923
-1.1626656	n a	-0.65435654
-0.9559626	d a	-0.4869575
-1.9317716	ɤ a	-0.3475962
-1.154336	r a	-0.8944863
-1.3583596	e a	-0.64248055
-0.9826156	p a	-0.78979194
-1.5274929	a a	-0.6236856
-0.9761654	l a	-0.63489527
-1.1274259	m a	-0.80830747
-0.9847663	ʑ a	-0.56715846
-1.0937325	j a	-0.6427182
-1.0820307	ɕ a	-0.50818837
-0.74238807	q a	-0.7107398
-1.2312739	ʁ a	-0.40039024
-0.54193294	ɬ a	-0.38570172
-0.8879938	ɲ a	-0.45881552
-1.2642939	ŋ a	-0.3481334
-1.0808405	ɣ a	-0.55675644
-1.6710392	β a	-0.30300537
-1.3442402	z a	-0.39076656
-0.94223624	f a	-0.4229853
-0.80254555	b a	-0.43651143
-1.120243	χ a	-0.35093963
-0.92490715	g a	-0.44307888
-0.89597726	ɟ a	-0.33171046
-0.7547859	y a	-0.46480492
-1.015899	ʂ a	-0.29987192
-1.1981608	ɢ a	-0.2962166
-1.0703061	ʐ a	-0.2962166
-0.76987624	ɡ a	-0.2962166
-1.5421352	<SIL> l	-0.70238984
-1.5226116	s l	-0.543159
-1.9870276	t l	-0.32516748
-1.4472935	u l	-0.6933771
-1.8029087	k l	-0.3342321
-1.4260901	ɯ l	-0.71298534
-2.0720754	w l	-0.2962166
-1.4847533	i l	-0.7155518
-1.8418567	c l	-0.3342321
-2.0652688	h l	-0.2962166
-1.3999879	o l	-0.6338051
-1.646243	n l	-0.350286
-1.3060459	ɤ l	-0.5673086
-1.5952914	r l	-0.4760801
-1.5607214	e l	-0.55918354
-1.8643636	p l	-0.27869946
-1.475731	a l	-0.809597
-2.184365	l l	-0.2962166
-2.0275352	m l	-0.28925237
-1.2829683	ʑ l	-0.46489948
-1.465867	j l	-0.51393014
-1.4011352	ɕ l	-0.56052995
-1.5706671	q l	-0.28214678
-1.4451756	ʁ l	-0.449417
-1.8500081	ŋ l	-0.31480852
-1.5251997	ɣ l	-0.32568935
-1.072838	β l	-0.44038165
-1.6610782	z l	-0.3342429
-2.0195277	b l	-0.2962166
-1.6848874	g l	-0.3067429
-1.6081185	́ l	-0.2962166
-1.1421686	v l	-0.2962166
-0.87649375	ɢ l	-0.2962166
-1.43773	<SIL> m	-0.7497757
-1.3272234	s m	-0.7334907
-1.8271501	t m	-0.40119094
-1.4150125	u m	-0.5894804
-1.4554912	ɯ m	-0.93846166
-2.1186156	w m	-0.2962166
-1.4250835	i m	-0.75413847
-1.8652897	h m	-0.3342321
-1.3374457	o m	-0.6992869
-1.6633354	n m	-0.35287052
-1.3269994	ɤ m	-0.7653948
-1.299445	r m	-0.651665
-1.4845746	e m	-0.5993825
-1.4163556	a m	-0.8405042
-2.0633435	l m	-0.3067429
-1.8243924	m m	-0.35333306
-1.2398534	ʑ m	-0.7180321
-1.3939962	j m	-0.46029383
-1.8624963	ɕ m	-0.36132804
-1.2952756	ʁ m	-0.54434305
-1.8219128	ŋ m	-0.28612047
-1.9389161	ɣ m	-0.29971662
-1.6003516	β m	-0.32516748
-1.5479615	z m	-0.4591829
-2.010873	g m	-0.2962166
-1.3043013	́ m	-0.296402
-1.8943033	y m	-0.2962166
-1.4815272	<SIL> ʑ	-0.5530025
-1.8336556	t ʑ	-0.50059617
-1.519467	u ʑ	-0.5855605
-1.5133191	ɯ ʑ	-0.6723058
-1.3700129	i ʑ	-0.703801
-1.5335746	o ʑ	-0.5103358
-1.8242309	n ʑ	-0.35439393
-1.0880572	d ʑ	-0.48476768
-1.602176	ɤ ʑ	-0.4268009
-1.8142849	r ʑ	-0.45026106
-1.4870869	e ʑ	-0.55842686
-2.3941922	p ʑ	-0.2962166
-1.441809	a ʑ	-0.82918626
-2.0780377	l ʑ	-0.32118702
-1.9390264	m ʑ	-0.37560946
-2.1963203	ʑ ʑ	-0.2962166
-1.803992	j ʑ	-0.35140714
-1.4644519	ʁ ʑ	-0.41183144
-1.8343614	ŋ ʑ	-0.27301398
-1.4316872	ɣ ʑ	-0.48350292
-1.2158551	β ʑ	-0.4236844
-1.7720994	z ʑ	-0.4282748
-2.0305173	g ʑ	-0.2962166
-1.8816851	ɟ ʑ	-0.2962166
-1.6691585	́ ʑ	-0.2962166
-1.4336225	<SIL> j	-0.7715024
-1.8046561	s j	-0.33996075
-1.99646	t j	-0.32860097
-1.4693742	u j	-0.62373364
-1.4940814	ɯ j	-0.8286471
-2.0870414	w j	-0.2962166
-1.4373413	i j	-0.64494336
-1.596111	h j	-0.2962166
-1.4597585	o j	-0.5193947
-1.7195175	n j	-0.36057454
-1.4604975	ɤ j	-0.57911706
-1.7972357	r j	-0.39494073
-1.4091501	e j	-0.5385519
-0.95160574	p j	-0.8935536
-1.4024974	a j	-0.7226861
-1.8305334	l j	-0.28214678
-1.7274582	m j	-0.36337972
-1.8849968	j j	-0.31480852
-2.273653	ɕ j	-0.2962166
-1.3892608	ʁ j	-0.4725413
-2.0755863	ɲ j	-0.2962166
-2.0324812	ŋ j	-0.2962166
-1.6807568	ɣ j	-0.28621098
-1.5834962	β j	-0.30863363
-1.3975374	z j	-0.6379333
-1.9876792	f j	-0.2962166
-1.3817881	b j	-0.35439393
-1.974065	g j	-0.2962166
-1.375948	́ j	-0.2962166
-0.6767374	0 j	-0.3342321
-0.3221762	ʊ j	-0.2962166
-1.5226483	<SIL> ɕ	-0.70313865
-2.3432932	s ɕ	-0.2962166
-1.1375549	t ɕ	-0.8660886
-1.6180027	u ɕ	-0.48354742
-1.9875419	k ɕ	-0.27301398
-1.4955473	ɯ ɕ	-0.8364514
-1.054699	x ɕ	-0.5223526
-1.4388677	i ɕ	-0.6362454
-2.0965528	h ɕ	-0.2962166
-1.5054315	o ɕ	-0.5178304
-2.0391016	n ɕ	-0.31753072
-1.440147	ɤ ɕ	-0.5715399
-1.8028449	r ɕ	-0.3792544
-1.5667331	e ɕ	-0.47018117
-1.1357408	p ɕ	-0.6788758
-1.4921833	a ɕ	-0.6536241
-2.2243319	l ɕ	-0.2962166
-1.9190474	m ɕ	-0.3285011
-1.7048799	j ɕ	-0.39526495
-1.9254533	ʁ ɕ	-0.31983638
-2.052882	ŋ ɕ	-0.2962166
-1.9254373	ɣ ɕ	-0.2908497
-1.7363927	β ɕ	-0.31102592
-1.9955627	z ɕ	-0.3054131
-0.94894516	f ɕ	-0.51033235
-1.0229449	χ ɕ	-0.50788116
-1.9920791	g ɕ	-0.2962166
-1.6375669	́ ɕ	-0.2962166
-1.880552	y ɕ	-0.2962166
-1.5276958	<SIL> q	-0.74830514
-1.4000939	s q	-0.60207266
-1.9192858	t q	-0.36492476
-1.5432742	u q	-0.6402705
-1.4841579	ɯ q	-0.83409053
-2.0587904	x q	-0.2962166
-1.4916048	i q	-0.7605045
-1.5335746	o q	-0.6671126
-1.8242309	n q	-0.29643288
-1.6351644	ɤ q	-0.5358873
-1.6095245	r q	-0.49486268
-1.4870869	e q	-0.71472573
-1.4810239	a q	-0.75957906
-2.0780377	l q	-0.32118702
-1.746721	m q	-0.41342416
-1.9605869	ʑ q	-0.2962166
-1.6444995	j q	-0.49486268
-1.3661406	ɕ q	-0.5069222
-1.9549191	ʁ q	-0.3342321
-1.9528266	ɣ q	-0.29634637
-1.760562	β q	-0.27869946
-2.0225904	z q	-0.27301398
-1.8035836	g q	-0.2962166
-1.9085042	y q	-0.2962166
-0.38154066	ɴ q	-0.5767102
-1.5836728	<SIL> ʁ	-0.5974908
-2.0416408	t ʁ	-0.31480852
-1.7670561	u ʁ	-0.445057
-1.5156196	ɯ ʁ	-0.7076576
-1.6649213	i ʁ	-0.5066369
-1.3571113	o ʁ	-0.83636975
-2.090323	n ʁ	-0.31480852
-1.6759837	ɤ ʁ	-0.3580951
-1.6149845	r ʁ	-0.4725413
-1.6857009	e ʁ	-0.42137164
-1.4563739	a ʁ	-0.9391538
-1.6653633	l ʁ	-0.3844387
-2.172561	m ʁ	-0.31480852
-2.0793972	j ʁ	-0.2962166
-2.3638213	ɕ ʁ	-0.2962166
-1.9784094	ʁ ʁ	-0.32118702
-2.1329324	ŋ ʁ	-0.2962166
-1.9745653	ɣ ʁ	-0.31480852
-1.5071927	β ʁ	-0.33424562
-2.1147277	z ʁ	-0.2962166
-2.061757	g ʁ	-0.2962166
-1.6944578	́ ʁ	-0.2962166
-1.7656156	<SIL> ɬ	-0.5057281
-2.551277	t ɬ	-0.2962166
-2.162969	u ɬ	-0.29643288
-1.7607495	ɯ ɬ	-0.69898266
-2.230005	w ɬ	-0.2962166
-2.1637003	i ɬ	-0.29643288
-2.155699	o ɬ	-0.37560946
-2.2271678	n ɬ	-0.3342321
-1.8797139	ɤ ɬ	-0.4618348
-2.197889	e ɬ	-0.296402
-2.0161045	a ɬ	-0.545099
-2.4481275	j ɬ	-0.2962166
-2.278387	ʁ ɬ	-0.2962166
-2.1105113	ɣ ɬ	-0.2962166
-2.4077535	z ɬ	-0.2962166
-1.4590766	<SIL> ɲ	-0.7779416
-1.5888861	s ɲ	-0.4678671
-1.8303907	t ɲ	-0.44910523
-1.4540279	u ɲ	-0.8083163
-1.4834433	ɯ ɲ	-0.77935374
-1.5086101	i ɲ	-0.90170074
-1.4058292	o ɲ	-0.76168686
-1.9237715	n ɲ	-0.36337972
-1.5701703	ɤ ɲ	-0.59752506
-1.6077197	r ɲ	-0.44317132
-1.4144466	e ɲ	-0.7198665
-1.4538655	a ɲ	-1.0682577
-2.0706286	l ɲ	-0.32635808
-1.5580162	m ɲ	-0.5593207
-2.186767	ʑ ɲ	-0.2962166
-1.713912	j ɲ	-0.44260418
-2.3214216	ɕ ɲ	-0.2962166
-1.5346823	ʁ ɲ	-0.37560946
-1.8984327	ŋ ɲ	-0.32118702
-1.9458157	ɣ ɲ	-0.29645255
-1.7543924	β ɲ	-0.27869946
-1.3667451	z ɲ	-0.7337448
-1.7744873	χ ɲ	-0.3342321
-2.020584	g ɲ	-0.2962166
-0.9410541	ʂ ɲ	-0.27301398
-0.98141223	ü ɲ	-0.2962166
-1.5052017	<SIL> ŋ	-0.7781639
-1.4863452	s ŋ	-0.5406968
-1.8369453	t ŋ	-0.43115562
-1.4979688	u ŋ	-0.6585969
-1.4444404	ɯ ŋ	-0.6790854
-1.4924688	i ŋ	-0.86634386
-1.3895144	o ŋ	-0.5851829
-1.82846	n ŋ	-0.36492476
-1.5172054	ɤ ŋ	-0.54731774
-1.7021804	r ŋ	-0.55388296
-1.463086	e ŋ	-0.67665744
-1.4424176	a ŋ	-0.69672346
-1.7488098	l ŋ	-0.29643288
-1.5142411	m ŋ	-0.5305291
-1.417131	ʑ ŋ	-0.64099073
-1.6471001	j ŋ	-0.46361992
-1.8731571	ɕ ŋ	-0.27869946
-1.9626089	ʁ ŋ	-0.32118702
-1.9133216	ŋ ŋ	-0.3342321
-1.9599526	ɣ ŋ	-0.3342321
-1.7668204	β ŋ	-0.27869946
-1.6892673	z ŋ	-0.48626676
-2.0406828	g ŋ	-0.2962166
-1.4061692	́ ŋ	-0.2962166
-1.4536916	<SIL> ɣ	-0.6927614
-2.324165	s ɣ	-0.2962166
-1.8959734	t ɣ	-0.34969214
-1.4905236	u ɣ	-0.64860344
-1.4528215	ɯ ɣ	-0.82559896
-1.0790634	w ɣ	-0.36128944
-1.5225844	i ɣ	-0.7261387
-2.1997876	c ɣ	-0.2962166
-1.4752809	h ɣ	-0.35439393
-1.5033233	o ɣ	-0.75426275
-1.799687	n ɣ	-0.4547907
-2.2035024	d ɣ	-0.2962166
-1.3966559	ɤ ɣ	-0.6775287
-1.7385087	r ɣ	-0.3715544
-1.5058645	e ɣ	-0.6206201
-1.1608192	p ɣ	-0.7583698
-1.4381751	a ɣ	-0.75296867
-1.5691504	l ɣ	-0.3892226
-1.7274582	m ɣ	-0.37560946
-1.3415029	ʑ ɣ	-0.41028973
-1.5691344	j ɣ	-0.42137164
-1.5079929	ɕ ɣ	-0.4895528
-1.9114377	ʁ ɣ	-0.32635808
-1.8633016	ŋ ɣ	-0.32118702
-1.9123642	ɣ ɣ	-0.28925237
-1.2590275	β ɣ	-0.48528174
-1.323814	z ɣ	-0.58648086
-1.6844009	b ɣ	-0.31753072
-1.974065	g ɣ	-0.2962166
-1.2903817	́ ɣ	-0.32118702
-1.8672228	y ɣ	-0.2962166
-1.8050897	<SIL> β	-0.5474297
-2.2285857	t β	-0.32118702
-1.7771392	u β	-0.36139086
-1.5194812	ɯ β	-0.69196296
-2.0814526	i β	-0.3373074
-1.9808675	o β	-0.31660536
-2.2063873	n β	-0.2962166
-1.3347508	ɤ β	-0.6402835
-1.9077746	e β	-0.3365882
-1.5786171	a β	-0.64716244
-2.3725748	l β	-0.2962166
-2.4163265	j β	-0.2962166
-2.0206249	ʁ β	-0.3342321
-1.9698616	ŋ β	-0.2962166
-2.3034086	ɣ β	-0.2962166
-2.1291106	β β	-0.2962166
-1.7402027	́ β	-0.2962166
-1.6107632	<SIL> z	-0.5459024
-2.4323206	t z	-0.2962166
-1.6265724	u z	-0.43894514
-1.4999747	ɯ z	-0.7088435
-2.1526668	w z	-0.2962166
-1.5917357	i z	-0.426326
-1.4890602	o z	-0.4694981
-1.746812	n z	-0.31922245
-1.3260808	d z	-0.3903466
-1.4039317	ɤ z	-0.59299576
-1.8201201	r z	-0.35202497
-1.5759097	e z	-0.3779937
-1.5736454	a z	-0.5287881
-2.0932465	l z	-0.32118702
-2.1638966	m z	-0.3342321
-2.0723958	j z	-0.2962166
-1.3509675	ʁ z	-0.4031319
-1.8471776	ŋ z	-0.30852237
-1.435966	ɣ z	-0.42446327
-0.98373806	β z	-0.4847984
-2.2899036	z z	-0.2962166
-2.0510921	g z	-0.2962166
-1.6858599	́ z	-0.2962166
-1.6831355	<SIL> f	-0.5585538
-2.296168	t f	-0.3342321
-1.7751038	u f	-0.40249512
-1.5342505	ɯ f	-0.8008995
-1.7265216	i f	-0.50167215
-1.8589381	o f	-0.4526082
-2.1963582	n f	-0.31480852
-1.6124301	ɤ f	-0.6864281
-2.2690673	r f	-0.31480852
-1.8414592	e f	-0.42137164
-1.6133934	a f	-0.7293886
-2.4154563	m f	-0.2962166
-2.4012587	j f	-0.2962166
-2.011847	ʁ f	-0.31480852
-2.0810483	ɣ f	-0.31480852
-1.8873514	β f	-0.32118702
-2.1072464	g f	-0.2962166
-1.7306601	́ f	-0.2962166
-2.0329752	<SIL> b	-0.38294238
-2.4732072	t b	-0.2962166
-2.0517597	u b	-0.28612047
-1.9496857	ɯ b	-0.38435918
-1.7879561	i b	-0.51393014
-2.1327043	o b	-0.29636076
-1.684166	n b	-0.36843362
-2.0902638	ɤ b	-0.30852237
-1.8290224	r b	-0.30557877
-2.057578	e b	-0.27869946
-1.852278	a b	-0.43910035
-1.8797063	l b	-0.39795268
-1.3072265	m b	-0.6883565
-2.3726063	j b	-0.2962166
-2.204738	ʁ b	-0.2962166
-1.9447238	ŋ b	-0.31480852
-2.2583017	ɣ b	-0.2962166
-2.087606	β b	-0.2962166
-1.9053582	z b	-0.29634637
-2.0839067	g b	-0.2962166
-1.6429539	<SIL> χ	-0.54750264
-2.4177742	s χ	-0.2962166
-2.2597153	t χ	-0.3342321
-1.8100877	u χ	-0.36057454
-1.4863087	ɯ χ	-0.846129
-1.8204284	i χ	-0.47803485
-1.7187744	o χ	-0.41513172
-2.337363	n χ	-0.2962166
-1.6398758	ɤ χ	-0.5013121
-2.2372303	r χ	-0.29647616
-2.048306	e χ	-0.35562974
-1.5917743	a χ	-0.6974225
-2.1010556	l χ	-0.32118702
-2.172561	m χ	-0.32118702
-2.1516836	j χ	-0.3342321
-1.9784094	ʁ χ	-0.32118702
-1.8537303	ŋ χ	-0.31102592
-1.9745653	ɣ χ	-0.28214678
-1.8552842	β χ	-0.2962166
-2.1147277	z χ	-0.3342321
-1.8218371	g χ	-0.2962166
-0.9474755	ʂ χ	-0.27869946
-1.8432324	<SIL> g	-0.48528174
-2.134183	u g	-0.32118702
-1.8393153	ɯ g	-0.51942754
-1.7220962	i g	-0.51533175
-2.1668196	h g	-0.2962166
-2.4528453	o g	-0.2962166
-1.5643209	n g	-0.40638122
-2.4111352	ɤ g	-0.2962166
-1.476221	r g	-0.6649762
-2.0529172	e g	-0.29647616
-1.9200613	a g	-0.42835855
-1.6865346	m g	-0.33424112
-1.421976	ʑ g	-0.50059617
-1.754887	ʁ g	-0.2762537
-0.95561177	ŋ g	-0.67797786
-2.074608	β g	-0.2962166
-1.3379923	z g	-0.65020734
-2.0726907	g g	-0.2962166
-1.1753869	v g	-0.2962166
-1.7285011	ɴ g	-0.2962166
-0.99133676	ü g	-0.2962166
-2.4152615	<SIL> ɟ	-0.29643288
-2.7263248	u ɟ	-0.2962166
-2.0541208	ɯ ɟ	-0.40555
-2.6062307	i ɟ	-0.32118702
-1.8797139	ɤ ɟ	-0.3342321
-1.3532453	r ɟ	-0.7414116
-2.3570619	e ɟ	-0.2962166
-2.4694831	a ɟ	-0.32118702
-1.7040298	m ɟ	-0.4618348
-1.1253661	ʁ ɟ	-0.64314824
-1.0627522	ɲ ɟ	-0.4775432
-2.2311494	ŋ ɟ	-0.2962166
-1.8650719	ɣ ɟ	-0.29647616
-1.4363819	β ɟ	-0.39034146
-1.7194139	z ɟ	-0.296402
-2.2045827	u ́	-0.35140714
-1.7451874	ɯ ́	-0.46221232
-2.3262954	h ́	-0.2962166
-2.1952274	o ́	-0.4282748
-1.7909936	ɤ ́	-0.36486632
-2.821934	e ́	-0.2962166
-2.8053722	a ́	-0.2962166
-1.8565582	<SIL> y	-0.5500939
-2.5345	t y	-0.2962166
-1.7791843	u y	-0.38187683
-2.2450812	ɯ y	-0.3392405
-1.7609417	i y	-0.50323474
-2.0595443	o y	-0.3386812
-1.9802104	n y	-0.35140714
-2.6715243	ɤ y	-0.2962166
-1.791493	e y	-0.46619767
-2.0138283	a y	-0.3530961
-2.431936	j y	-0.2962166
-2.262624	ʁ y	-0.2962166
-2.319549	ɣ y	-0.2962166
-2.1319122	g y	-0.2962166
-1.6082207	ɟ y	-0.30109715
-1.1900146	v y	-0.2962166
-3.1691074	ɯ v	-0.2962166
-2.7024002	n v	-0.2962166
-2.8482115	r v	-0.2962166
-1.7207601	l v	-0.29637882
-2.6102402	<SIL> ʂ	-0.3342321
-1.3559532	t ʂ	-0.75013524
-2.520358	ɯ ʂ	-0.31480852
-2.8869534	ɤ ʂ	-0.2962166
-2.548032	e ʂ	-0.2962166
-2.5262055	ɣ ʂ	-0.2962166
-1.9752728	<SIL> ɴ	-0.44910523
-2.2367995	t ɴ	-0.27869946
-2.0673966	u ɴ	-0.3756574
-1.7868253	ɯ ɴ	-0.8565905
-2.159662	i ɴ	-0.4547907
-2.2670019	o ɴ	-0.28214678
-1.8769795	ɤ ɴ	-0.574044
-2.3634434	r ɴ	-0.3342321
-2.3478224	e ɴ	-0.27869946
-2.348364	a ɴ	-0.27301398
-2.447209	m ɴ	-0.2962166
-1.4301729	ʑ ɴ	-0.64099073
-2.431936	j ɴ	-0.2962166
-2.262624	ʁ ɴ	-0.2962166
-2.1438763	β ɴ	-0.2962166
-2.169791	z ɴ	-0.2962166
-2.2593858	m ɢ	-0.32118702
-0.34785685	ɴ ɢ	-0.50323236
-1.3455379	d ʐ	-0.35735217
-3.02188	<SIL> 6	-0.2962166
-2.9381	<SIL> 0	-0.2962166
-0.3335048	6 0	-0.2962166
-0.69837517	0 0	-0.3342321
-0.22391096	4 0	-0.2962166
-0.3335048	3 0	-0.2962166
-1.1089753	0 7	-0.2962166
-2.1781936	l ü	-0.30852237
-3.0088756	<SIL> 2	-0.2962166
-2.9473696	e 2	-0.2962166
-0.93322754	2 2	-0.2962166
-2.3462937	g ə	-0.2962166
-3.0088756	<SIL> B	-0.2962166
-2.8655453	a B	-0.3342321
-2.5329583	ʁ B	-0.2962166
-3.0088756	<SIL> ɡ	-0.2962166
-2.735414	n ɡ	-0.2962166
-2.4791245	ŋ ɡ	-0.2962166
-3.1330214	i ？	-0.2962166
-2.6611123	ɕ ʊ	-0.2962166
-2.959661	e T	-0.2962166
-2.959661	e ；	-0.2962166
-2.9604347	<SIL> 4	-0.2962166
-2.4961035	ʁ 4	-0.2962166
-3.02188	<SIL> 3	-0.2962166
-3.040954	u ，	-0.2962166
-2.6919305	n 1	-0.2962166
-0.93089205	2 1	-0.2962166
-3.02188	<SIL> 5	-0.2962166
-3.1577175	ɯ ɛ	-0.2962166
-0.63316715	ɛ ɛ	-0.2962166
-3.0088756	<SIL> ɦ	-0.2962166
-2.6538143	ɕ ɦ	-0.2962166
-2.253651	ɣ ɦ	-0.3342321
-3.040954	u A	-0.2962166
-3.040954	u ̂	-0.2962166
-2.9915698	ɤ ʀ	-0.2962166

\3-grams:
-0.28521523	<SIL> <SIL> </s>	0
-1.0234301	s <SIL> </s>	0
-1.2711368	t <SIL> </s>	0
-1.1577227	u <SIL> </s>	0
-1.2190608	ɯ <SIL> </s>	0
-0.97256863	w <SIL> </s>	0
-1.3039525	i <SIL> </s>	0
-0.5665034	h <SIL> </s>	0
-1.1528134	o <SIL> </s>	0
-1.147538	n <SIL> </s>	0
-0.28521523	d <SIL> </s>	0
-1.0179032	ɤ <SIL> </s>	0
-1.3210948	r <SIL> </s>	0
-1.1832721	e <SIL> </s>	0
-0.28521523	p <SIL> </s>	0
-1.2385523	a <SIL> </s>	0
-1.2771336	l <SIL> </s>	0
-1.1777893	m <SIL> </s>	0
-1.0246687	j <SIL> </s>	0
-0.9753242	ɕ <SIL> </s>	0
-1.3711863	ʁ <SIL> </s>	0
-0.28521523	ɲ <SIL> </s>	0
-1.0302297	ŋ <SIL> </s>	0
-1.146533	ɣ <SIL> </s>	0
-1.139634	β <SIL> </s>	0
-1.3122694	z <SIL> </s>	0
-1.2874879	g <SIL> </s>	0
-1.1607518	y <SIL> </s>	0
-0.28521523	0 <SIL> </s>	0
-0.28521523	5 <SIL> </s>	0
-3.4696474	<s> <SIL> <SIL>	-0.83535755
-2.0150573	ɯ s <SIL>	-0.26772442
-0.30181962	w s <SIL>	-0.26772442
-2.20774	ɤ s <SIL>	-0.26772442
-1.7777497	u t <SIL>	-0.28952682
-1.4036274	ɯ t <SIL>	-1.1668069
-1.8478843	i t <SIL>	-0.67953485
-1.4109058	o t <SIL>	-0.43556952
-1.2310723	ɤ t <SIL>	-1.3492595
-1.4834487	a t <SIL>	-0.8719965
-1.1550391	s u <SIL>	-0.6292032
-1.2914464	t u <SIL>	-1.5613512
-1.3484116	k u <SIL>	-1.0617316
-1.2131509	w u <SIL>	-0.5343979
-1.069988	i u <SIL>	-0.27199996
-1.1916919	c u <SIL>	-0.5662707
-1.1596348	h u <SIL>	-0.92336965
-1.1226478	o u <SIL>	-0.35200295
-1.2850885	n u <SIL>	-0.49813998
-1.0421307	d u <SIL>	-0.36781973
-0.97464746	r u <SIL>	-0.9463362
-1.068763	p u <SIL>	-0.9406633
-1.21597	l u <SIL>	-0.6533876
-0.986516	m u <SIL>	-0.82171136
-1.0504969	ʑ u <SIL>	-1.2905408
-1.2803135	j u <SIL>	-0.5788405
-0.9733427	ɕ u <SIL>	-1.2377434
-1.1077995	q u <SIL>	-0.27307543
-0.7980214	ʁ u <SIL>	-0.26772442
-1.1375303	ɲ u <SIL>	-0.27199996
-0.9993626	ŋ u <SIL>	-2.182835
-1.0642084	ɣ u <SIL>	-0.27487382
-1.3069779	z u <SIL>	-1.053594
-0.8792556	f u <SIL>	-0.27487382
-1.1815124	b u <SIL>	-0.508557
-1.0196834	χ u <SIL>	-0.27487382
-1.4138517	g u <SIL>	-0.33789346
-0.9364832	ɟ u <SIL>	-0.26772442
-1.2494439	y u <SIL>	-0.2870506
-1.2625517	ʂ u <SIL>	-0.5490581
-0.9667662	ɢ u <SIL>	-0.27307543
-2.2299562	<SIL> ɯ <SIL>	-0.26772442
-1.5937573	s ɯ <SIL>	-0.699481
-1.7779422	t ɯ <SIL>	-0.526859
-1.3808352	k ɯ <SIL>	-1.4337125
-1.1398174	w ɯ <SIL>	-0.5300454
-2.072342	i ɯ <SIL>	-0.33139896
-1.0984367	c ɯ <SIL>	-0.43744692
-1.4028064	h ɯ <SIL>	-1.0041167
-1.3794384	n ɯ <SIL>	-2.2252727
-1.3473135	d ɯ <SIL>	-0.36540094
-1.2361625	r ɯ <SIL>	-0.8224322
-1.4792366	p ɯ <SIL>	-0.8405677
-1.6144027	l ɯ <SIL>	-0.27307543
-1.5890018	m ɯ <SIL>	-0.549842
-1.468245	ʑ ɯ <SIL>	-0.63157046
-1.3291179	j ɯ <SIL>	-0.57456976
-1.4146093	ɕ ɯ <SIL>	-0.83296627
-1.3369672	q ɯ <SIL>	-0.26772442
-1.6372573	ʁ ɯ <SIL>	-0.26772442
-2.0142796	ɲ ɯ <SIL>	-0.28030914
-1.1350013	ɣ ɯ <SIL>	-1.2248994
-1.0511451	z ɯ <SIL>	-0.6557434
-1.2072713	b ɯ <SIL>	-0.35339808
-1.443829	g ɯ <SIL>	-1.171212
-1.3772674	ɟ ɯ <SIL>	-0.40018845
-1.6809685	o w <SIL>	-0.9021649
-0.29925522	ə w <SIL>	-0.2784932
-1.0690899	s i <SIL>	-1.0067827
-1.0705525	t i <SIL>	-1.8831836
-1.0133418	u i <SIL>	-0.2703917
-1.0895498	k i <SIL>	-1.4803939
-0.8310009	w i <SIL>	-0.5850042
-1.354527	x i <SIL>	-0.26772442
-1.1676147	c i <SIL>	-1.4763726
-1.2415915	h i <SIL>	-1.1188595
-0.93987554	n i <SIL>	-0.7767948
-1.0229329	d i <SIL>	-0.60594493
-1.1114895	r i <SIL>	-1.6440907
-1.3357062	e i <SIL>	-0.26772442
-1.1766694	p i <SIL>	-0.7536028
-1.4891183	a i <SIL>	-0.2741536
-1.1826205	l i <SIL>	-1.1480951
-1.0223799	m i <SIL>	-1.0533304
-0.9613043	ʑ i <SIL>	-1.2678267
-1.2085948	j i <SIL>	-0.71609914
-0.9668512	ɕ i <SIL>	-1.1459426
-1.4126142	q i <SIL>	-0.28101194
-1.1805052	ʁ i <SIL>	-0.5031837
-0.92096573	ɲ i <SIL>	-0.38365096
-1.0833297	ŋ i <SIL>	-0.7488097
-1.0309865	ɣ i <SIL>	-1.0838306
-0.915559	z i <SIL>	-0.504838
-1.4952261	b i <SIL>	-0.5033128
-1.2804731	g i <SIL>	-0.45752394
-1.1868193	ɟ i <SIL>	-0.608219
-1.013582	y i <SIL>	-0.27077407
-1.0803992	ʂ i <SIL>	-0.26772442
-1.3588185	ʐ i <SIL>	-0.6534788
-0.733026	ɦ i <SIL>	-0.26772442
-2.0317101	p h <SIL>	-0.26772442
-1.2799928	ɕ h <SIL>	-0.26772442
-1.1336036	s o <SIL>	-1.1148105
-1.4880595	t o <SIL>	-0.8285309
-1.4310092	u o <SIL>	-0.36426002
-1.227034	k o <SIL>	-0.57533216
-0.5632738	ɯ o <SIL>	-0.26772442
-0.8974841	w o <SIL>	-0.85818815
-0.9159341	i o <SIL>	-0.26772442
-0.87940854	c o <SIL>	-0.38088173
-1.1458821	h o <SIL>	-0.84645176
-1.1265196	n o <SIL>	-0.4963875
-1.1265002	d o <SIL>	-0.8855399
-1.1094297	r o <SIL>	-0.88985336
-1.4058943	p o <SIL>	-0.26772442
-1.0042619	a o <SIL>	-0.39834577
-1.1564453	l o <SIL>	-0.45427233
-0.96637	m o <SIL>	-0.26772442
-1.2777724	ʑ o <SIL>	-1.6577355
-1.4152137	j o <SIL>	-0.46186075
-1.3880068	ɕ o <SIL>	-0.44551754
-1.0087924	q o <SIL>	-0.27384526
-0.8638307	ʁ o <SIL>	-0.35134405
-1.2055464	ɲ o <SIL>	-0.69207174
-1.2038583	ŋ o <SIL>	-0.5343807
-1.0974829	ɣ o <SIL>	-0.62307644
-1.0985063	z o <SIL>	-0.3602162
-1.2767762	b o <SIL>	-0.26772442
-1.1906111	g o <SIL>	-0.49063903
-1.0516872	ɟ o <SIL>	-0.33503294
-1.1926436	ʂ o <SIL>	-0.27199996
-1.1215732	ɢ o <SIL>	-0.26772442
-1.2114289	ʐ o <SIL>	-0.3448909
-1.4411088	u n <SIL>	-0.54388845
-1.2716445	ɯ n <SIL>	-0.77002925
-1.4173961	i n <SIL>	-0.3814268
-0.74922574	h n <SIL>	-0.26772442
-1.6072178	o n <SIL>	-0.46936068
-1.1996945	ɤ n <SIL>	-1.101167
-1.45397	e n <SIL>	-0.31926006
-1.5623693	a n <SIL>	-0.45403558
-2.28931	n d <SIL>	-0.26772442
-1.6794506	s ɤ <SIL>	-0.27728337
-1.921635	t ɤ <SIL>	-0.28952536
-1.8137892	k ɤ <SIL>	-0.33139896
-1.6708957	h ɤ <SIL>	-0.26772442
-1.3017018	n ɤ <SIL>	-1.2370684
-1.7721182	d ɤ <SIL>	-0.3602162
-2.0953493	r ɤ <SIL>	-0.26772442
-0.29450494	a ɤ <SIL>	-0.26772442
-1.829581	l ɤ <SIL>	-0.26772442
-2.0052073	m ɤ <SIL>	-0.30085042
-2.0441575	j ɤ <SIL>	-0.48263776
-1.9160578	ɲ ɤ <SIL>	-0.27247763
-1.6746064	ŋ ɤ <SIL>	-0.26772442
-2.0740368	ɣ ɤ <SIL>	-0.26772442
-1.2945982	u r <SIL>	-0.58431447
-1.5504699	ɯ r <SIL>	-0.80704874
-2.0869515	o r <SIL>	-0.26772442
-1.3644964	ɤ r <SIL>	-1.2207067
-1.7801762	e r <SIL>	-0.3376786
-1.4323776	a r <SIL>	-1.0678415
-1.7273844	g r <SIL>	-0.26772442
-0.87651455	<SIL> e <SIL>	-0.26772442
-0.8992758	s e <SIL>	-1.4455975
-0.8866775	t e <SIL>	-0.54629004
-1.0567994	u e <SIL>	-0.27307543
-0.99570024	k e <SIL>	-0.68926847
-1.0472038	i e <SIL>	-0.28952536
-0.7174036	c e <SIL>	-0.26772442
-1.2537698	h e <SIL>	-1.5229789
-1.1062165	n e <SIL>	-0.27487382
-0.91527605	d e <SIL>	-0.78043103
-1.088657	r e <SIL>	-1.6799078
-0.8712302	p e <SIL>	-0.954287
-0.8296068	l e <SIL>	-0.40306002
-1.0432144	m e <SIL>	-1.4675739
-0.80144674	ʑ e <SIL>	-0.28213784
-0.67698216	j e <SIL>	-0.4374175
-1.1569519	ɕ e <SIL>	-2.2680998
-1.1317554	q e <SIL>	-0.5074903
-0.9829705	ʁ e <SIL>	-0.38643795
-1.2252748	ŋ e <SIL>	-0.9972915
-0.85599446	ɣ e <SIL>	-0.7326438
-1.309599	z e <SIL>	-1.044747
-1.3351612	b e <SIL>	-0.35647213
-0.9667801	g e <SIL>	-0.28458637
-0.68811464	ɟ e <SIL>	-0.28634316
-1.1386971	y e <SIL>	-0.26772442
-1.010942	ʐ e <SIL>	-0.32647148
-2.3964262	a p <SIL>	-0.26772442
-1.8161851	<SIL> a <SIL>	-0.28952536
-1.2654511	s a <SIL>	-0.99579996
-1.2311069	t a <SIL>	-1.0967886
-1.1526462	u a <SIL>	-0.57855904
-1.1742141	k a <SIL>	-0.9262186
-1.4669949	ɯ a <SIL>	-0.27077407
-0.9808423	w a <SIL>	-0.6636319
-1.0697525	i a <SIL>	-0.61628646
-1.3061175	c a <SIL>	-0.74700046
-1.3318236	h a <SIL>	-1.5341434
-1.0290638	o a <SIL>	-0.32368067
-1.2183243	n a <SIL>	-1.1300454
-1.0832124	d a <SIL>	-0.5250803
-1.1707622	r a <SIL>	-1.6329731
-0.99201024	e a <SIL>	-0.6170764
-1.1104059	p a <SIL>	-1.1538517
-1.3657713	a a <SIL>	-0.6265619
-1.2388295	l a <SIL>	-0.79267216
-1.1738153	m a <SIL>	-1.7725582
-1.2093642	ʑ a <SIL>	-0.7027351
-1.0925624	j a <SIL>	-0.68478656
-1.0864867	ɕ a <SIL>	-0.52142733
-1.3169405	q a <SIL>	-0.72700256
-1.0780132	ʁ a <SIL>	-0.40747386
-0.83214676	ɬ a <SIL>	-0.46117008
-1.3830411	ɲ a <SIL>	-0.27487382
-1.0590754	ŋ a <SIL>	-0.48368746
-0.94804657	ɣ a <SIL>	-0.89109504
-0.93013686	β a <SIL>	-0.27307543
-1.1884766	z a <SIL>	-0.76696324
-1.4933641	f a <SIL>	-0.27631798
-1.1770338	b a <SIL>	-0.6449985
-1.4159044	χ a <SIL>	-0.26772442
-1.124625	g a <SIL>	-0.915245
-1.1570933	ɟ a <SIL>	-0.66098195
-1.4062732	y a <SIL>	-0.26772442
-1.3495201	ʂ a <SIL>	-0.36407107
-1.3220868	ʐ a <SIL>	-0.53968996
-1.6529217	ɯ l <SIL>	-0.33898947
-2.050805	i l <SIL>	-0.26772442
-1.2057945	ɤ l <SIL>	-1.4397771
-2.1675313	a l <SIL>	-0.26772442
-1.446131	u m <SIL>	-0.85523015
-1.4458948	ɯ m <SIL>	-1.1175206
-1.2484093	o m <SIL>	-0.7841948
-1.2066776	ɤ m <SIL>	-1.0897825
-1.9455	e m <SIL>	-0.26772442
-2.2860115	a m <SIL>	-0.7089933
-1.8191013	o ʑ <SIL>	-0.26772442
-1.1290259	u j <SIL>	-0.40080684
-1.9581084	ɯ j <SIL>	-0.28952536
-1.5405393	i j <SIL>	-0.46561664
-1.6268219	o j <SIL>	-0.2784932
-1.7129346	ɤ j <SIL>	-0.27077407
-1.1976261	e j <SIL>	-0.28507876
-1.1389338	a j <SIL>	-0.5013807
-2.2899864	t ɕ <SIL>	-0.26772442
-1.859144	o ɕ <SIL>	-0.26772442
-2.0290618	ɤ ɕ <SIL>	-0.26772442
-1.8020921	e ɕ <SIL>	-0.26772442
-1.2126464	o ʁ <SIL>	-1.4655855
-1.2347672	a ʁ <SIL>	-1.5381894
-1.8310102	e ɲ <SIL>	-0.26772442
-1.5638368	ɯ ŋ <SIL>	-0.27128443
-1.0211165	o ŋ <SIL>	-0.47218743
-1.777643	ɤ ŋ <SIL>	-0.26772442
-1.1234107	a ŋ <SIL>	-0.69563144
-1.2427517	ɯ ɣ <SIL>	-1.119956
-1.711145	w ɣ <SIL>	-0.26772442
-1.2288134	ɤ ɣ <SIL>	-0.94441825
-1.6273429	z ɣ <SIL>	-0.26772442
-1.2610533	ɯ β <SIL>	-0.7329478
-1.446372	o β <SIL>	-0.4374175
-1.163738	ɤ β <SIL>	-0.800249
-1.1484778	a β <SIL>	-0.8051413
-1.7365586	u z <SIL>	-0.26772442
-1.1928653	ɯ z <SIL>	-0.90448326
-1.5959772	i z <SIL>	-0.27077407
-1.1041453	o z <SIL>	-0.587568
-1.1446489	ɤ z <SIL>	-0.75610274
-1.2279422	a z <SIL>	-0.5199753
-1.7089236	β z <SIL>	-0.26772442
-1.0585343	ɤ b <SIL>	-0.26772442
-1.6164612	n g <SIL>	-0.5940702
-1.6298646	r ɟ <SIL>	-0.26772442
-1.3940027	ɟ y <SIL>	-0.4917573
-0.23724705	0 0 <SIL>	-0.2784932
-0.86566985	l ü <SIL>	-0.26772442
-0.1327501	i ？ <SIL>	-0.26772442
-0.20769721	2 1 <SIL>	-0.26772442
-0.1327501	<SIL> 5 <SIL>	-0.26772442
-1.6556525	<s> <SIL> s	-1.3305935
-1.437607	t <SIL> s	-0.3475188
-1.4945496	u <SIL> s	-0.523782
-1.4657263	ɯ <SIL> s	-1.0380673
-1.4704411	i <SIL> s	-0.78661644
-1.4541084	o <SIL> s	-0.59365124
-1.3942974	n <SIL> s	-0.3602162
-1.5730058	ɤ <SIL> s	-0.2700945
-1.5413752	r <SIL> s	-0.26772442
-1.5893556	e <SIL> s	-0.78966916
-1.6642431	a <SIL> s	-0.7656207
-1.6346662	m <SIL> s	-0.26772442
-1.4644467	ʁ <SIL> s	-0.53630745
-1.4432758	ɣ <SIL> s	-0.28634316
-1.5959766	β <SIL> s	-0.2784932
-1.532635	z <SIL> s	-0.30085042
-1.3697017	g <SIL> s	-0.26772442
-1.2206415	y <SIL> s	-0.26772442
-2.635888	ɯ s s	-0.26772442
-1.0009851	<SIL> t s	-1.6256436
-0.9863254	t t s	-0.59055686
-1.2257822	u t s	-1.2582399
-1.1484021	ɯ t s	-1.736845
-0.9431524	w t s	-0.83535755
-0.67993766	x t s	-1.4422137
-1.0250295	i t s	-1.2476351
-1.0357416	o t s	-1.3030927
-0.50966185	n t s	-1.8532252
-1.2501806	ɤ t s	-1.6189759
-0.8294447	r t s	-1.6287488
-1.3417809	e t s	-0.8953624
-1.0649372	a t s	-1.3558464
-0.8109043	l t s	-0.91453874
-0.6743198	m t s	-1.9152194
-0.90132433	j t s	-0.8439577
-1.0350701	ʁ t s	-1.1309246
-1.2216282	ŋ t s	-0.80936384
-1.1015232	ɣ t s	-1.184311
-1.0352451	β t s	-0.68045557
-1.3551688	z t s	-0.26772442
-0.6116461	f t s	-0.9752366
-0.7605773	χ t s	-0.99783325
-1.0297283	g t s	-0.26772442
-1.4419824	s u s	-0.69879043
-1.3512229	t u s	-1.352834
-1.3380665	k u s	-0.96240747
-1.5103064	w u s	-0.27487382
-1.2450958	x u s	-0.26772442
-1.4057488	i u s	-0.31247878
-1.4657078	c u s	-0.26772442
-1.488049	h u s	-0.27199996
-1.3938445	o u s	-0.27307543
-1.5889112	d u s	-0.26772442
-1.8185966	r u s	-0.26772442
-1.8322455	p u s	-0.26772442
-1.5673146	l u s	-0.8031206
-1.4673148	m u s	-0.28634316
-1.3302891	ʑ u s	-0.26772442
-1.2568287	j u s	-0.6264336
-1.6575919	ɕ u s	-0.33417043
-0.8065629	q u s	-1.0394775
-1.6203592	ŋ u s	-0.32327065
-1.431605	z u s	-0.58808064
-1.1703026	f u s	-0.26772442
-1.4862695	b u s	-0.26772442
-1.6408699	g u s	-0.26772442
-1.3006595	<SIL> ɯ s	-1.126995
-1.3009185	s ɯ s	-1.6064785
-1.3596524	t ɯ s	-1.2871392
-1.2007437	u ɯ s	-0.5418953
-1.4136842	k ɯ s	-1.4683223
-1.2402246	ɯ ɯ s	-1.0127685
-1.4625727	w ɯ s	-0.8300427
-1.3093722	i ɯ s	-0.71184564
-1.3100156	c ɯ s	-1.0658064
-1.4548126	h ɯ s	-0.943746
-1.1288888	o ɯ s	-0.4651848
-1.447884	n ɯ s	-1.5580316
-1.264382	ɤ ɯ s	-0.26772442
-1.4178143	r ɯ s	-0.98891526
-1.2415493	e ɯ s	-0.7139864
-1.3490604	p ɯ s	-0.86378944
-1.1677899	a ɯ s	-0.75296247
-1.2230935	l ɯ s	-0.6290615
-1.7486975	m ɯ s	-0.547754
-1.4339893	ʑ ɯ s	-0.35344028
-1.6253266	j ɯ s	-1.1722046
-1.5767143	ɕ ɯ s	-0.8341617
-1.301366	q ɯ s	-0.2784932
-1.3484209	ʁ ɯ s	-0.7384475
-1.3247076	ɲ ɯ s	-1.4520279
-1.2990702	ŋ ɯ s	-0.27199996
-1.360204	ɣ ɯ s	-0.6491948
-1.1504171	β ɯ s	-0.39776045
-1.378603	z ɯ s	-0.28030914
-1.47717	b ɯ s	-0.26772442
-1.3988929	g ɯ s	-0.3705718
-1.3387355	ɟ ɯ s	-0.2784932
-0.93300194	y ɯ s	-0.26772442
-1.0659884	́ w s	-0.26772442
-1.3231378	<SIL> x s	-0.61350876
-0.5518695	t x s	-0.26772442
-1.2981044	u x s	-0.30085042
-0.8775605	ɯ x s	-0.941901
-1.199068	ɤ x s	-1.4820879
-1.2617403	e x s	-0.26772442
-1.2484704	a x s	-0.27487382
-1.2268617	<SIL> i s	-0.87675023
-1.2950149	s i s	-0.3280315
-1.4864908	t i s	-0.42899844
-1.520034	k i s	-0.71834576
-1.5272503	w i s	-0.26772442
-1.6467584	x i s	-0.26772442
-1.696941	c i s	-0.37320125
-1.5086571	h i s	-0.29125017
-1.2375257	o i s	-0.26772442
-1.4495726	n i s	-0.27199996
-1.5645273	d i s	-0.28952536
-1.5603911	r i s	-0.6349551
-1.366687	e i s	-0.50268376
-1.5340289	p i s	-0.5438885
-1.2679971	a i s	-0.78291714
-1.5231042	l i s	-0.89802253
-1.4314256	m i s	-0.27487382
-1.5189666	ʑ i s	-0.43204105
-1.3605075	j i s	-0.72070336
-1.5186005	ɕ i s	-0.3354127
-1.4449494	q i s	-0.27307543
-1.2838223	ʁ i s	-0.2784932
-1.4287393	ɲ i s	-0.26772442
-1.5934753	ŋ i s	-0.4144641
-1.5639676	z i s	-0.27307543
-1.3085855	g i s	-0.29402
-1.6567054	y i s	-0.2784932
-1.589176	s o s	-0.86015844
-1.2492621	t o s	-1.420387
-1.2629098	u o s	-0.33280805
-1.336973	k o s	-0.86901975
-1.7948226	w o s	-0.26772442
-1.6509852	h o s	-0.32507262
-1.6944205	n o s	-0.26772442
-1.5993829	d o s	-0.27631798
-1.4163938	r o s	-0.5382389
-1.5056053	p o s	-0.26772442
-1.224474	a o s	-0.9218131
-1.312075	l o s	-0.64636606
-1.475265	ʑ o s	-1.0098492
-1.2256701	j o s	-1.2241259
-1.6813853	ʁ o s	-0.26772442
-1.665952	ɣ o s	-0.26772442
-1.6034073	z o s	-0.26772442
-0.92602956	b o s	-0.7384475
-1.645711	g o s	-0.2784932
-1.2841587	ʐ o s	-0.2784932
-2.03989	i n s	-0.26772442
-1.8616052	ɤ n s	-0.27077407
-1.9170437	e n s	-0.30085042
-1.7471803	a n s	-0.85621846
-1.374323	s ɤ s	-1.1827289
-1.2978525	t ɤ s	-1.0754293
-1.3238	k ɤ s	-1.3518561
-1.2399312	ɯ ɤ s	-0.86676574
-1.4667276	c ɤ s	-0.27631798
-1.5209246	h ɤ s	-1.1777802
-1.3336003	n ɤ s	-1.0722792
-1.4218898	d ɤ s	-1.30779
-1.3757715	ɤ ɤ s	-0.26772442
-1.405229	r ɤ s	-0.7074824
-1.6574214	p ɤ s	-0.68045557
-1.5409812	l ɤ s	-0.5865436
-1.2003462	m ɤ s	-1.071218
-1.122196	ʑ ɤ s	-0.37774503
-1.2502891	j ɤ s	-1.3260384
-1.3646617	ɕ ɤ s	-0.30085042
-1.0744349	ɲ ɤ s	-1.5461402
-1.5813278	ŋ ɤ s	-0.53432757
-1.4067755	ɣ ɤ s	-0.92640173
-1.2894859	g ɤ s	-0.4374175
-1.210941	ɟ ɤ s	-0.6290615
-1.211528	ʂ ɤ s	-0.35488236
-2.1510122	<SIL> r s	-0.26772442
-1.901721	u r s	-0.37320125
-2.3844812	ɯ r s	-0.9357905
-2.0344102	o r s	-0.26772442
-1.9275339	ɤ r s	-0.4783368
-1.5866668	e r s	-0.35488236
-2.1418056	a r s	-0.4144641
-1.3868943	ŋ r s	-0.26772442
-1.5574753	β r s	-0.4374175
-1.7144887	s e s	-0.49096566
-1.5559564	t e s	-0.26772442
-1.1980423	u e s	-0.31247878
-1.7419772	k e s	-0.26772442
-1.1841493	i e s	-0.4374175
-1.6272511	h e s	-0.2828704
-1.4657336	n e s	-0.26772442
-1.554421	d e s	-0.30085042
-1.5447022	r e s	-0.6859847
-1.825366	p e s	-0.26772442
-1.67281	l e s	-0.26772442
-1.6116288	m e s	-0.5910317
-1.7552692	ɕ e s	-0.9702662
-1.4766874	q e s	-0.31247878
-1.5487794	ŋ e s	-0.26772442
-1.5775423	z e s	-0.26772442
-1.4192338	b e s	-0.26772442
-2.4047384	a p s	-0.26772442
-1.3581333	<SIL> a s	-0.38041958
-1.8111522	s a s	-0.27307543
-1.3882904	t a s	-1.0744371
-1.7083831	u a s	-0.26772442
-1.3703171	k a s	-0.6962487
-1.4941401	ɯ a s	-0.4144641
-1.6951329	w a s	-0.2784932
-1.7255613	i a s	-0.27199996
-1.6990764	c a s	-0.27307543
-1.5997956	h a s	-0.7302211
-1.5316889	o a s	-0.48892805
-1.5009453	n a s	-0.74866605
-1.7899003	d a s	-0.27631798
-1.5860443	ɤ a s	-0.26772442
-1.5484387	r a s	-0.92975444
-1.8523251	e a s	-0.31247878
-1.3805058	p a s	-0.7317647
-1.4701543	a a s	-0.48263776
-1.5171732	l a s	-0.29566798
-1.5470867	m a s	-0.71047074
-1.717904	ʑ a s	-0.26772442
-1.6174359	j a s	-0.29402
-1.8039818	ɕ a s	-0.30085042
-1.7078621	q a s	-0.37774503
-1.4586756	ʁ a s	-0.29402
-1.4336377	ŋ a s	-0.2784932
-1.7438332	ɣ a s	-0.27487382
-1.4744661	z a s	-0.8742789
-1.4527042	b a s	-0.2985638
-1.7555685	g a s	-0.41820815
-1.4162178	ɟ a s	-1.09063
-1.6347485	y a s	-0.26772442
-2.341934	ɯ l s	-0.26772442
-1.7626417	ɤ l s	-1.3181493
-1.8616654	u m s	-0.26772442
-2.1326652	ɯ m s	-0.6364427
-2.0956552	o m s	-0.31247878
-2.1713977	ɤ m s	-0.29326943
-2.3394845	a m s	-0.26772442
-2.1123137	i j s	-0.26772442
-2.0981584	ɤ j s	-0.26772442
-2.1028152	a j s	-0.4374175
-1.6165761	́ j s	-0.7426069
-1.6128057	o ʁ s	-0.6260302
-1.5366014	a ʁ s	-0.9543552
-1.8754174	ɯ ŋ s	-0.49813998
-1.5444953	o ŋ s	-0.42770663
-1.7027922	a ŋ s	-0.9048279
-1.8070314	ɯ ɣ s	-0.29361042
-1.4136286	w ɣ s	-1.5062386
-2.030153	ɤ ɣ s	-0.37320125
-2.026832	ɯ β s	-0.7779717
-1.9711719	ɤ β s	-0.30085042
-1.9357364	a β s	-0.30085042
-2.4069793	ɯ z s	-0.4374175
-2.1144817	o z s	-0.26772442
-0.677022	<SIL> f s	-1.2023325
-0.4206601	u f s	-1.2352148
-0.6051822	ɯ f s	-2.3413317
-0.545951	i f s	-0.6290615
-0.3437904	o f s	-1.2310812
-0.49499702	ɤ f s	-1.0531571
-0.6838679	e f s	-0.6485488
-0.40367848	a f s	-1.0556144
-0.49032632	j f s	-0.53432757
-0.7065201	ʁ f s	-0.26772442
-0.46680444	ɣ f s	-0.28952536
-0.3667843	β f s	-0.29326943
-0.49032632	́ f s	-0.26772442
-0.5038775	<SIL> χ s	-1.4224794
-0.22111984	s χ s	-0.2784932
-0.19760378	t χ s	-0.26772442
-0.45503074	u χ s	-0.5113776
-0.7234935	ɯ χ s	-1.2539675
-0.3564239	i χ s	-1.0517625
-0.56485975	o χ s	-0.69879043
-0.22111984	n χ s	-0.26772442
-0.63720286	ɤ χ s	-0.69114685
-0.4128213	r χ s	-0.65303296
-0.53319776	e χ s	-1.0658064
-0.6038352	a χ s	-1.2127464
-0.338668	l χ s	-0.98148555
-0.338668	m χ s	-0.53432757
-0.19760378	j χ s	-0.26772442
-0.553527	ʁ χ s	-0.68045557
-0.6948793	ŋ χ s	-0.26772442
-0.40882507	ɣ χ s	-0.76172787
-0.45124942	β χ s	-0.26772442
-0.19760378	z χ s	-0.53432757
-0.45124942	g χ s	-0.31247878
-1.6272281	n g s	-0.7230126
-1.4557993	ɯ ́ s	-0.27307543
-1.4017973	ɟ y s	-0.2784932
-0.27556047	n v s	-0.26772442
-0.13373524	e T s	-0.26772442
-0.3506428	<s> <SIL> t	-2.8871312
-1.202064	t <SIL> t	-1.3622946
-1.1781712	u <SIL> t	-1.9128584
-1.2228879	ɯ <SIL> t	-2.045676
-0.9805821	w <SIL> t	-0.26772442
-1.2136186	i <SIL> t	-1.9755746
-0.5696318	h <SIL> t	-0.26772442
-1.1380067	o <SIL> t	-1.6328166
-1.2396858	n <SIL> t	-0.8600132
-1.18345	ɤ <SIL> t	-0.9450649
-1.15293	r <SIL> t	-1.2853198
-1.2067142	e <SIL> t	-2.1220381
-1.2019745	a <SIL> t	-1.8598433
-1.2920961	l <SIL> t	-0.9590438
-1.2679319	m <SIL> t	-1.203447
-0.9432207	j <SIL> t	-0.37864915
-0.6979241	ɕ <SIL> t	-0.26772442
-1.3899581	ʁ <SIL> t	-1.4436828
-1.2804126	ŋ <SIL> t	-0.4521181
-1.371772	ɣ <SIL> t	-1.1141112
-1.2964864	β <SIL> t	-0.77633715
-1.22529	z <SIL> t	-0.8533808
-1.3042015	g <SIL> t	-0.27384526
-1.1731743	y <SIL> t	-0.26772442
-0.28684935	ü <SIL> t	-0.26772442
-0.28684935	1 <SIL> t	-0.26772442
-0.9981028	<SIL> s t	-1.4511715
-1.638017	t s t	-0.27307543
-0.9309363	u s t	-1.0653629
-1.0013348	ɯ s t	-1.7096944
-0.918396	i s t	-0.87675023
-0.8350941	o s t	-1.0491419
-0.9634555	n s t	-0.2784932
-0.9462015	ɤ s t	-1.3620198
-1.2917645	r s t	-0.27307543
-0.9409826	e s t	-1.0890868
-0.9089651	a s t	-1.1237984
-0.917543	l s t	-0.26772442
-0.81677425	m s t	-0.29402
-0.8350794	j s t	-0.41820815
-0.98469436	ʁ s t	-0.64636606
-0.92407817	ŋ s t	-0.27307543
-0.90104806	ɣ s t	-0.9887599
-0.6648194	β s t	-0.27307543
-0.54406285	z s t	-0.4374175
-1.14448	f s t	-0.9292394
-0.9620301	g s t	-0.26772442
-0.69183457	́ s t	-0.26772442
-1.7675183	u t t	-0.28952536
-1.4300256	ɯ t t	-1.4537272
-2.0122366	i t t	-0.6166817
-1.4731903	o t t	-0.44784504
-1.3590528	ɤ t t	-1.5280125
-2.1720924	e t t	-0.26772442
-1.6153204	a t t	-0.8313074
-1.3984768	s u t	-0.7770908
-1.1868157	t u t	-1.9753946
-1.2445925	k u t	-1.4345727
-1.1409096	w u t	-0.411494
-0.89894885	i u t	-0.52042633
-0.9992671	c u t	-0.50512666
-1.21273	h u t	-1.3421395
-1.2893591	o u t	-0.49813998
-1.1659969	d u t	-0.28634316
-1.1066035	r u t	-1.1315916
-0.87757266	p u t	-0.58388114
-1.1634127	l u t	-0.8025249
-1.2940608	m u t	-0.6726696
-1.2246954	ʑ u t	-1.1354162
-1.0978659	j u t	-0.8932507
-1.2931002	ɕ u t	-1.4567252
-1.073948	ʁ u t	-0.26772442
-1.151552	ɲ u t	-0.27487382
-1.0036496	ŋ u t	-2.1564069
-1.3172747	ɣ u t	-0.26772442
-1.3286815	z u t	-1.2165728
-1.1445205	f u t	-0.26772442
-1.1978996	b u t	-0.8488578
-1.435164	g u t	-0.29326943
-0.9438703	ɟ u t	-0.27199996
-1.5076907	y u t	-0.27487382
-1.2831081	ʂ u t	-0.33139896
-0.9770477	ɢ u t	-0.31247878
-2.2104461	o k t	-0.26772442
-1.1935306	<SIL> ɯ t	-1.6792182
-1.4301751	s ɯ t	-1.1000805
-1.190947	t ɯ t	-1.3891873
-0.97734106	u ɯ t	-1.1982597
-1.3463078	k ɯ t	-1.7805166
-1.0986542	ɯ ɯ t	-1.4782255
-1.3739982	w ɯ t	-0.37774503
-1.1169145	i ɯ t	-1.1705017
-1.4055393	c ɯ t	-0.60188043
-1.3608414	h ɯ t	-1.2674668
-0.9252595	o ɯ t	-0.9291491
-1.4022572	n ɯ t	-2.3445535
-1.3056984	d ɯ t	-0.43257934
-1.2468814	ɤ ɯ t	-0.27487382
-1.1352131	r ɯ t	-0.89402777
-1.0873089	e ɯ t	-1.2703791
-1.2035384	p ɯ t	-1.3610721
-1.0925689	a ɯ t	-1.078206
-0.9845627	l ɯ t	-0.5123045
-1.1233292	m ɯ t	-1.0432694
-1.5519422	ʑ ɯ t	-0.609988
-1.2242076	j ɯ t	-0.9941959
-1.3777133	ɕ ɯ t	-0.5927371
-1.2827528	q ɯ t	-0.2784932
-1.1760331	ʁ ɯ t	-0.93640065
-1.3697798	ɲ ɯ t	-1.2769403
-1.2036079	ŋ ɯ t	-0.3291791
-1.143486	ɣ ɯ t	-1.2827624
-1.1371504	β ɯ t	-0.49813998
-1.1708262	z ɯ t	-0.6691757
-1.2515695	b ɯ t	-0.41081566
-1.3757678	g ɯ t	-1.1741949
-1.2454191	ɟ ɯ t	-0.5565109
-1.1269852	ʂ ɯ t	-0.37320125
-0.84256744	ɢ ɯ t	-0.26772442
-0.28860393	2 ɯ t	-0.26772442
-0.73307645	ɡ ɯ t	-0.2784932
-1.6609836	o w t	-0.30579594
-1.5274696	ɤ w t	-0.26772442
-1.9369375	a w t	-0.83535755
-0.602381	<SIL> x t	-0.65926623
-0.7171888	u x t	-0.8960668
-0.5360601	ɯ x t	-1.939378
-0.050417237	w x t	-2.4793034
-0.47214472	x x t	-0.26772442
-0.57562995	i x t	-0.28729844
-0.60919946	o x t	-1.0256892
-0.35659903	ɤ x t	-1.0923893
-0.47214472	r x t	-0.26772442
-0.69117963	e x t	-0.4444288
-0.37661272	a x t	-0.6649135
-0.23329818	j x t	-0.27487382
-0.6704637	ʁ x t	-0.26772442
-0.5938511	ŋ x t	-0.26772442
-0.47214472	ɣ x t	-0.96584785
-0.47214472	β x t	-0.26772442
-0.47214472	z x t	-0.26772442
-1.2295512	s i t	-0.78712595
-1.2049656	t i t	-1.8711939
-1.2974958	u i t	-0.4374175
-1.1460847	k i t	-1.6291479
-1.4861975	w i t	-0.26772442
-1.2371144	c i t	-1.416568
-1.2419173	h i t	-1.2537208
-1.2190821	o i t	-0.26772442
-1.1188712	n i t	-0.80980337
-1.3929226	d i t	-0.68490404
-1.1773595	r i t	-1.600833
-1.5422895	e i t	-0.26772442
-1.2873129	p i t	-0.41647512
-1.3523629	a i t	-0.442414
-1.1518428	l i t	-1.1668365
-1.1490993	m i t	-1.1606761
-1.4220947	ʑ i t	-1.3951274
-1.1714332	j i t	-0.703276
-1.18126	ɕ i t	-1.2252084
-1.4131885	q i t	-0.27693835
-1.1809224	ʁ i t	-0.27199996
-1.1066157	ɲ i t	-0.60712844
-1.194071	ŋ i t	-1.1031966
-1.0311109	ɣ i t	-1.3473735
-0.57114387	β i t	-0.26772442
-1.1223733	z i t	-0.41647512
-1.4959289	b i t	-0.5438885
-1.2809747	g i t	-0.26772442
-1.187252	ɟ i t	-0.848989
-1.080738	ʂ i t	-0.26772442
-1.3594619	ʐ i t	-0.4736778
-0.42260873	ɦ i t	-0.31247878
-1.3264067	s o t	-1.123842
-1.0876272	t o t	-2.1292439
-1.2232978	u o t	-0.57238925
-1.1706346	k o t	-0.93984175
-0.9935038	w o t	-0.7264031
-1.0535098	c o t	-0.40063983
-1.3007958	h o t	-0.73754346
-0.97619444	n o t	-0.7089933
-1.3277577	d o t	-0.97936994
-1.1577463	r o t	-0.829344
-0.9880712	p o t	-0.27199996
-0.965533	a o t	-0.46302086
-1.2406707	l o t	-0.8224257
-1.2148249	m o t	-0.26772442
-1.2398341	ʑ o t	-1.8348747
-1.1636304	j o t	-0.94311225
-1.406459	ɕ o t	-0.66481787
-1.2458932	q o t	-0.26772442
-1.0998609	ʁ o t	-0.41022933
-1.1451929	ɲ o t	-1.2600385
-0.6029142	ŋ o t	-1.6648178
-1.1085166	ɣ o t	-0.45515025
-1.1092681	z o t	-0.5438885
-1.2135303	b o t	-0.82549894
-1.0958705	g o t	-0.56372774
-1.145985	ɟ o t	-0.49813998
-1.2105205	ʂ o t	-0.5895922
-1.2301133	ʐ o t	-0.41820815
-0.8943224	<SIL> n t	-1.572023
-0.9639382	t n t	-0.7896
-1.0488222	u n t	-0.8897152
-1.0030961	ɯ n t	-1.7599325
-1.0234385	i n t	-0.9310393
-1.1348522	o n t	-0.7849113
-1.3411392	n n t	-0.26772442
-1.0253477	ɤ n t	-1.5277637
-1.297601	r n t	-0.87675023
-0.9501395	e n t	-0.7986243
-1.0227855	a n t	-0.9338558
-1.2770582	m n t	-0.61350876
-1.3695157	ʁ n t	-1.2897899
-1.1099374	ŋ n t	-0.2784932
-1.1047643	ɣ n t	-0.71041876
-1.1582851	β n t	-0.26772442
-1.3327929	z n t	-0.39776045
-0.88080245	g n t	-0.26772442
-0.9858351	́ n t	-0.26772442
-0.7084556	y n t	-0.26772442
-1.114011	s ɤ t	-1.4882027
-1.1433178	t ɤ t	-1.4155967
-1.0838302	k ɤ t	-1.5887022
-1.1462573	ɯ ɤ t	-0.8600132
-1.1155802	w ɤ t	-0.39867133
-0.62006825	i ɤ t	-0.26772442
-0.8467849	c ɤ t	-0.49225527
-1.1759901	h ɤ t	-0.84104526
-1.3180716	n ɤ t	-1.2232497
-1.1063336	d ɤ t	-0.8542092
-1.1307635	ɤ ɤ t	-0.33789346
-1.1164769	r ɤ t	-0.9091206
-1.0408782	p ɤ t	-1.3959544
-1.0200049	l ɤ t	-1.4007919
-1.2428664	m ɤ t	-0.83315575
-1.1861293	j ɤ t	-1.4333515
-0.99871004	ɕ ɤ t	-1.3876044
-0.7660196	q ɤ t	-0.29361042
-0.8927332	ʁ ɤ t	-0.27307543
-1.209188	ɲ ɤ t	-0.64110804
-1.1208825	ŋ ɤ t	-0.27631798
-1.0338019	ɣ ɤ t	-0.9727349
-1.3217287	z ɤ t	-1.7596369
-1.0823224	b ɤ t	-0.2985638
-1.0298411	g ɤ t	-1.217176
-1.0978022	ɟ ɤ t	-0.38457796
-1.1726363	ʂ ɤ t	-0.31247878
-0.56350243	ɢ ɤ t	-0.5464102
-1.673883	<SIL> r t	-0.6006086
-1.264198	u r t	-1.1173643
-1.240817	ɯ r t	-1.5058718
-1.4880154	i r t	-0.38643795
-1.306489	o r t	-1.0433587
-1.1939437	ɤ r t	-1.5047101
-1.5263764	e r t	-0.37320125
-1.343625	a r t	-1.5578128
-1.5459249	ʁ r t	-0.26772442
-1.3279185	ŋ r t	-0.2784932
-1.5629551	ɣ r t	-1.1330336
-1.4838494	β r t	-0.2784932
-0.5789592	f r t	-0.26772442
-0.5789592	v r t	-0.26772442
-0.879877	<SIL> e t	-0.26772442
-1.123462	s e t	-1.478505
-0.97763026	t e t	-0.6009996
-1.0621719	u e t	-0.27307543
-1.1272994	k e t	-0.7306615
-1.340546	i e t	-0.26772442
-1.1830933	h e t	-1.4995204
-1.1886499	n e t	-0.26772442
-1.4023551	d e t	-1.0101104
-1.4405229	r e t	-1.5158868
-0.9084556	p e t	-1.1903476
-0.8287827	a e t	-0.26772442
-1.1064714	l e t	-0.48472416
-1.1582499	m e t	-1.3140577
-0.99388504	ʑ e t	-0.9493009
-0.5967101	j e t	-0.68045557
-1.0412467	ɕ e t	-2.3690026
-1.138218	q e t	-0.26772442
-1.1507406	ʁ e t	-0.35488236
-1.2332469	ŋ e t	-0.75617623
-1.0893805	ɣ e t	-1.074845
-1.3182403	z e t	-1.0541781
-1.243912	g e t	-0.31247878
-0.9686557	ɟ e t	-0.26772442
-1.3544121	y e t	-0.26772442
-1.0157751	ʐ e t	-0.30085042
-2.398785	a p t	-0.9420165
-1.101072	<SIL> a t	-0.995191
-1.1660215	s a t	-0.9374517
-1.2632062	t a t	-1.2354405
-1.0995822	u a t	-0.71997976
-1.0142305	k a t	-0.8425523
-1.1016424	ɯ a t	-0.9227545
-1.1879096	w a t	-0.442414
-1.0961419	i a t	-0.90196663
-1.306466	c a t	-0.82651955
-1.380888	h a t	-1.5620091
-1.0907421	o a t	-0.75189257
-1.3567157	n a t	-0.83223677
-1.2161587	d a t	-0.7360641
-1.3795751	ɤ a t	-0.29402
-1.2050817	r a t	-1.8476496
-1.0467939	e a t	-1.0403067
-1.1513976	p a t	-1.1600101
-0.9824661	a a t	-0.79114264
-1.2018298	l a t	-0.87640357
-1.1947274	m a t	-1.3837643
-0.9630033	ʑ a t	-0.9515212
-1.0926864	j a t	-0.73323226
-1.148483	ɕ a t	-0.9981859
-1.5796524	q a t	-0.8748817
-1.0782226	ʁ a t	-0.6199632
-1.4511776	ɬ a t	-0.2784932
-0.89738	ɲ a t	-0.37886265
-1.3332927	ŋ a t	-0.27487382
-1.1445053	ɣ a t	-0.8104573
-1.1887591	β a t	-0.26772442
-1.2970061	z a t	-0.84560907
-1.4938816	f a t	-0.26772442
-1.552477	b a t	-0.77912116
-1.2794622	g a t	-0.908963
-1.1573876	ɟ a t	-0.84328234
-1.1500459	y a t	-0.27128443
-1.3500134	ʂ a t	-0.28004923
-1.3225538	ʐ a t	-0.27199996
-1.2919198	t l t	-0.26772442
-1.5871942	u l t	-0.4374175
-1.5200979	ɯ l t	-0.44993895
-1.2268608	ɤ l t	-1.1823952
-2.0632174	a l t	-1.3267192
-1.5979681	ʁ l t	-0.2784932
-1.4620771	ɣ l t	-0.2784932
-1.1848135	<SIL> m t	-1.0479282
-1.098175	u m t	-1.1059027
-1.1838219	ɯ m t	-1.8179132
-1.4490473	i m t	-0.29957858
-0.25021875	h m t	-0.26772442
-1.1387699	o m t	-1.1640677
-1.0991516	ɤ m t	-1.7868893
-1.4942781	r m t	-0.26772442
-1.4962255	e m t	-0.7159704
-1.2787277	a m t	-1.5462655
-1.2993551	m m t	-0.26772442
-1.4812138	j m t	-0.4769417
-1.5586369	ʁ m t	-0.5438885
-1.0050281	ŋ m t	-0.26772442
-1.1183484	ɣ m t	-1.0839472
-1.1950222	β m t	-0.26772442
-0.7424945	́ m t	-0.26772442
-1.3177406	u j t	-0.5467679
-1.6461138	ɯ j t	-0.8300427
-1.5182484	i j t	-0.4769417
-1.2154597	o j t	-0.30579594
-1.0213333	ɤ j t	-0.8632206
-1.6433437	e j t	-0.27487382
-1.1956031	a j t	-0.5761298
-1.2894461	ɣ j t	-0.2784932
-1.4771875	́ j t	-0.76424104
-0.78355324	<SIL> ɕ t	-1.5840902
-1.4722298	t ɕ t	-1.3538715
-0.6238891	u ɕ t	-1.0278492
-0.9771043	ɯ ɕ t	-1.6436969
-1.3596942	x ɕ t	-0.26772442
-0.6557509	i ɕ t	-1.364865
-0.5523503	o ɕ t	-1.09063
-0.70561254	n ɕ t	-0.60188043
-0.8980361	ɤ ɕ t	-1.4428707
-0.86069036	r ɕ t	-0.7896
-0.59047025	e ɕ t	-1.2173043
-0.49470583	a ɕ t	-1.2765478
-0.6765527	l ɕ t	-0.7384475
-0.66971374	m ɕ t	-0.9006238
-0.38275695	j ɕ t	-0.7401831
-1.0005773	ʁ ɕ t	-1.0464888
-0.6765527	ŋ ɕ t	-0.31247878
-0.81233644	ɣ ɕ t	-0.79915166
-0.58674926	β ɕ t	-0.4769417
-0.74708325	z ɕ t	-0.2784932
-1.3607732	χ ɕ t	-0.26772442
-0.26743498	g ɕ t	-0.26772442
-1.7766886	ɴ q t	-0.26772442
-1.2130488	o ʁ t	-1.6252948
-1.2881901	a ʁ t	-1.6385689
-2.0976796	ɯ ɲ t	-0.26772442
-1.8682119	ɯ ŋ t	-0.60188043
-1.2396002	o ŋ t	-0.7831021
-1.2272791	a ŋ t	-1.0481527
-1.8196504	u ɣ t	-0.26772442
-1.344562	ɯ ɣ t	-1.2081572
-1.4564906	w ɣ t	-1.3582363
-1.2995888	ɤ ɣ t	-1.2696435
-1.3332597	ʑ ɣ t	-0.26772442
-1.4087883	ɯ β t	-0.6923185
-1.4492897	o β t	-0.26772442
-1.1644585	ɤ β t	-0.8832172
-1.1088653	a β t	-0.8758595
-1.7725543	u z t	-0.26772442
-1.2998041	ɯ z t	-0.9762843
-1.543911	i z t	-0.4769417
-1.3096573	o z t	-0.7896
-1.1508939	ɤ z t	-0.81879765
-1.7015288	a z t	-0.27693835
-0.47421846	<SIL> f t	-1.2586035
-0.21688698	t f t	-0.4374175
-0.8863884	u f t	-0.4374175
-0.6049803	ɯ f t	-0.99696887
-0.67647165	i f t	-0.8037138
-0.85117066	o f t	-0.3794256
-0.7057399	n f t	-0.26772442
-0.7419544	ɤ f t	-0.8891221
-0.4663551	r f t	-0.2784932
-0.47839957	e f t	-0.87675023
-0.5985506	a f t	-0.51190996
-0.4663551	ʁ f t	-0.53432757
-0.6251781	β f t	-0.31247878
-2.0981965	m b t	-0.26772442
-1.2123939	<SIL> χ t	-0.30085042
-0.9060702	u χ t	-0.350726
-0.58106846	ɯ χ t	-1.1426528
-0.8184742	i χ t	-0.29402
-1.0099821	o χ t	-0.9378191
-0.71146864	ɤ χ t	-0.77984023
-1.1465939	e χ t	-0.27487382
-0.6460683	a χ t	-1.5409739
-0.676612	m χ t	-0.26772442
-0.82697123	ɣ χ t	-0.6748777
-1.6195103	n g t	-0.7654902
-1.0776899	ɯ ́ t	-0.28952682
-1.1703787	ɤ ́ t	-0.26772442
-0.5623493	e ́ t	-0.53432757
-1.3962154	ɟ y t	-0.28674093
-0.86715	l ü t	-0.26772442
-0.2510237	2 2 t	-0.26772442
-2.739706	ɯ <SIL> u	-0.26772442
-1.51032	<SIL> s u	-0.4951547
-0.95624304	t s u	-1.2274417
-1.8871326	ɯ s u	-0.40244594
-1.3347647	x s u	-0.26772442
-1.7266779	i s u	-0.48857003
-1.7181658	o s u	-0.2784932
-1.4902335	e s u	-0.2985638
-1.8380904	a s u	-0.35647213
-1.0206654	f s u	-0.55184555
-0.91195565	χ s u	-0.56499916
-1.0482486	g s u	-0.26772442
-0.9034909	<SIL> t u	-1.4996569
-0.70415825	s t u	-1.3451042
-0.88497597	t t u	-0.75810784
-0.8636698	u t u	-1.0522027
-1.1750615	ɯ t u	-1.3944709
-1.08864	x t u	-0.7547712
-0.9207765	i t u	-1.4274523
-0.89510757	o t u	-1.0284714
-0.9673127	n t u	-0.57482505
-1.4830517	ɤ t u	-1.1988788
-1.1411722	r t u	-0.73887664
-0.83352137	e t u	-1.1255573
-0.97895664	a t u	-1.2176573
-1.0527784	l t u	-0.63242894
-1.1765656	m t u	-0.6098751
-1.0077171	j t u	-0.33575916
-0.83385134	ɕ t u	-0.62209374
-1.0169746	ʁ t u	-0.80561614
-0.93004596	ŋ t u	-0.4087264
-1.0099741	ɣ t u	-0.6789125
-1.0157768	β t u	-0.60895514
-0.7606354	z t u	-0.3555559
-1.4966989	χ t u	-0.2784932
-1.0103523	g t u	-0.57770026
-0.9762732	́ t u	-0.26772442
-0.8705468	y t u	-0.27487382
-0.27550408	ü t u	-0.26772442
-0.8408817	<SIL> k u	-1.2228878
-1.3551456	s k u	-0.27487382
-0.9699109	t k u	-0.49387985
-0.8027323	u k u	-1.1374342
-0.7973313	ɯ k u	-1.1955309
-0.9480294	i k u	-0.8354107
-0.9217488	o k u	-0.7704981
-1.0088811	n k u	-0.41198927
-0.8774807	ɤ k u	-0.9170908
-0.9283751	r k u	-1.028896
-0.9043385	e k u	-0.9294214
-0.83035856	a k u	-0.7902999
-0.9527854	l k u	-0.26772442
-0.978035	m k u	-0.6483295
-0.8241811	j k u	-0.4334373
-0.71031904	ɕ k u	-0.8007499
-0.8785131	ʁ k u	-0.5580899
-0.25623766	ɲ k u	-0.26772442
-1.1544544	ŋ k u	-0.26772442
-0.83160824	ɣ k u	-0.27128443
-0.86477506	β k u	-0.33280805
-0.91179454	z k u	-0.27199996
-0.536178	f k u	-1.5513608
-0.79920346	g k u	-0.2839717
-0.5250706	<SIL> w u	-1.7114011
-0.4671434	t w u	-0.61350876
-0.41692132	u w u	-0.8138943
-0.6187739	ɯ w u	-1.640585
-0.46427318	i w u	-1.4235163
-0.42168623	o w u	-1.3322589
-0.50981355	n w u	-0.7384475
-0.6722459	ɤ w u	-0.80397296
-0.81289935	r w u	-0.83535755
-0.4496409	e w u	-1.5795356
-0.55951005	a w u	-1.7168651
-0.94351447	l w u	-0.31247878
-0.3342448	m w u	-0.83535755
-0.59744096	ʁ w u	-1.3668364
-0.50981355	ŋ w u	-0.53432757
-0.21731123	ɣ w u	-0.4374175
-0.24390694	β w u	-0.2784932
-0.91361976	z w u	-0.3602162
-0.61858153	g w u	-0.38365096
-1.0319548	<SIL> x u	-0.61350876
-1.201538	u x u	-0.26772442
-1.2558552	ɯ x u	-0.39776045
-1.1660976	i x u	-0.7384475
-1.0897689	o x u	-0.53432757
-0.6723987	n x u	-0.26772442
-1.157794	e x u	-0.2784932
-1.346083	a x u	-0.26772442
-0.7588377	ʁ x u	-0.26772442
-0.5259985	g x u	-0.2784932
-1.4931034	x i u	-0.30085042
-2.2507143	n i u	-0.26772442
-1.5545313	l i u	-0.32647148
-1.5007956	j i u	-0.44124508
-1.709923	q i u	-0.27487382
-1.4742018	<SIL> c u	-0.28952682
-1.217644	s c u	-0.5767311
-1.245259	t c u	-0.2784932
-1.4255886	u c u	-0.26772442
-1.1469369	ɯ c u	-0.28952792
-1.5121715	i c u	-0.27487382
-1.3066806	o c u	-0.45910913
-1.1776819	n c u	-0.26772442
-1.0725784	ɤ c u	-0.86472404
-1.3114333	r c u	-0.27307543
-1.4898503	e c u	-0.31247878
-1.7032707	a c u	-0.26772442
-1.0658052	ʁ c u	-0.26772442
-0.8867594	g c u	-0.2784932
-0.6534034	<SIL> h u	-0.81308115
-0.7417957	s h u	-0.8609129
-1.1763735	t h u	-0.6536665
-0.61208457	u h u	-0.31247878
-1.0320263	k h u	-0.74066806
-0.5849226	ɯ h u	-0.55383635
-0.4082016	i h u	-0.5267348
-1.0290772	c h u	-0.6792575
-0.8216529	o h u	-0.35647213
-0.47865015	n h u	-0.54929256
-0.5033965	r h u	-0.26772442
-0.40839526	e h u	-0.7401831
-0.9186662	p h u	-0.97847223
-0.73824877	a h u	-0.3475188
-0.9139708	q h u	-1.3026357
-0.7450825	z h u	-0.6687438
-0.6357124	g h u	-0.53987914
-2.1733315	t o u	-0.26772442
-2.0288951	k o u	-0.27307543
-1.3190689	h o u	-0.37622517
-1.2095283	d o u	-0.28634316
-1.9979727	a o u	-0.26772442
-1.7837342	l o u	-0.27199996
-1.5137981	g o u	-0.27128443
-0.16841684	y o u	-0.3128983
-1.6124358	<SIL> n u	-1.2302693
-2.257837	ɯ n u	-0.60188043
-2.1088598	i n u	-0.26772442
-1.887552	o n u	-1.0114487
-1.8356595	e n u	-1.2302693
-2.1162448	a n u	-0.2784932
-1.0394857	m n u	-0.4441988
-1.230527	<SIL> d u	-0.27307543
-1.0601048	u d u	-0.26772442
-1.3721403	ɯ d u	-0.27307543
-1.2859886	i d u	-0.68045557
-0.9947177	o d u	-0.27487382
-1.4153265	n d u	-0.50887334
-1.0087484	r d u	-0.43506116
-1.3557932	a d u	-0.2784932
-0.8000417	j d u	-0.3475188
-1.4117023	z d u	-0.26772442
-0.87369734	g d u	-0.41820815
-1.9858395	<SIL> r u	-0.26772442
-1.6581571	u r u	-0.6125078
-1.3972303	ɯ r u	-1.1456826
-1.9267602	i r u	-0.26772442
-0.9962145	h r u	-0.5588943
-1.5518353	o r u	-0.53432757
-1.5626683	ɤ r u	-0.9479685
-1.3675491	p r u	-0.27487382
-2.0631502	a r u	-0.35647213
-1.3990943	m r u	-0.26772442
-0.40552327	ʑ r u	-0.6305751
-1.3990638	j r u	-0.41820815
-1.1046745	q r u	-0.4482094
-1.3276126	ʁ r u	-0.26772442
-0.95860136	ɣ r u	-1.6387234
-1.60302	g r u	-0.34068045
-1.62793	<SIL> p u	-0.5151181
-1.5193598	s p u	-0.8037138
-1.2800505	t p u	-0.9441587
-1.3725863	ɯ p u	-0.5526329
-1.6584942	i p u	-0.27487382
-1.4886602	o p u	-0.29402
-1.1790673	n p u	-0.26772442
-1.3772869	ɤ p u	-0.2703917
-1.0247968	r p u	-0.43468532
-1.5414678	e p u	-0.26772442
-1.9098197	a p u	-0.39776045
-1.082178	l p u	-1.3583297
-0.6467752	j p u	-1.2158557
-1.206977	ʁ p u	-0.5101991
-1.1441325	ŋ p u	-0.42783064
-1.1986957	z p u	-0.26772442
-1.4827219	χ p u	-0.41647512
-0.8279815	<SIL> l u	-0.720915
-0.82517725	t l u	-0.26772442
-0.73719	u l u	-0.5606309
-0.98235136	ɯ l u	-0.8318104
-0.8160035	i l u	-0.40946376
-0.8427302	h l u	-0.26772442
-0.754176	o l u	-0.38964167
-0.83305514	n l u	-0.50643516
-1.2912902	ɤ l u	-0.59264827
-1.1264477	r l u	-0.3417947
-0.92795616	e l u	-0.48090708
-1.0552245	a l u	-0.6167237
-0.73170125	m l u	-0.28674093
-0.6951212	ʑ l u	-0.26772442
-1.1197094	j l u	-0.4441988
-0.73434865	ɕ l u	-0.2911275
-1.1870875	ʁ l u	-0.31016758
-0.9801335	ŋ l u	-0.41820815
-1.0530831	ɣ l u	-0.26772442
-1.065709	β l u	-0.7436599
-0.7423083	z l u	-0.26772442
-0.9419025	g l u	-0.26772442
-1.2984016	<SIL> m u	-0.29054517
-1.1380324	t m u	-0.27307543
-1.6667458	u m u	-0.27307543
-1.3995776	ɯ m u	-0.8999563
-1.089585	i m u	-0.3973207
-1.6584104	o m u	-0.3921898
-1.1838329	n m u	-0.52670956
-1.3093275	ɤ m u	-0.93414897
-1.3478907	e m u	-0.27307543
-1.1445879	a m u	-0.58386874
-1.2993551	m m u	-0.26772442
-1.4812138	j m u	-0.29326943
-1.3792909	ʁ m u	-0.69223964
-1.0050281	ŋ m u	-0.26772442
-1.1183484	ɣ m u	-0.6194524
-1.1950222	β m u	-0.26772442
-1.4029224	z m u	-0.26772442
-1.8708214	ɯ ʑ u	-0.2784932
-1.2773067	d ʑ u	-0.5829401
-1.3370633	ɤ ʑ u	-1.3707263
-0.7356075	l ʑ u	-0.26772442
-1.4224665	ɣ ʑ u	-0.26772442
-1.4138818	β ʑ u	-0.53432757
-0.28856117	́ ʑ u	-0.26772442
-0.8482334	<SIL> j u	-0.9040666
-0.8776778	t j u	-0.32647148
-0.94775385	u j u	-0.57503957
-1.1511755	ɯ j u	-0.6398975
-0.9707637	i j u	-0.7427167
-1.1397814	o j u	-0.6833626
-0.9485543	n j u	-0.28634316
-1.6411371	ɤ j u	-0.43204105
-0.7551066	r j u	-0.56499505
-0.9395592	e j u	-0.678273
-1.4815333	p j u	-0.27487382
-1.0395269	a j u	-0.6177486
-0.86938643	l j u	-0.27487382
-0.97178864	m j u	-0.27487382
-1.2366863	ʁ j u	-0.5403513
-1.1476387	ɣ j u	-0.26772442
-0.90824026	β j u	-0.26772442
-0.6396121	z j u	-0.44859266
-0.7829015	b j u	-0.72196615
-0.8731125	g j u	-0.27487382
-1.3947936	<SIL> ɕ u	-0.5267348
-1.0787159	t ɕ u	-1.6944306
-2.0565329	ɯ ɕ u	-0.27487382
-1.8165549	i ɕ u	-0.26772442
-1.6501694	ɤ ɕ u	-0.27199996
-1.4285848	r ɕ u	-0.26772442
-1.433408	e ɕ u	-0.26772442
-1.6769226	p ɕ u	-0.5450189
-1.1428231	f ɕ u	-0.26772442
-0.7419594	χ ɕ u	-0.58335066
-1.3555715	<SIL> q u	-0.59429944
-0.76165664	t q u	-0.27487382
-1.2660432	u q u	-0.71353716
-1.5652229	ɯ q u	-0.87684596
-1.1895478	i q u	-0.27384526
-1.2446737	ɤ q u	-0.53432757
-1.2837927	e q u	-0.27307543
-1.4129953	a q u	-0.5438885
-1.126431	ɕ q u	-0.31247878
-1.0221927	ɣ q u	-0.83535755
-0.7716098	g q u	-0.26772442
-1.6915998	r ʁ u	-0.27384526
-0.5142131	β ʁ u	-0.67423123
-1.8287504	<SIL> ɲ u	-0.26772442
-1.148925	s ɲ u	-0.36411327
-1.7199812	ɯ ɲ u	-0.61350876
-1.2223313	ɣ ɲ u	-0.2784932
-0.41626	<SIL> ŋ u	-1.5260919
-1.0893545	s ŋ u	-0.9029104
-0.31278947	t ŋ u	-0.96735483
-0.255786	u ŋ u	-0.9704604
-0.6452148	ɯ ŋ u	-1.9871403
-0.22805831	i ŋ u	-1.5413339
-0.7822869	o ŋ u	-1.1939577
-0.45059496	n ŋ u	-0.58339703
-0.835951	ɤ ŋ u	-1.6209491
-0.9278041	r ŋ u	-0.91108114
-0.29434907	e ŋ u	-1.193249
-0.7586452	a ŋ u	-1.292682
-0.6152258	l ŋ u	-0.4144641
-0.6111996	m ŋ u	-0.96015817
-0.485962	j ŋ u	-0.48470107
-0.621582	ʁ ŋ u	-1.3244404
-0.22540972	ŋ ŋ u	-0.5565109
-0.4858507	ɣ ŋ u	-0.84878397
-0.3806314	β ŋ u	-0.54945606
-0.22834933	z ŋ u	-0.95205957
-0.5074536	́ ŋ u	-0.71494836
-1.6332273	<SIL> ɣ u	-0.61350876
-1.7434741	u ɣ u	-0.26772442
-1.5473776	ɯ ɣ u	-0.97754407
-1.476149	i ɣ u	-0.53432757
-1.7234759	ɤ ɣ u	-0.95406294
-1.1818142	r ɣ u	-0.26772442
-1.6249181	e ɣ u	-0.26772442
-1.1861641	β ɣ u	-0.4095251
-1.7921407	<SIL> z u	-0.26772442
-1.5048826	u z u	-0.69879043
-2.0616546	ɯ z u	-0.26772442
-1.2678418	n z u	-0.2784932
-1.2346027	d z u	-0.9892188
-1.9364698	ɤ z u	-0.27199996
-1.837261	a z u	-0.26772442
-0.81499964	β z u	-1.5265075
-0.8525965	g z u	-0.31247878
-1.4843613	<SIL> f u	-0.26772442
-1.3049867	u f u	-0.26772442
-1.797265	ɯ f u	-0.26772442
-1.1450244	i f u	-0.27307543
-1.2622432	e f u	-0.26772442
-0.70659924	g f u	-0.26772442
-0.9145408	<SIL> b u	-0.39776045
-1.3335208	ɯ b u	-0.2784932
-0.85650253	n b u	-0.3583401
-1.4102206	a b u	-0.2784932
-1.2862754	m b u	-0.27667978
-0.82668006	ŋ b u	-0.9206202
-1.3631063	u χ u	-0.2784932
-1.9586232	ɯ χ u	-0.34533605
-1.3614734	e χ u	-0.26772442
-1.0087095	ʁ χ u	-0.26772442
-0.541378	<SIL> g u	-0.3790478
-0.6211569	u g u	-0.29402
-0.9920517	ɯ g u	-0.27487382
-0.5790999	i g u	-0.4721796
-0.6407527	o g u	-0.26772442
-1.1606404	n g u	-0.59429944
-1.4138042	r g u	-0.35200295
-0.6906948	e g u	-0.30085042
-0.5167442	a g u	-0.6037979
-1.1119937	ŋ g u	-0.62625647
-1.3726336	z g u	-0.7384475
-0.72702694	g g u	-0.926438
-0.2531258	v g u	-0.31247878
-0.2531258	ɴ g u	-0.26772442
-0.2531258	ü g u	-0.26772442
-0.5140664	<SIL> ɟ u	-0.49813998
-0.46855995	ɯ ɟ u	-0.62408966
-0.36993676	i ɟ u	-0.27487382
-0.69693446	ɤ ɟ u	-0.27487382
-0.9556558	r ɟ u	-1.1575768
-0.6240551	e ɟ u	-0.26772442
-0.60605985	a ɟ u	-0.26772442
-1.240403	ʁ ɟ u	-0.26772442
-0.82939374	β ɟ u	-0.27247763
-0.877535	<SIL> y u	-0.27199996
-0.7977354	u y u	-0.66755533
-0.8154901	ɯ y u	-0.27199996
-0.6110886	i y u	-0.38672876
-0.7332828	o y u	-0.26772442
-0.39095086	n y u	-0.39776045
-0.60406226	e y u	-0.27384526
-0.6509525	a y u	-0.4606979
-0.76666677	g y u	-0.46944734
-0.24666607	v y u	-0.26772442
-0.8496093	t ʂ u	-0.89854646
-1.0370746	ɴ ɢ u	-0.33139896
-1.1461322	d ʐ u	-0.31247878
-0.11675068	<SIL> B u	-0.26772442
-0.10566672	a B u	-0.2784932
-0.11675068	ʁ B u	-0.26772442
-1.1767925	<s> <SIL> k	-2.1105409
-1.2242563	t <SIL> k	-0.9919244
-1.2229981	u <SIL> k	-1.5368447
-1.2515168	ɯ <SIL> k	-2.0116467
-1.2655478	i <SIL> k	-1.7555358
-1.1636435	o <SIL> k	-1.5563927
-1.1763546	n <SIL> k	-0.84328234
-0.97534525	ɤ <SIL> k	-0.8920295
-1.2605532	r <SIL> k	-1.1024891
-1.2368729	e <SIL> k	-1.748243
-1.2075763	a <SIL> k	-1.8246802
-1.3273996	l <SIL> k	-0.5657358
-1.2948884	m <SIL> k	-1.0534244
-1.3357759	j <SIL> k	-0.48857003
-1.4349365	ʁ <SIL> k	-1.276766
-1.2369341	ŋ <SIL> k	-0.31247878
-1.4150074	ɣ <SIL> k	-0.8557704
-1.3361257	β <SIL> k	-0.9048279
-1.1647025	z <SIL> k	-1.0114487
-1.3439153	g <SIL> k	-0.5746412
-1.2021902	y <SIL> k	-0.30085042
-1.4724275	<SIL> s k	-0.7070639
-1.9219838	t s k	-0.26772442
-1.4820104	u s k	-0.37320125
-1.16641	ɯ s k	-1.1339029
-1.6642233	i s k	-0.39776045
-1.495289	o s k	-0.26772442
-1.1846609	ɤ s k	-0.90985
-1.3894858	r s k	-0.26772442
-1.605243	e s k	-0.30085042
-1.3209156	a s k	-0.8224573
-1.1946986	j s k	-0.26772442
-1.2565554	ʁ s k	-0.2784932
-1.2038167	ŋ s k	-0.26772442
-1.2482203	ɣ s k	-0.50268376
-1.1794288	f s k	-1.3220397
-2.0330222	u t k	-0.2784932
-1.6686441	ɯ t k	-0.9447079
-1.8379215	i t k	-0.86385
-1.9544826	o t k	-0.31247878
-1.4252254	ɤ t k	-1.1777803
-1.8151722	a t k	-0.8586379
-1.9393133	m t k	-0.26772442
-1.4520948	s u k	-1.8427149
-1.2386065	t u k	-2.081453
-1.244879	k u k	-1.6720455
-1.226291	w u k	-0.41494042
-1.3641981	i u k	-0.27487382
-1.4280919	c u k	-0.2784932
-1.2629093	h u k	-1.0248753
-1.2902749	o u k	-0.2985638
-1.0778989	n u k	-0.26772442
-1.3212391	d u k	-0.27487382
-1.158682	r u k	-0.86465836
-1.0284151	p u k	-0.9710201
-1.1637186	l u k	-1.29219
-1.2362038	m u k	-1.0237933
-1.2952268	ʑ u k	-0.81294
-1.0402942	j u k	-1.3091239
-1.0418017	ɕ u k	-1.3382397
-1.0745485	ʁ u k	-0.26772442
-1.1522241	ɲ u k	-0.26772442
-1.1884043	ŋ u k	-1.1186588
-1.3180802	ɣ u k	-0.26772442
-1.1893672	z u k	-0.8753822
-0.88774437	f u k	-0.2784932
-1.1986873	b u k	-0.60188043
-1.3698508	g u k	-0.5583722
-0.94422156	ɟ u k	-0.2784932
-1.3389142	y u k	-0.27487382
-1.2841014	ʂ u k	-0.5117038
-2.08318	ɤ k k	-0.26772442
-1.2451069	<SIL> ɯ k	-1.6426669
-1.2989281	s ɯ k	-1.0419344
-1.3304211	t ɯ k	-1.3647023
-1.0609707	u ɯ k	-0.8761654
-1.4121667	k ɯ k	-2.0528522
-1.1652267	ɯ ɯ k	-1.4869585
-1.2316194	w ɯ k	-0.52142733
-1.2753879	i ɯ k	-1.1344434
-1.6289338	c ɯ k	-0.2985638
-1.4502395	h ɯ k	-1.7143848
-1.0366224	o ɯ k	-1.0144682
-1.3693411	n ɯ k	-2.417852
-1.6936995	d ɯ k	-0.27631798
-1.1788903	ɤ ɯ k	-0.28952792
-1.2233149	r ɯ k	-1.1731908
-1.1592116	e ɯ k	-1.3256826
-1.1841693	p ɯ k	-1.773627
-1.1415793	a ɯ k	-1.1613297
-1.4940747	l ɯ k	-0.67423123
-1.3805077	m ɯ k	-1.0742396
-1.3230746	ʑ ɯ k	-0.7276497
-1.3015041	j ɯ k	-1.3066001
-1.1588185	ɕ ɯ k	-1.1024891
-1.3428463	ʁ ɯ k	-0.807734
-1.3233602	ɲ ɯ k	-1.5757692
-1.2147892	ŋ ɯ k	-0.29402
-1.2867284	ɣ ɯ k	-1.0078375
-1.0574118	β ɯ k	-0.30085042
-1.2645539	z ɯ k	-0.8092755
-1.2633117	b ɯ k	-0.27487382
-1.3927857	g ɯ k	-1.1816945
-1.3334556	ɟ ɯ k	-0.2784932
-0.93080026	y ɯ k	-0.26772442
-0.73708135	ɡ ɯ k	-0.26772442
-1.3131065	<SIL> i k	-0.31247878
-1.1423289	s i k	-1.1138567
-1.2921187	t i k	-1.0370866
-1.2982004	u i k	-0.39776045
-1.1172467	k i k	-1.525124
-1.3045568	w i k	-0.27487382
-1.2906517	c i k	-1.3347576
-1.2424065	h i k	-1.2332976
-1.2195905	o i k	-0.26772442
-0.970564	n i k	-1.3708884
-1.206642	d i k	-0.60502106
-1.1956613	r i k	-1.4556423
-1.3370852	e i k	-0.3602162
-1.1774555	p i k	-0.988825
-1.5470839	a i k	-0.27487382
-1.2527082	l i k	-1.1570721
-1.3289402	m i k	-0.81057775
-1.093603	ʑ i k	-0.939481
-1.1053922	j i k	-0.97215813
-1.082866	ɕ i k	-1.0739053
-1.4140514	q i k	-0.3475188
-1.2572466	ʁ i k	-0.5527668
-1.1071216	ɲ i k	-0.90163857
-1.1946782	ŋ i k	-1.0627578
-1.1815355	ɣ i k	-1.0529063
-1.0071303	z i k	-0.87567127
-0.287719	χ i k	-0.26772442
-1.2817283	g i k	-0.81308115
-1.2621979	ɟ i k	-0.39776045
-1.4534233	y i k	-0.2784932
-1.0812466	ʂ i k	-0.26772442
-1.3604288	ʐ i k	-0.95406294
-1.8653147	s c k	-0.26772442
-1.3331203	s o k	-0.90249443
-1.348953	t o k	-1.0036628
-1.330369	u o k	-0.35200295
-1.1732004	k o k	-0.8774897
-1.0498388	w o k	-0.44079703
-1.3369541	c o k	-0.27307543
-1.4028744	h o k	-0.97753197
-1.4048465	n o k	-0.5757202
-1.2264919	d o k	-0.66924864
-1.2070427	r o k	-0.8839438
-1.2499883	p o k	-0.27487382
-1.1269832	a o k	-0.4914641
-1.458461	l o k	-0.27577582
-1.2214831	m o k	-0.26772442
-1.2633709	ʑ o k	-1.928328
-1.5127392	j o k	-0.7401831
-1.4134511	ɕ o k	-0.5438885
-1.2198783	ʁ o k	-0.27307543
-1.2287711	ɲ o k	-0.26772442
-1.6153613	ŋ o k	-0.35488236
-1.1126482	ɣ o k	-0.4374175
-1.5316924	z o k	-0.26772442
-1.3596184	g o k	-1.1828513
-1.354478	ɟ o k	-0.26772442
-1.2172884	ʂ o k	-0.2784932
-1.1424068	ɢ o k	-0.26772442
-1.237196	ʐ o k	-0.44469184
-1.77775	u n k	-0.49813998
-1.3932295	ɯ n k	-0.7880862
-1.6085597	i n k	-0.71353716
-1.9091284	o n k	-0.95853215
-1.3214478	ɤ n k	-0.81949466
-1.58159	a n k	-0.74074
-1.5582842	s ɤ k	-0.8633862
-1.157666	t ɤ k	-1.6878375
-1.2712747	k ɤ k	-1.2090708
-1.3337462	ɯ ɤ k	-1.3322589
-0.93277115	i ɤ k	-0.31247878
-1.5402948	h ɤ k	-0.5188913
-1.1478208	n ɤ k	-2.69598
-1.6980262	d ɤ k	-0.27307543
-1.3937848	ɤ ɤ k	-0.26772442
-1.3520672	r ɤ k	-1.2794023
-1.5162593	p ɤ k	-0.30085042
-1.1195258	l ɤ k	-0.8353575
-1.153257	m ɤ k	-1.8762743
-1.092135	j ɤ k	-1.5894581
-1.3741908	ɕ ɤ k	-0.5343275
-1.195528	ɲ ɤ k	-1.7111179
-1.6027063	ŋ ɤ k	-0.26772442
-1.5664235	ɣ ɤ k	-1.1141112
-1.4261258	ɟ ɤ k	-0.26772442
-1.2241808	ʂ ɤ k	-0.26772442
-1.3476055	<SIL> r k	-0.42770663
-1.5094298	u r k	-0.6798437
-1.2598403	ɯ r k	-1.7335151
-1.7824697	i r k	-0.29402
-1.4813662	o r k	-0.81104153
-1.2366081	ɤ r k	-1.4688258
-1.3534718	e r k	-0.5438885
-1.2020717	a r k	-1.14413
-1.4437323	j r k	-0.26772442
-1.580369	ʁ r k	-0.26772442
-1.5970068	ɣ r k	-1.3220397
-1.5124338	β r k	-0.2784932
-1.1430221	<SIL> e k	-0.26772442
-1.2139691	s e k	-1.3363076
-1.3530499	t e k	-0.5583722
-1.1526812	u e k	-0.26772442
-1.3236264	k e k	-0.61350876
-0.83474404	ɯ e k	-0.26772442
-0.72469103	c e k	-0.26772442
-1.1933911	h e k	-1.0162476
-1.2017208	n e k	-0.30085042
-1.1875472	d e k	-0.65303296
-1.4625765	r e k	-1.4295319
-1.2238266	p e k	-0.62152666
-0.83474404	a e k	-0.26772442
-1.5758574	l e k	-0.98148555
-1.1637567	m e k	-1.5220629
-1.413238	ɕ e k	-1.8280582
-1.1511426	q e k	-0.27307543
-1.4047954	ʁ e k	-0.27487382
-1.2492743	ŋ e k	-1.255093
-1.2897902	ɣ e k	-0.5615794
-1.335654	z e k	-0.4858215
-1.3598202	b e k	-0.4374175
-1.3273019	g e k	-0.2784932
-1.0253857	ʐ e k	-0.30085042
-1.1665812	<SIL> a k	-0.8618487
-1.1224245	s a k	-1.0800921
-1.374612	t a k	-0.80984277
-1.2819481	u a k	-0.78291714
-1.2818168	k a k	-0.8877738
-1.3627563	ɯ a k	-0.7000742
-1.2578182	w a k	-0.70865726
-1.2570907	i a k	-0.63318425
-1.303417	c a k	-0.9657762
-1.4332933	h a k	-1.327899
-1.3523176	o a k	-0.770188
-1.3038673	n a k	-0.9611105
-1.2991986	d a k	-0.7896
-1.5337795	ɤ a k	-0.26772442
-1.2413911	r a k	-1.8774745
-1.3203975	e a k	-0.7264031
-1.1724563	p a k	-1.1916523
-1.232623	a a k	-0.4374175
-1.4287192	l a k	-0.90985
-1.2884846	m a k	-1.9140215
-1.0013092	ʑ a k	-1.1767013
-1.4022521	j a k	-0.60881996
-1.5553339	ɕ a k	-0.9424138
-1.5768079	q a k	-0.6409865
-1.4234616	ʁ a k	-0.5117038
-1.4467131	ɬ a k	-0.26772442
-1.3801785	ɲ a k	-0.26772442
-1.3295789	ŋ a k	-0.3794256
-1.0961546	ɣ a k	-1.158712
-0.9286901	β a k	-0.39776045
-1.4965146	z a k	-0.8775246
-1.4893613	f a k	-0.26772442
-1.4206259	b a k	-0.64280957
-1.411951	χ a k	-0.26772442
-1.2768222	g a k	-0.8283926
-1.1548117	ɟ a k	-0.64636606
-1.4032949	y a k	-0.30085042
-1.345703	ʂ a k	-0.30579594
-1.3184723	ʐ a k	-0.7255473
-2.012211	ɯ l k	-0.7070639
-1.5272995	ɤ l k	-1.2875121
-1.497954	<SIL> m k	-0.7384475
-1.3302952	u m k	-0.80337024
-1.2499946	ɯ m k	-1.4240165
-2.0034862	i m k	-0.26772442
-1.1628883	o m k	-0.92777723
-1.462192	n m k	-0.26772442
-1.2731346	ɤ m k	-1.3427635
-1.5692933	e m k	-0.4374175
-1.5121269	a m k	-0.60881996
-1.3820702	m m k	-0.26772442
-0.738858	g m k	-0.26772442
-2.1229994	ɯ ʑ k	-0.26772442
-2.0953906	a ʑ k	-0.26772442
-1.4210383	u j k	-0.44203252
-2.1779914	ɯ j k	-0.9493009
-1.9610124	i j k	-0.26772442
-1.4131247	ɤ j k	-1.1892993
-1.665401	e j k	-0.26772442
-1.9212575	p j k	-0.26772442
-1.561172	a j k	-0.65591234
-1.5036049	́ j k	-1.098599
-1.1418262	<SIL> ɕ k	-0.9873159
-1.3320901	u ɕ k	-0.3717366
-0.8652688	ɯ ɕ k	-1.5659604
-0.8542459	i ɕ k	-0.68490404
-1.0899525	o ɕ k	-0.43915313
-0.97284985	ɤ ɕ k	-0.9428029
-0.9401303	e ɕ k	-0.4623598
-1.1313441	a ɕ k	-0.58396626
-0.713632	l ɕ k	-0.26772442
-0.98635495	m ɕ k	-0.93226755
-1.2752115	ʁ ɕ k	-0.60188043
-1.1743186	ɣ ɕ k	-0.61350876
-0.8979789	β ɕ k	-0.31247878
-1.0469334	z ɕ k	-0.26772442
-1.2359366	o ʁ k	-1.4365662
-1.2887571	a ʁ k	-1.634698
-1.8345536	e ɲ k	-0.26772442
-1.1103429	<SIL> ŋ k	-1.0114487
-1.6226107	u ŋ k	-1.3538715
-0.93931717	ɯ ŋ k	-1.1530056
-1.1491946	o ŋ k	-0.56244
-1.2187433	ɤ ŋ k	-1.1777802
-1.620662	e ŋ k	-0.2784932
-1.2660347	a ŋ k	-1.4002172
-1.3515832	ɯ ɣ k	-0.96884155
-1.720052	w ɣ k	-0.28952682
-1.2676021	ɤ ɣ k	-1.0205618
-1.3512852	ʑ ɣ k	-0.26772442
-1.4733222	ɯ β k	-0.676514
-1.2110814	o β k	-0.27487382
-1.3530686	ɤ β k	-0.7865563
-1.3003901	a β k	-0.80069935
-1.7768558	u z k	-0.26772442
-1.3846668	ɯ z k	-1.0064799
-1.6256298	i z k	-0.27487382
-1.3110336	o z k	-0.7455671
-1.5721521	ɤ z k	-0.90163857
-1.4112262	a z k	-0.5020906
-1.1887438	<SIL> f k	-0.26772442
-0.94045144	u f k	-0.4374175
-0.6618245	ɯ f k	-1.2530895
-1.0583771	i f k	-0.30085042
-1.150429	o f k	-0.51458323
-0.6967538	ɤ f k	-1.1017294
-1.1325651	e f k	-0.26772442
-0.99136406	a f k	-0.44014806
-0.74884844	ʁ f k	-0.26772442
-0.74884844	ɣ f k	-0.4606979
-1.7005311	a χ k	-0.37774503
-1.6241245	n g k	-0.92255664
-1.7477849	ɯ ́ k	-0.26772442
-1.3995559	ɟ y k	-0.48857003
-0.2085333	n 1 k	-0.26772442
-0.2085333	ɛ ɛ k	-0.26772442
-1.0465397	<s> <SIL> ɯ	-1.766391
-1.0383111	s <SIL> ɯ	-0.26772442
-1.2902124	t <SIL> ɯ	-0.32757992
-1.303326	u <SIL> ɯ	-0.8355341
-1.3101224	ɯ <SIL> ɯ	-1.4320617
-0.98577976	w <SIL> ɯ	-0.2784932
-1.2761991	i <SIL> ɯ	-1.1264234
-1.218035	o <SIL> ɯ	-0.75864357
-1.3517789	n <SIL> ɯ	-0.34130824
-1.1895424	ɤ <SIL> ɯ	-0.47789937
-1.1589701	r <SIL> ɯ	-0.4043169
-1.3793246	e <SIL> ɯ	-1.1579782
-1.2864331	a <SIL> ɯ	-0.98679733
-1.3019314	l <SIL> ɯ	-0.27307543
-1.2754937	m <SIL> ɯ	-0.5031837
-1.3098457	j <SIL> ɯ	-0.29326943
-0.9882437	ɕ <SIL> ɯ	-0.26772442
-1.402389	ʁ <SIL> ɯ	-0.6703494
-1.2902166	ŋ <SIL> ɯ	-0.47647193
-1.3188331	ɣ <SIL> ɯ	-0.28952613
-1.3074901	β <SIL> ɯ	-0.37544835
-1.335397	z <SIL> ɯ	-0.37622517
-1.3152252	g <SIL> ɯ	-0.28952682
-1.1812999	y <SIL> ɯ	-0.26772442
-1.104252	<SIL> s ɯ	-1.2669241
-0.8562285	t s ɯ	-1.4543955
-0.85046566	u s ɯ	-0.7274165
-1.1104081	ɯ s ɯ	-1.3726285
-0.9406017	x s ɯ	-0.8783474
-1.0950683	i s ɯ	-0.864187
-0.9383217	o s ɯ	-0.8724947
-0.9195678	ɤ s ɯ	-1.3925586
-0.9037222	r s ɯ	-0.59505
-1.0055811	e s ɯ	-0.80864525
-0.88842416	a s ɯ	-0.8276206
-0.9120849	m s ɯ	-0.4606979
-1.1338775	j s ɯ	-0.46936068
-1.1904924	ʁ s ɯ	-0.31247878
-0.93477964	ŋ s ɯ	-0.49813998
-0.99070704	ɣ s ɯ	-0.78251576
-0.93232805	β s ɯ	-0.87675023
-0.9887691	f s ɯ	-0.8675029
-0.5110935	χ s ɯ	-1.141503
-0.6984133	́ s ɯ	-0.26772442
-0.9691651	<SIL> t ɯ	-1.6015003
-0.9486647	s t ɯ	-1.0739053
-0.96659106	t t ɯ	-0.6986027
-0.94105476	u t ɯ	-0.9528359
-1.0662628	ɯ t ɯ	-1.5919207
-0.91556984	w t ɯ	-0.26772442
-0.8577391	x t ɯ	-1.5277637
-0.9349131	i t ɯ	-1.0907402
-1.0499632	o t ɯ	-0.74597955
-1.5828348	n t ɯ	-0.27577582
-1.2340782	ɤ t ɯ	-1.1454947
-1.1309863	r t ɯ	-1.1327074
-0.9114478	e t ɯ	-1.26347
-0.5432267	p t ɯ	-0.81240416
-1.0557564	a t ɯ	-1.0381236
-1.0389092	l t ɯ	-0.27128443
-1.272656	m t ɯ	-0.52866876
-0.8832959	j t ɯ	-0.4728943
-1.3072633	ɕ t ɯ	-0.5527668
-1.0038086	ʁ t ɯ	-0.60883874
-1.1716326	ŋ t ɯ	-0.4374175
-1.0612755	ɣ t ɯ	-0.44675142
-1.0016499	β t ɯ	-0.28634316
-0.87827003	z t ɯ	-0.46302086
-1.1564543	f t ɯ	-0.27307543
-0.7503633	χ t ɯ	-0.65354466
-0.99628973	g t ɯ	-0.26772442
-0.9635634	́ t ɯ	-0.26772442
-0.8603096	y t ɯ	-0.2784932
-1.6313748	s u ɯ	-0.26772442
-1.4586909	t u ɯ	-0.5481862
-1.4045954	k u ɯ	-0.66905916
-1.7185416	w u ɯ	-0.27487382
-1.4080659	i u ɯ	-0.26772442
-1.4677953	c u ɯ	-0.27487382
-1.3407236	h u ɯ	-0.63825446
-1.3960035	o u ɯ	-0.26772442
-1.5920273	d u ɯ	-0.26772442
-1.4979405	r u ɯ	-0.7711583
-1.2797006	p u ɯ	-0.91347945
-1.395049	l u ɯ	-0.4906752
-1.3842096	m u ɯ	-0.33064675
-1.3322288	ʑ u ɯ	-0.2879321
-1.8651963	j u ɯ	-0.27307543
-1.5295817	ɕ u ɯ	-0.48389193
-1.3616052	ŋ u ɯ	-0.40304178
-1.370222	z u ɯ	-0.33203888
-1.3057424	b u ɯ	-0.5020906
-1.6439402	g u ɯ	-0.27693835
-1.5610391	y u ɯ	-0.26772442
-1.3222961	ʂ u ɯ	-0.2951523
-0.74189615	<SIL> k ɯ	-1.9193193
-0.5535924	s k ɯ	-0.46910888
-0.59643716	t k ɯ	-0.81242263
-0.52248216	u k ɯ	-1.5397892
-0.24588484	k k ɯ	-0.26772442
-0.6593222	ɯ k ɯ	-1.9306813
-0.61157453	i k ɯ	-1.4446671
-0.24588484	c k ɯ	-0.26772442
-0.5909257	o k ɯ	-1.2482059
-0.6512806	n k ɯ	-0.60453725
-0.7764751	ɤ k ɯ	-1.257967
-0.78353715	r k ɯ	-1.2422286
-0.57191366	e k ɯ	-1.3989011
-0.6676424	a k ɯ	-1.4829645
-0.72477436	l k ɯ	-0.56487393
-0.84904146	m k ɯ	-0.9136011
-0.21901515	ʑ k ɯ	-0.26772442
-0.602186	j k ɯ	-0.3713995
-1.016553	ɕ k ɯ	-0.89605534
-0.8395617	ʁ k ɯ	-1.0666469
-0.7944749	ŋ k ɯ	-0.8748621
-0.79390454	ɣ k ɯ	-0.60020566
-0.6878195	β k ɯ	-0.5703812
-0.6221735	z k ɯ	-0.6462617
-0.7931478	f k ɯ	-1.3737677
-0.49419725	χ k ɯ	-0.26772442
-0.7640852	g k ɯ	-0.6494076
-0.49419725	y k ɯ	-0.28952536
-0.24588484	ɛ k ɯ	-0.26772442
-2.1282575	s ɯ ɯ	-0.4144641
-2.097803	t ɯ ɯ	-0.26772442
-1.5583818	k ɯ ɯ	-0.8827205
-1.4378891	w ɯ ɯ	-0.27128443
-2.0776343	i ɯ ɯ	-0.26772442
-1.8569878	c ɯ ɯ	-0.26772442
-1.5974059	h ɯ ɯ	-0.35557717
-1.4592986	n ɯ ɯ	-1.6576843
-1.7773886	d ɯ ɯ	-0.28067324
-1.5525048	r ɯ ɯ	-0.6341008
-1.7958472	p ɯ ɯ	-0.3212607
-1.7978547	l ɯ ɯ	-0.26772442
-2.001951	m ɯ ɯ	-0.27199996
-1.696159	ʑ ɯ ɯ	-0.30764058
-1.7451308	j ɯ ɯ	-0.27384526
-1.8317529	ɕ ɯ ɯ	-0.334391
-1.6431847	ʁ ɯ ɯ	-0.26772442
-2.3364284	ɲ ɯ ɯ	-0.26772442
-1.5533122	ŋ ɯ ɯ	-0.26772442
-1.1357386	ɣ ɯ ɯ	-1.4394553
-1.4747039	z ɯ ɯ	-0.3376786
-1.5313162	b ɯ ɯ	-0.26772442
-1.681146	g ɯ ɯ	-0.44321483
-1.3804109	ɟ ɯ ɯ	-0.27487382
-1.4624276	<SIL> w ɯ	-0.49813998
-1.0784295	ɯ w ɯ	-0.76729995
-1.2351334	o w ɯ	-0.26772442
-0.8442141	ɤ w ɯ	-0.7590395
-1.0108248	r w ɯ	-0.39681378
-1.414595	e w ɯ	-0.26772442
-0.93575865	a w ɯ	-0.44573998
-1.1159066	l w ɯ	-0.26772442
-0.9346679	ʁ w ɯ	-0.3835368
-1.2903234	<SIL> x ɯ	-0.30085042
-1.6037246	ɯ x ɯ	-0.27487382
-1.2755948	i x ɯ	-0.2784932
-1.1468633	o x ɯ	-0.26772442
-1.1729031	ɤ x ɯ	-0.60188043
-0.54156923	r x ɯ	-0.7896
-1.0409365	e x ɯ	-0.37320125
-0.54156923	β x ɯ	-0.4374175
-1.1085503	s i ɯ	-0.75204337
-1.2979305	t i ɯ	-0.4801984
-1.3826969	u i ɯ	-0.26772442
-1.2936893	k i ɯ	-0.83962846
-1.2375296	w i ɯ	-0.39776045
-1.3903437	c i ɯ	-0.8296131
-1.4922128	h i ɯ	-0.5480061
-1.4383626	n i ɯ	-0.44124508
-1.2991543	d i ɯ	-0.6364427
-1.3033617	r i ɯ	-0.9315955
-1.416402	e i ɯ	-0.39776045
-1.2977657	p i ɯ	-0.29402
-1.5062381	a i ɯ	-0.26772442
-1.2986357	l i ɯ	-0.64554274
-1.3369724	m i ɯ	-0.44978443
-1.4383122	ʑ i ɯ	-0.31053165
-1.4774883	j i ɯ	-0.96317285
-1.400911	ɕ i ɯ	-0.39112052
-1.4280822	q i ɯ	-0.50887334
-1.2693474	ʁ i ɯ	-0.26772442
-1.4094841	ɲ i ɯ	-0.26772442
-1.3572698	ŋ i ɯ	-0.535926
-1.233629	ɣ i ɯ	-0.40413803
-0.573823	β i ɯ	-0.26772442
-1.0660139	z i ɯ	-0.5367764
-1.514228	b i ɯ	-0.27487382
-1.2939551	g i ɯ	-0.37622517
-1.4556298	ɟ i ɯ	-0.26772442
-1.3761845	ʐ i ɯ	-0.27631798
-0.9317978	<SIL> c ɯ	-0.6049111
-1.0616282	s c ɯ	-0.8891221
-1.2261058	t c ɯ	-0.26772442
-1.1933639	u c ɯ	-0.29139337
-1.228677	ɯ c ɯ	-0.3996779
-1.2854096	i c ɯ	-0.35647213
-1.1356832	o c ɯ	-0.29402
-1.1578791	n c ɯ	-0.27631798
-0.72310936	ɤ c ɯ	-0.55566466
-1.0679479	r c ɯ	-0.5938176
-1.3002965	e c ɯ	-0.3583401
-1.12392	a c ɯ	-0.27487382
-0.8597836	ʁ c ɯ	-0.26772442
-1.1204826	ɲ c ɯ	-0.26772442
-0.90456915	ɣ c ɯ	-0.27487382
-1.649165	s h ɯ	-1.3408198
-0.6355196	t h ɯ	-1.3533546
-0.80233365	k h ɯ	-1.3516701
-1.1410551	ɯ h ɯ	-0.26772442
-0.7273485	c h ɯ	-1.4077364
-0.7973476	p h ɯ	-1.2472374
-1.103215	ɕ h ɯ	-1.0041265
-1.2834153	q h ɯ	-1.0886731
-0.70063925	ʂ h ɯ	-0.3794256
-1.4852502	s o ɯ	-0.2703917
-2.0109267	t o ɯ	-0.26772442
-1.5400727	u o ɯ	-0.26772442
-1.7042072	k o ɯ	-0.26772442
-1.5975648	w o ɯ	-0.30085042
-1.5907019	c o ɯ	-0.26772442
-1.4188211	h o ɯ	-0.60933185
-1.4873688	n o ɯ	-0.3027679
-1.4943829	d o ɯ	-0.27247763
-1.3268957	r o ɯ	-0.64110804
-1.3944983	a o ɯ	-0.30579594
-1.7642533	l o ɯ	-0.26772442
-1.2358935	m o ɯ	-0.26772442
-1.3966893	ʑ o ɯ	-0.8765254
-1.9315684	j o ɯ	-0.26772442
-1.4286028	ɕ o ɯ	-0.26772442
-1.26944	q o ɯ	-0.26772442
-1.6275529	ʁ o ɯ	-0.26772442
-1.4374318	ɲ o ɯ	-0.26772442
-1.4704937	ŋ o ɯ	-0.54929256
-1.3924686	ɣ o ɯ	-0.48892805
-1.3730421	z o ɯ	-0.2784932
-1.4413273	g o ɯ	-0.27487382
-1.2525494	ʐ o ɯ	-0.26772442
-0.71185255	<SIL> n ɯ	-2.2099364
-0.9438767	s n ɯ	-0.94648194
-0.57336164	t n ɯ	-1.4126949
-0.5724282	u n ɯ	-1.715794
-0.26430926	k n ɯ	-0.26772442
-0.87811655	ɯ n ɯ	-2.3125906
-0.6742373	w n ɯ	-0.31247878
-0.7151454	i n ɯ	-2.046863
-0.66857946	h n ɯ	-0.26772442
-0.65375644	o n ɯ	-1.5123453
-0.5366364	n n ɯ	-0.9310129
-0.9944171	ɤ n ɯ	-1.3575968
-0.6797616	r n ɯ	-1.1778196
-0.72573686	e n ɯ	-2.010521
-0.832034	a n ɯ	-1.9468647
-0.77699965	l n ɯ	-0.8340886
-0.79020107	m n ɯ	-1.094904
-0.15436122	ʑ n ɯ	-0.59429944
-0.8563896	j n ɯ	-0.6540339
-0.7075819	ɕ n ɯ	-0.84549326
-0.41683948	ʁ n ɯ	-1.6206712
-0.7521471	ŋ n ɯ	-0.5539495
-1.0390022	ɣ n ɯ	-1.0454491
-0.63381594	β n ɯ	-0.99549735
-0.6192701	z n ɯ	-0.97609663
-0.8280601	g n ɯ	-0.63511574
-0.60262847	́ n ɯ	-0.26772442
-0.39278275	y n ɯ	-0.42404878
-0.26430926	v n ɯ	-0.26772442
-0.26430926	ü n ɯ	-0.26772442
-0.9088495	<SIL> d ɯ	-0.83535755
-0.9687224	u d ɯ	-0.26772442
-0.6478082	ɯ d ɯ	-1.161298
-1.1860241	i d ɯ	-0.2784932
-0.91342396	o d ɯ	-0.26772442
-0.952036	n d ɯ	-1.3359284
-0.8385587	ɤ d ɯ	-0.5043643
-0.75531137	r d ɯ	-0.3996289
-1.1690502	e d ɯ	-0.2784932
-1.2335032	a d ɯ	-0.26772442
-0.8496665	l d ɯ	-0.98148555
-1.1086751	m d ɯ	-0.28952613
-0.3904492	ʁ d ɯ	-1.1817105
-0.7467704	ɣ d ɯ	-1.0381677
-1.1018429	β d ɯ	-0.5757202
-0.4210895	z d ɯ	-1.3429644
-0.25917494	χ d ɯ	-0.2784932
-2.1326551	s ɤ ɯ	-0.26772442
-2.4532962	k ɤ ɯ	-0.26772442
-1.5954995	n ɤ ɯ	-0.5371705
-1.8947864	d ɤ ɯ	-0.26772442
-1.907318	p ɤ ɯ	-0.26772442
-2.2311091	j ɤ ɯ	-0.26772442
-1.1917169	<SIL> r ɯ	-0.8523909
-0.3360474	s r ɯ	-0.8079795
-1.4063165	u r ɯ	-0.6137538
-0.8071059	k r ɯ	-0.4053387
-1.3503921	ɯ r ɯ	-1.1333925
-1.2096778	i r ɯ	-0.43345502
-0.5260068	c r ɯ	-0.30085042
-0.8569851	h r ɯ	-0.83958983
-1.4535362	o r ɯ	-0.5567787
-1.3004923	n r ɯ	-0.4374175
-0.8791492	d r ɯ	-0.26772442
-1.3287169	ɤ r ɯ	-0.9786495
-1.296103	r r ɯ	-0.26772442
-1.3209826	e r ɯ	-0.4482094
-0.90826714	p r ɯ	-0.35647213
-1.329694	a r ɯ	-0.45263314
-1.0909238	ʑ r ɯ	-0.26772442
-0.9410847	ɕ r ɯ	-0.4374175
-0.69899213	q r ɯ	-0.5667397
-0.9026079	ʁ r ɯ	-0.82405853
-1.1836692	ɣ r ɯ	-0.81773573
-1.1657481	β r ɯ	-0.2985638
-0.64533186	z r ɯ	-0.8286646
-0.9484602	b r ɯ	-0.9159929
-0.5113407	g r ɯ	-1.0114962
-1.0630935	́ r ɯ	-0.61350876
-0.5538449	ɢ r ɯ	-0.3351242
-1.4749892	s e ɯ	-0.6355992
-1.5791008	t e ɯ	-0.27487382
-1.3781451	u e ɯ	-0.26772442
-1.4906702	k e ɯ	-0.27307543
-1.29233	h e ɯ	-0.6581844
-1.4528551	d e ɯ	-0.4161701
-1.4996289	r e ɯ	-0.9269307
-1.0002428	e e ɯ	-0.26772442
-1.5761945	p e ɯ	-0.27077407
-1.4682813	l e ɯ	-0.27631798
-1.2860956	m e ɯ	-0.5893777
-1.4355026	ɕ e ɯ	-1.382989
-1.1722418	q e ɯ	-0.27307543
-1.4425244	ʁ e ɯ	-0.26772442
-1.275693	ŋ e ɯ	-0.2858167
-1.4603707	ɣ e ɯ	-0.57583416
-1.3644832	z e ɯ	-0.2703917
-1.3870096	b e ɯ	-0.26772442
-1.5264118	g e ɯ	-0.26772442
-1.0409158	ʐ e ɯ	-0.26772442
-0.7783872	<SIL> p ɯ	-1.1330895
-1.1075292	s p ɯ	-0.44993895
-0.66328585	t p ɯ	-0.4656181
-0.61124736	u p ɯ	-0.59870183
-0.82668555	ɯ p ɯ	-1.3755867
-0.67174244	i p ɯ	-0.8978621
-0.6852601	o p ɯ	-0.7013261
-0.6655027	n p ɯ	-0.36411327
-0.8218126	ɤ p ɯ	-1.0102838
-0.87130314	r p ɯ	-0.28041798
-0.73559433	e p ɯ	-0.6333904
-0.65814614	a p ɯ	-1.2044885
-0.8084204	l p ɯ	-0.26772442
-0.82141495	m p ɯ	-0.6360829
-0.7883804	j p ɯ	-0.77750194
-0.6754151	ɕ p ɯ	-0.8250012
-0.9555011	ʁ p ɯ	-0.6984173
-1.0619491	ŋ p ɯ	-0.27487382
-0.94022137	ɣ p ɯ	-0.28067324
-0.6818423	β p ɯ	-0.33034387
-0.67407644	z p ɯ	-0.3475188
-0.65967506	χ p ɯ	-0.7644011
-0.6666712	g p ɯ	-0.26772442
-0.263556	y p ɯ	-0.26772442
-1.4101605	s a ɯ	-0.7099684
-1.6132047	t a ɯ	-0.28655526
-1.5540094	k a ɯ	-0.5723024
-1.1990671	w a ɯ	-0.34734675
-1.6203758	i a ɯ	-0.35488236
-1.3266828	c a ɯ	-0.5477726
-1.3960817	h a ɯ	-0.8565706
-1.7329823	o a ɯ	-0.2784932
-1.4986346	n a ɯ	-0.31549892
-1.3182873	d a ɯ	-0.3475188
-1.4749907	r a ɯ	-0.7470614
-1.6533811	e a ɯ	-0.37320125
-1.282208	p a ɯ	-0.55535936
-1.7879746	a a ɯ	-0.26772442
-1.5146651	l a ɯ	-0.32006732
-1.3251352	m a ɯ	-0.789335
-1.6491275	ʑ a ɯ	-0.27384526
-1.614335	j a ɯ	-0.4144641
-1.5886554	ɕ a ɯ	-0.3376786
-1.9032925	q a ɯ	-0.27077407
-1.5220189	ʁ a ɯ	-0.26772442
-1.4048774	ɲ a ɯ	-0.26772442
-1.4296399	ŋ a ɯ	-0.44183695
-1.2082585	ɣ a ɯ	-0.4271937
-1.5348684	z a ɯ	-0.6215536
-1.5242537	f a ɯ	-0.26772442
-1.5863029	b a ɯ	-0.29326943
-1.6137218	g a ɯ	-0.40013054
-1.4122291	ɟ a ɯ	-0.26772442
-1.6298974	y a ɯ	-0.2784932
-1.3789198	ʂ a ɯ	-0.35647213
-1.349869	ʐ a ɯ	-0.26772442
-1.0886669	<SIL> l ɯ	-1.0734818
-1.0874405	s l ɯ	-0.26772442
-1.0735302	t l ɯ	-0.26772442
-1.3961836	u l ɯ	-0.31247878
-0.5033001	k l ɯ	-0.2784932
-0.9746932	ɯ l ɯ	-0.6736563
-1.2265123	i l ɯ	-0.5438885
-0.82834566	h l ɯ	-0.30579594
-0.9818178	o l ɯ	-0.61350876
-1.1055921	ɤ l ɯ	-0.63195014
-0.9578387	r l ɯ	-0.29326943
-1.107177	e l ɯ	-1.0394775
-0.7563722	p l ɯ	-0.26772442
-1.2007014	a l ɯ	-1.1611885
-1.0007206	m l ɯ	-0.26772442
-1.279737	j l ɯ	-0.81308115
-1.0063181	ɕ l ɯ	-0.7384475
-0.4798677	q l ɯ	-1.1141112
-0.7635872	ʁ l ɯ	-0.5597422
-1.1685591	ɣ l ɯ	-0.68045557
-0.7789699	β l ɯ	-0.553537
-1.0228472	z l ɯ	-0.26772442
-0.9243259	g l ɯ	-0.87675023
-0.6687772	ɢ l ɯ	-0.9145388
-0.8927443	<SIL> m ɯ	-1.3039619
-0.5996314	s m ɯ	-0.72141707
-0.7231172	t m ɯ	-0.7811123
-0.9267209	u m ɯ	-0.73597485
-1.1884737	ɯ m ɯ	-1.4937718
-0.8623526	i m ɯ	-1.1138867
-1.0721239	o m ɯ	-1.1101019
-1.0739954	n m ɯ	-0.83269846
-1.1285003	ɤ m ɯ	-0.9438834
-1.0141057	r m ɯ	-0.7298901
-0.78163636	e m ɯ	-1.0428556
-0.8992511	a m ɯ	-1.1807444
-0.98073745	l m ɯ	-0.27384526
-0.8047309	m m ɯ	-0.7779717
-1.0344287	j m ɯ	-0.67757165
-0.94960845	ɕ m ɯ	-0.26772442
-0.6987399	ʁ m ɯ	-1.2348765
-1.008357	ɣ m ɯ	-0.658539
-0.85328186	β m ɯ	-0.3602162
-0.7811091	z m ɯ	-0.5043643
-0.69996214	g m ɯ	-0.26772442
-0.86021054	<SIL> ʑ ɯ	-1.0842497
-1.3895931	u ʑ ɯ	-0.2784932
-0.89552325	ɯ ʑ ɯ	-1.0736898
-1.1419884	i ʑ ɯ	-0.60682595
-1.1671408	o ʑ ɯ	-0.8783474
-0.7441301	n ʑ ɯ	-0.31247878
-0.6305839	d ʑ ɯ	-0.9374424
-0.9410699	ɤ ʑ ɯ	-1.0432519
-1.0295044	r ʑ ɯ	-0.89206165
-0.84891456	e ʑ ɯ	-1.127902
-0.7039696	a ʑ ɯ	-1.1656883
-0.93182194	j ʑ ɯ	-0.26772442
-0.47667035	ʁ ʑ ɯ	-0.7384475
-1.0560817	ɣ ʑ ɯ	-0.93226755
-0.46341494	β ʑ ɯ	-0.76774836
-0.6626256	g ʑ ɯ	-0.2784932
-0.26195243	ɟ ʑ ɯ	-0.26772442
-1.1872312	<SIL> j ɯ	-0.6196092
-0.4239298	s j ɯ	-0.2985638
-1.1541858	t j ɯ	-0.26772442
-1.5142655	u j ɯ	-0.29402
-1.115703	ɯ j ɯ	-0.7726022
-1.5172758	i j ɯ	-0.5151181
-0.7929037	h j ɯ	-0.350726
-1.4123567	o j ɯ	-0.26772442
-1.2117375	n j ɯ	-0.26772442
-1.2921937	ɤ j ɯ	-0.45736527
-1.1160662	r j ɯ	-0.26772442
-1.4531661	e j ɯ	-0.2870506
-0.44225132	p j ɯ	-1.4868896
-1.4391483	a j ɯ	-0.8033298
-1.171099	m j ɯ	-0.26772442
-0.9896872	ʁ j ɯ	-0.59085536
-1.1326299	ɣ j ɯ	-0.26772442
-1.1099207	β j ɯ	-0.26772442
-0.27415287	f j ɯ	-0.26772442
-0.47781855	b j ɯ	-0.5020906
-1.2584425	́ j ɯ	-0.26772442
-1.0193058	<SIL> ɕ ɯ	-0.7548567
-1.11825	t ɕ ɯ	-1.6010607
-0.9432793	u ɕ ɯ	-0.5808134
-0.9147293	ɯ ɕ ɯ	-1.4963875
-1.3956285	x ɕ ɯ	-0.53432757
-1.1431682	i ɕ ɯ	-0.35402218
-0.97061336	o ɕ ɯ	-0.31892055
-0.99299276	ɤ ɕ ɯ	-0.7451661
-0.66488355	r ɕ ɯ	-0.76172787
-1.1027207	e ɕ ɯ	-0.31926006
-1.3557671	p ɕ ɯ	-1.5117038
-1.0444587	a ɕ ɯ	-0.4618495
-1.1402552	m ɕ ɯ	-0.26772442
-1.0617969	j ɕ ɯ	-0.26772442
-1.0253159	ʁ ɕ ɯ	-0.7401831
-0.68876374	ŋ ɕ ɯ	-0.26772442
-0.82932985	ɣ ɕ ɯ	-0.32516578
-1.075498	f ɕ ɯ	-0.5773174
-1.1656548	χ ɕ ɯ	-0.6047598
-1.5266683	<SIL> q ɯ	-0.2784932
-0.7439356	s q ɯ	-0.46901828
-1.756429	ɯ q ɯ	-0.27307543
-1.149841	r q ɯ	-0.27487382
-1.7915356	a q ɯ	-0.26772442
-1.5716178	ɴ q ɯ	-0.2784932
-1.3044586	o ʁ ɯ	-0.8523709
-1.5045059	ɤ ʁ ɯ	-0.31247878
-1.0443413	r ʁ ɯ	-0.68318605
-1.3641593	a ʁ ɯ	-0.96578
-0.9096416	l ʁ ɯ	-0.2784932
-0.28925022	ɕ ʁ ɯ	-0.27487382
-0.28925022	ŋ ʁ ɯ	-0.26772442
-1.3425195	<SIL> ɬ ɯ	-0.26772442
-0.9014929	ɤ ɬ ɯ	-0.2784932
-1.0126694	e ɬ ɯ	-0.26772442
-0.39128667	<SIL> ɲ ɯ	-1.6243955
-0.6463084	s ɲ ɯ	-0.38088173
-0.24390374	t ɲ ɯ	-0.8630109
-0.27324623	u ɲ ɯ	-0.86812073
-0.37172043	ɯ ɲ ɯ	-1.414324
-0.27861205	i ɲ ɯ	-1.4114424
-0.23768145	o ɲ ɯ	-1.1008908
-0.3545554	n ɲ ɯ	-0.5188409
-0.7603874	ɤ ɲ ɯ	-0.47009715
-0.7483174	r ɲ ɯ	-0.66877425
-0.27749133	e ɲ ɯ	-1.2834517
-0.31755775	a ɲ ɯ	-1.2306097
-0.49119732	l ɲ ɯ	-0.4869904
-0.5469206	m ɲ ɯ	-0.79351884
-0.24538785	j ɲ ɯ	-0.37320125
-0.21454872	ɕ ɲ ɯ	-0.26772442
-0.6263338	ʁ ɲ ɯ	-0.9566098
-0.33055013	ŋ ɲ ɯ	-0.39548758
-0.61447036	ɣ ɲ ɯ	-0.5916437
-0.32742321	β ɲ ɯ	-0.33777532
-0.39382952	z ɲ ɯ	-0.5313947
-0.21454872	g ɲ ɯ	-0.27307543
-0.23004907	ʂ ɲ ɯ	-0.31247878
-0.21454872	ü ɲ ɯ	-0.26772442
-1.0299604	s ŋ ɯ	-0.8392689
-1.363041	ɯ ŋ ɯ	-1.0412132
-1.2189109	o ŋ ɯ	-0.47052777
-1.3541389	ɤ ŋ ɯ	-0.4769417
-0.765645	r ŋ ɯ	-1.7190189
-1.5672458	e ŋ ɯ	-0.26772442
-1.4857287	a ŋ ɯ	-0.33777532
-0.9573018	l ŋ ɯ	-0.26772442
-1.1540469	m ŋ ɯ	-0.27487382
-0.5012734	<SIL> ɣ ɯ	-1.2514496
-0.63510215	t ɣ ɯ	-0.6494076
-0.39042437	u ɣ ɯ	-1.0813571
-1.0818784	ɯ ɣ ɯ	-1.3762186
-0.38500777	i ɣ ɯ	-1.0135257
-0.31407094	o ɣ ɯ	-0.9665865
